#mdl#-147342894#1992
#rdr#92/25/0
10:u:%x[-3,0],
10:u:%x[-2,0],
10:u:%x[-1,0],
9:u:%x[0,0],
9:u:%x[1,0],
9:u:%x[2,0],
9:u:%x[3,0],
18:u:%x[-1,0]/%x[0,0],
17:u:%x[0,0]/%x[1,0],
9:u:%x[0,1],
10:u:%x[-1,1],
9:u:%x[0,2],
9:u:%x[0,3],
9:u:%x[0,4],
9:u:%x[0,5],
9:u:%x[0,6],
9:u:%x[0,7],
9:u:%x[0,8],
9:u:%x[0,9],
11:u:%x[-2,10],
11:u:%x[-1,10],
10:u:%x[0,10],
10:u:%x[1,10],
10:u:%x[2,10],
10:u:%x[0,11],
11:u:%x[-1,12],
10:u:%x[0,12],
10:u:%x[1,12],
20:u:%x[-1,12]/%x[0,12],
19:u:%x[0,12]/%x[1,12],
10:u:%x[0,13],
10:u:%x[0,14],
10:u:%x[0,15],
10:u:%x[0,16],
10:u:%x[0,17],
10:u:%x[0,18],
10:u:%x[0,19],
10:u:%x[0,20],
10:u:%x[0,21],
10:u:%x[0,22],
10:u:%x[0,23],
29:u:%x[-1,23]/%x[0,24]/%x[0,21],
29:u:%x[-1,23]/%x[0,24]/%x[1,11],
10:u:%x[0,25],
19:u:%x[0,25]/%x[1,12],
1:b,
10:u:%x[-3,0],
10:u:%x[-2,0],
10:u:%x[-1,0],
9:u:%x[0,0],
9:u:%x[1,0],
9:u:%x[2,0],
9:u:%x[3,0],
18:u:%x[-1,0]/%x[0,0],
17:u:%x[0,0]/%x[1,0],
9:u:%x[0,1],
10:u:%x[-1,1],
9:u:%x[0,2],
9:u:%x[0,3],
9:u:%x[0,4],
9:u:%x[0,5],
9:u:%x[0,6],
9:u:%x[0,7],
9:u:%x[0,8],
9:u:%x[0,9],
11:u:%x[-2,10],
11:u:%x[-1,10],
10:u:%x[0,10],
10:u:%x[1,10],
10:u:%x[2,10],
10:u:%x[0,11],
11:u:%x[-1,12],
10:u:%x[0,12],
10:u:%x[1,12],
20:u:%x[-1,12]/%x[0,12],
19:u:%x[0,12]/%x[1,12],
10:u:%x[0,13],
10:u:%x[0,14],
10:u:%x[0,15],
10:u:%x[0,16],
10:u:%x[0,17],
10:u:%x[0,18],
10:u:%x[0,19],
10:u:%x[0,20],
10:u:%x[0,21],
10:u:%x[0,22],
10:u:%x[0,23],
29:u:%x[-1,23]/%x[0,24]/%x[0,21],
29:u:%x[-1,23]/%x[0,24]/%x[1,11],
10:u:%x[0,25],
19:u:%x[0,25]/%x[1,12],
1:b,
#qrk#26
6:author,
5:title,
6:editor,
9:booktitle,
4:date,
7:journal,
6:volume,
5:genre,
9:authority,
5:pages,
8:location,
9:publisher,
3:url,
4:note,
7:unknown,
7:edition,
6:source,
10:translator,
4:isbn,
3:doi,
8:accessed,
7:section,
8:director,
6:medium,
8:producer,
5:event,
#qrk#903
6:u:_x-3,
6:u:_x-2,
6:u:_x-1,
4:u:R.,
3:u:.,
3:u:A,
3:u:a,
3:u:r,
8:u:single,
6:u:none,
11:u:_x-1/none,
11:u:none/none,
4:u:96,
9:u:no-male,
11:u:no-female,
12:u:no-surname,
10:u:no-month,
10:u:no-place,
11:u:publisher,
9:u:journal,
12:u:no-editors,
3:u:0,
10:u:terminal,
23:u:_x-1/other/no-editors,
20:u:_x-1/other/initial,
1:b,
5:u:and,
3:u:,,
3:u:C,
9:u:initial,
14:u:no-publisher,
12:u:no-journal,
10:u:internal,
27:u:terminal/other/no-editors,
3:u:R,
4:u:32,
3:u:1,
27:u:internal/other/no-editors,
24:u:internal/other/initial,
4:u:de,
3:u:4,
9:u:surname,
22:u:terminal/other/other,
7:u:lower,
4:u:an,
3:u:d,
4:u:nd,
7:u:other,
8:u:others,
3:u:W,
5:u:all,
3:u:2,
25:u:others/other/no-editors,
20:u:others/other/other,
3:u:e,
6:u:male,
8:u:female,
7:u:place,
24:u:terminal/other/initial,
13:u:development,
4:u:Ro,
22:u:others/other/initial,
3:u:F,
3:u:g,
4:u:ng,
5:u:ing,
3:u:3,
3:u:D,
4:u:Di,
3:u:s,
3:u:t,
4:u:64,
3:u:y,
4:u:In,
3:u:n,
4:u:in,
4:u:C.,
3:u:S,
4:u:B.,
3:u:f,
3:u:c,
3:u:I,
3:u:b,
4:u:84,
3:u:5,
21:u:others/other/single,
3:u:B,
3:u:J,
4:u:s,,
4:u:20,
3:u:6,
4:u:T.,
4:u:21,
3:u:7,
3:u:T,
4:u:De,
3:u:8,
4:u:ed,
3:u:P,
4:u:Pr,
22:u:internal/other/other,
20:u:terminal/other/all,
7:u:upper,
3:u:9,
8:u:hyphen,
6:u:_x+1,
4:u:Re,
25:u:hyphen/other/no-editors,
22:u:hyphen/other/initial,
6:u:_x+2,
6:u:year,
11:u:none/year,
6:u:_x+3,
4:u:19,
5:u:199,
11:u:year/_x+1,
4:u:10,
11:u:none/_x+1,
4:u:H.,
3:u:M,
3:u:m,
3:u:h,
3:u:H,
4:u:of,
4:u:a.,
4:u:to,
4:u:Ap,
4:u:on,
5:u:ion,
6:u:tion,
6:u:data,
3:u:o,
5:u:112,
4:u:36,
4:u:se,
5:u:New,
3:u:i,
5:u:new,
3:u:N,
3:u:G,
4:u:Co,
5:u:Com,
6:u:1983,
10:u:language,
4:u:er,
5:u:der,
4:u:37,
4:u:y.,
3:u:l,
4:u:ge,
5:u:age,
4:u:Te,
4:u:al,
4:u:rt,
3:u:U,
6:u:page,
11:u:none/page,
11:u:page/none,
9:u:numeric,
14:u:none/numeric,
14:u:numeric/none,
4:u:or,
12:u:University,
12:u:university,
15:u:University/of,
4:u:ty,
5:u:ity,
6:u:sity,
6:u:1993,
4:u:16,
4:u:Ma,
3:u:p,
5:u:the,
4:u:gs,
5:u:ngs,
6:u:ings,
4:u:th,
4:u:he,
4:u:24,
4:u:es,
11:u:languages,
3:u:L,
4:u:La,
5:u:Jan,
4:u:G.,
3:u::,
4:u:Ce,
4:u:rs,
5:u:ers,
4:u:Se,
3:u:E,
4:u:En,
8:u:in/the,
4:u:Tr,
3:u:j,
4:u:J.,
3:u:&,
7:u:EMPTY,
4:u:D.,
4:u:K.,
3:u:k,
4:u:ic,
15:u:International,
15:u:international,
5:u:Int,
6:u:Inte,
5:u:nal,
6:u:onal,
5:u:Con,
4:u:Ar,
10:u:research,
6:u:1995,
4:u:31,
4:u:Th,
4:u:pa,
5:u:on,,
4:u:Me,
15:u:communication,
7:u:quote,
6:u:Comm,
24:u:quote/other/no-editors,
4:u:Pa,
5:u:The,
11:u:year/none,
8:u:double,
13:u:none/double,
14:u:numeric/page,
11:u:page/_x+1,
4:u:le,
13:u:none/single,
4:u:Ch,
8:u:Theory,
8:u:theory,
6:u:Theo,
11:u:page/year,
4:u:He,
10:u:Parallel,
5:u:Par,
4:u:25,
7:u:press,
4:u:is,
3:u:',
9:u:unquote,
26:u:unquote/other/no-editors,
23:u:unquote/other/initial,
5:u:Pra,
6:u:John,
4:u:as,
6:u:1996,
5:u:No.,
8:u:memory,
4:u:Po,
9:u:Journal,
12:u:Journal/of,
5:u:Jou,
6:u:Jour,
6:u:rnal,
5:u:dge,
12:u:year-range,
17:u:none/year-range,
4:u:To,
10:u:Language,
5:u:Eng,
4:u:Sp,
6:u:work,
4:u:ht,
5:u:htt,
6:u:http,
5:u:url,
4:u:Be,
14:u:Transactions,
14:u:transactions,
12:u:department,
4:u:at,
4:u:69,
5:u:jan,
12:u:Department,
9:u:Society,
9:u:society,
5:u:Chi,
9:u:Applied,
4:u:et,
5:u:al.,
13:u:negotiation,
5:u:Spe,
7:u:study,
12:u:Cambridge,,
11:u:cambridge,
4:u:18,
4:u:ie,
5:u:und,
5:u:Van,
11:u:discourse,
11:u:Discourse,
6:u:1982,
8:u:london,
4:u:a:,
9:u:english,
7:u:after,
10:u:handbook,
6:u:city,
8:u:speech,
10:u:Handbook,
9:u:meeting,
6:u:1998,
6:u:2005,
6:u:2000,
6:u:2003,
5:u:200,
6:u:2010,
8:u:essays,
6:u:idge,
8:u:Essays,
9:u:English,
6:u:2008,
8:u:Joseph,
7:u:Paper,
6:u:2011,
9:u:British,
9:u:british,
5:u:Der,
6:u:Text,
5:u:des,
7:u:Ezra>,
8:u:buches,
8:u:FRLANT,
6:u:ezra,
4:u:Bu,
8:u:frlant,
13:u:Vandenhoeck,
14:u:Ezra>/FRLANT,
3:u:>,
11:u:FRLANT/31,
4:u:FR,
5:u:FRL,
6:u:FRLA,
4:u:NT,
5:u:ANT,
6:u:LANT,
13:u:vandenhoeck,
30:u:closing-tag/other/no-editors,
25:u:closing-tag/other/other,
10:u:Ruprecht,
4:u:en,
6:u:*The,
5:u:Old,
11:u:Testament,
5:u:old,
10:u:*The/Old,
3:u:*,
4:u:*T,
5:u:*Th,
11:u:testament,
8:u:esdras,
5:u:2.4,
4:u:Es,
4:u:ss,
5:u:ess,
9:u:Hanhart,
7:u:liber,
9:u:hanhart,
4:u:II,
14:u:(Septuaginta,
4:u:ii,
7:u:Vetus,
13:u:septuaginta,
13:u:Testamentum,
7:u:vetus,
9:u:Graecum,
13:u:testamentum,
5:u:8.2,
9:u:graecum,
4:u:um,
4:u:93,
3:u:u,
5:u:MSU,
6:u:Esra,
6:u:Janz,
11:u:Deuxième,
7:u:Livre,
11:u:deuxième,
13:u:d’Esdras:,
7:u:livre,
12:u:Traduction,
17:u:Deuxième/Livre,
9:u:desdras,
4:u:du,
4:u:Li,
12:u:traduction,
7:u:texte,
6:u:d’,
6:u:grec,
6:u:Trad,
4:u:la,
11:u:Septante:,
14:u:Introduction,
10:u:septante,
14:u:introduction,
8:u:titles,
8:u:*Bible,
16:u:d’Alexandrie,
11:u:et/titles,
7:u:bible,
6:u:11.2,
15:u:titles/*Bible,
4:u:ti,
5:u:tit,
6:u:titl,
5:u:les,
6:u:tles,
13:u:dalexandrie,
6:u:Cerf,
23:u:*Bible/d’Alexandrie,
4:u:*B,
5:u:*Bi,
6:u:*Bib,
5:u:ble,
6:u:ible,
7:u:Paris,
21:u:d’Alexandrie/11.2,
7:u:d’A,
8:u:d’Al,
5:u:rie,
6:u:drie,
6:u:cerf,
5:u:1.2,
9:u:Rudolph,
6:u:esra,
9:u:Nehemia,
6:u:samt,
9:u:nehemia,
5:u:HAT,
9:u:samt/3.,
6:u:1.20,
9:u:3./Esra,
4:u:Z.,
4:u:Ta,
8:u:Taylor,
4:u:47,
4:u:SB,
5:u:SBL,
6:u:SBLS,
4:u:CS,
5:u:SCS,
6:u:LSCS,
12:u:Redactions,
5:u:Stu,
6:u:Stud,
9:u:Yahwism,
12:u:redactions,
9:u:yahwism,
4:u:ns,
8:u:Exile:,
15:u:Yahwism/after,
14:u:Perspectives,
11:u:Israelite,
10:u:Religion,
11:u:israelite,
10:u:religion,
4:u:Is,
9:u:Persian,
13:u:Religion/in,
6:u:Era:,
9:u:persian,
8:u:Papers,
13:u:the/Persian,
5:u:era,
6:u:Read,
8:u:papers,
6:u:read,
7:u:First,
9:u:Meeting,
7:u:first,
5:u:Mee,
6:u:Meet,
6:u:ting,
10:u:Utrecht,,
9:u:studies,
7:u:6–9,
9:u:utrecht,
8:u:August,
8:u:august,
10:u:AlberzB.,
13:u:August/2000,
9:u:Becking,
9:u:alberzb,
9:u:Studies,
13:u:R./AlberzB.,
9:u:becking,
18:u:AlberzB./Becking,
10:u:Theology,
17:u:Becking/Studies,
12:u:Studies/in,
5:u:ies,
10:u:theology,
13:u:in/Theology,
14:u:Theology/and,
4:u:gy,
5:u:ogy,
6:u:logy,
9:u:Utrecht,
14:u:and/Religion,
6:u:Chin,
4:u:na,
7:u:china,
6:u:Worl,
13:u:Engagement.,
9:u:Abbott,,
11:u:Frederick,
8:u:abbott,
11:u:frederick,
8:u:mchina,
18:u:Frederick/MChina,
7:u:Hague,
7:u:et.al,
7:u:hague,
6:u:etal,
13:u:Hague/et.al,
7:u:Brett,
9:u:Barker,,
8:u:barker,
8:u:Robert,
5:u:Rob,
6:u:Robe,
5:u:ert,
6:u:bert,
6:u:C.H.,
8:u:China:,
4:u:ch,
8:u:Market,
10:u:Economy.,
8:u:market,
6:u:1997,
9:u:economy,
8:u:Oxford,
17:u:Market/Economy.,
7:u:Trade,
7:u:trade,
11:u:Diplomacy,
11:u:diplomacy,
9:u:Opening,
9:u:opening,
8:u:Treaty,
8:u:Ports,,
8:u:treaty,
11:u:1842-1854,
7:u:ports,
6:u:1953,
10:u:18421854,
18:u:Ports,/1842-1854,
10:u:Economic,
11:u:socialist,
14:u:Development.,
4:u:em,
8:u:Issues,
17:u:China./Longterm,
5:u:na.,
6:u:ina.,
6:u:2007,
8:u:London,
5:u:Ben,
6:u:Benj,
4:u:Cu,
13:u:Discourse/&,
16:u:Cross-Cultural,
10:u:Business,
15:u:crosscultural,
10:u:business,
12:u:Pragmatics,
4:u:Cr,
5:u:ral,
6:u:ural,
5:u:5/1,
18:u:Business/Meeting,
5:u:Bus,
6:u:Busi,
6:u:ness,
12:u:pragmatics,
9:u:45–55,
20:u:Meeting/Pragmatics,
4:u:51,
6:u:Prag,
4:u:cs,
5:u:ics,
6:u:tics,
4:u:Mu,
5:u:Mul,
6:u:Mult,
6:u:Case,
6:u:Hong,
6:u:Kong,
6:u:hong,
6:u:kong,
8:u:Speech,
5:u:Use,
15:u:Intercultural,
15:u:intercultural,
19:u:Business/Meetings,
5:u:Lan,
6:u:Lang,
6:u:uage,
6:u:2002,
6:u:hing,
23:u:Intercultural/Apology,
12:u:Politeness,
6:u:Cont,
12:u:politeness,
15:u:of/Politeness,
9:u:Chinese,
6:u:Engl,
4:u:sh,
5:u:ish,
6:u:lish,
9:u:chinese,
4:u:ar,
6:u:Anna,
8:u:across,
11:u:Languages,
5:u:Cul,
6:u:Cult,
5:u:ton,
8:u:Cheng,,
8:u:Winnie,
7:u:cheng,
8:u:winnie,
7:u:2003a,
11:u:Amsterdam,
28:u:Intercultural/Conversation,
11:u:amsterdam,
11:u:Benjamins,
11:u:benjamins,
16:u:John/Benjamins,
5:u:ins,
6:u:mins,
7:u:2003b,
8:u:“The,
7:u:Vague,
5:u:“,
7:u:vague,
12:u:World-Wide,
16:u:Vague/Language,
6:u:22/1,
18:u:Language/English,
11:u:worldwide,
10:u:81–104,
20:u:English/World-Wide,
5:u:221,
4:u:Cl,
7:u:Ryoko,
5:u:Tho,
8:u:Suzuki,
9:u:Hongyin,
8:u:suzuki,
5:u:Tao,
9:u:hongyin,
15:u:Communication,
15:u:Multinational,
14:u:Corporations,
15:u:multinational,
7:u:Helen,
15:u:Spencer-Oatey,
7:u:helen,
10:u:Stefanie,
14:u:spenceroatey,
9:u:Stadler,
21:u:Helen/Spencer-Oatey,
5:u:Hel,
6:u:Hele,
5:u:len,
6:u:elen,
10:u:stefanie,
6:u:Spen,
4:u:ey,
5:u:tey,
6:u:atey,
9:u:stadler,
8:u:Global,
18:u:Stefanie/Stadler,
10:u:managing,
6:u:Life,
7:u:Cycle,
7:u:cycle,
17:u:Partnerships”,
9:u:Warwick,
18:u:of/Intercultural,
14:u:partnerships,
12:u:Occasional,
31:u:Intercultural/Partnerships”,
9:u:warwick,
5:u:”,
12:u:occasional,
20:u:Warwick/Occasional,
5:u:Rol,
8:u:Corpus,
11:u:Awareness,
20:u:Business/Discourse,
6:u:16/3,
11:u:awareness,
11:u:224–238,
20:u:Language/Awareness,
5:u:163,
9:u:William,
7:u:Mody,,
7:u:Bella,
6:u:mody,
18:u:of/International,
19:u:International/and,
10:u:Thousand,
19:u:and/Intercultural,
6:u:Oaks,
29:u:Intercultural/Communication,
10:u:thousand,
6:u:Sage,
24:u:Communication/Thousand,
6:u:oaks,
15:u:Thousand/Oaks,
6:u:Thou,
6:u:sand,
6:u:sage,
15:u:Encounters”,
12:u:encounters,
19:u:Encounters”/The,
16:u:The/Pragmatics,
15:u:Pragmatics/of,
19:u:Intercultural/and,
19:u:and/International,
11:u:Bloomaert,
29:u:International/Communication,
5:u:Jef,
11:u:bloomaert,
13:u:Verschueren,
5:u:jef,
11:u:Pragmatic,
11:u:pragmatic,
7:u:North,
7:u:Korea,
9:u:Nuclear,
7:u:korea,
8:u:Crisis,
9:u:nuclear,
8:u:crisis,
16:u:Nuclear/Crisis,
5:u:Cri,
6:u:Cris,
6:u:isis,
4:u:Xu,
6:u:Hans,
13:u:Negotiation,
8:u:Style,,
7:u:style,
15:u:Accommodation,
20:u:Negotiation/Style,,
6:u:Talk,
6:u:talk,
11:u:East-West,
9:u:Divide?,
8:u:divide,
11:u:Research:,
11:u:Language,,
12:u:Behaviour,,
22:u:Politeness/Research:,
9:u:Culture,
11:u:behaviour,
14:u:Language/and,
5:u:30,,
6:u:City,
12:u:of/English,
14:u:English/City,
8:u:Beyond,
8:u:beyond,
19:u:Beyond/Politeness,
12:u:‘Face’,
19:u:Politeness/Theory,
11:u:Revisited,
10:u:Theory/:,
6:u:face,
11:u:revisited,
16:u:Spencer-Oatey,,
6:u:Xing,
16:u:chinesebritish,
10:u:Clevedon,
10:u:clevedon,
9:u:Matters,
22:u:Multilingual/Matters,
9:u:Rapport,
28:u:Multilingual/Communication,
7:u:“Is,
7:u:Visit,
18:u:Britain”/Helen,
11:u:Speaking:,
12:u:culturally,
22:u:Culturally/Speaking:,
4:u:ly,
5:u:lly,
6:u:ally,
4:u:Ng,
6:u:Dong,
13:u:Interaction,
14:u:Professional,
10:u:Contexts,
10:u:contexts,
23:u:Professional/Contexts,
18:u:Contexts/Warwick,
6:u:Qiao,
14:u:Interrupting,
11:u:Impolite?,
14:u:interrupting,
6:u:Some,
10:u:impolite,
5:u:oth,
7:u:Yeung,
9:u:Lorrita,
9:u:Ngor-To,
7:u:yeung,
9:u:lorrita,
8:u:ngorto,
10:u:Question,
17:u:Lorrita/Ngor-To,
16:u:Ngor-To/“The,
5:u:Ngo,
6:u:Ngor,
5:u:-To,
6:u:r-To,
10:u:question,
6:u:“A,
11:u:Cognitive,
11:u:cognitive,
13:u:Perspective,
7:u:Helga,
10:u:Kotthoff,
10:u:kotthoff,
10:u:Transfer,
11:u:141–163,
8:u:Realm:,
7:u:Rolls,
7:u:rolls,
10:u:Medieval,
6:u:Roll,
4:u:ls,
5:u:lls,
6:u:olls,
10:u:medieval,
6:u:vols,
9:u:Suffolk,
12:u:Rochester,,
4:u:NY,
11:u:rochester,
8:u:passim,
7:u:Egan,,
6:u:Lead,
7:u:Cloth,
7:u:cloth,
5:u:Clo,
6:u:Clot,
6:u:loth,
8:u:Museum,
8:u:museum,
16:u:British/Museum,
16:u:Museum/British,
5:u:Mus,
6:u:Muse,
5:u:eum,
6:u:seum,
6:u:True,
6:u:Blue,
11:u:Yorkshire,
11:u:yorkshire,
11:u:Ulnagers',
10:u:ulnagers,
16:u:Archaeological,
17:u:Ulnagers'/Rolls,
17:u:Rolls/Yorkshire,
16:u:archaeological,
8:u:Thesis,
13:u:Southampton,
13:u:southampton,
25:u:Southampton/Southampton,
5:u:Sou,
6:u:Sout,
6:u:pton,
18:u:Southampton/_x+1,
7:u:Devon,
10:u:Clothing,
14:u:London/Cloth,
11:u:Cloth/and,
10:u:clothing,
14:u:and/Clothing,
9:u:Europe:,
13:u:Clothing/in,
13:u:in/Medieval,
8:u:europe,
18:u:Medieval/Europe:,
8:u:Memory,
7:u:Prof.,
6:u:E.M.,
6:u:prof,
15:u:Carus-Wilson,,
7:u:Pasol,
12:u:Prof./E.M.,
13:u:caruswilson,
20:u:E.M./Carus-Wilson,,
7:u:pasol,
9:u:Textile,
0=0x1.c31d8210a692dp-6
26=0x1.03c491f3675e7p-2
29=-0x1.60e7ea4d41cb8p-2
52=0x1.89ddc318a582ep-1
53=-0x1.8f6eef1729bfdp-5
54=0x1.246fc497468a3p-5
55=-0x1.2d8ca6ce3ae1ap-2
78=0x1.263b97dc66f3cp-3
79=-0x1.abe5056ffab69p-8
80=0x1.9699845644667p-3
83=-0x1.ad8ddc386e5ep-8
104=0x1.6c7d0c5d2c1f9p-2
105=0x1.84eac68283cf4p-3
106=0x1.6ca4c1ad57fc4p-2
107=-0x1.86316159eedfp-2
109=0x1.ce174dae830dbp-8
114=-0x1.66595ce72d538p-3
131=0x1.014f89d2b2e58p-1
135=-0x1.1b403b31fe184p-6
156=0x1.bdaefad772526p-3
157=0x1.51235a98fc51bp-6
161=0x1.4339a49bb2787p-5
166=-0x1.8f3a40730f53fp-7
182=0x1.1cd47b266f331p-2
183=-0x1.7418540df65afp-9
184=0x1.0ff1f2f7c8565p-3
208=0x1.a2ed419d9ed75p-3
209=-0x1.af6cea26ac477p-2
210=0x1.2d818bcb7d0b1p-2
213=-0x1.736cb5c34b49fp-15
234=0x1.e035eeda31c0ap-2
235=0x1.a635c25f0fb0cp-2
236=0x1.91b9ae2b576cp-2
237=0x1.d9d6948fae1bep-2
238=-0x1.fbf41dbc0831ep-7
239=0x1.e2670a0b89266p-3
240=0x1.120d016041d67p-2
243=-0x1.0932b9c9f9d8ep-3
244=0x1.3bae531628427p-1
245=0x1.204d5a82af324p-2
260=0x1.1db39e9a54718p-6
286=0x1.9ab1ad6b5457fp-2
287=0x1.caec66fb7e462p-1
288=0x1.12924a4f97057p-1
289=0x1.bd06e4249edp-3
291=0x1.7090c254b3118p-7
292=-0x1.94f9184372a82p-2
295=-0x1.367a9082d17fap-4
296=0x1.99cef31ba68a9p-2
297=0x1.dc39419942c2p-2
312=-0x1.79e7230cd1738p-4
313=0x1.d60a58d40491ep-5
317=0x1.d87d976175f63p-6
338=-0x1.a921293523801p-4
339=0x1.df3314cca89d5p-4
340=-0x1.95dcce6e78b92p-5
341=-0x1.4c6a37f5747p-6
342=0x1.5732a4822ae2dp-3
343=0x1.6f95dcbf9f3bap-5
344=0x1.3ad754e336ec3p-5
347=0x1.e3219e9e66606p-4
348=0x1.afdc100361932p-2
349=-0x1.4592248e95fdap-5
364=-0x1.03e36faa5a258p-7
365=-0x1.d6fd22f59ee1bp-3
366=-0x1.ed896f5759675p-6
367=-0x1.02276a70304ecp-6
368=0x1.a3224d9ced057p-5
369=0x1.516e3c16eff31p-6
370=0x1.23b4947dcaf66p-5
373=0x1.dce3e8a81cd22p-4
374=0x1.acbd6d31fc28bp-3
375=-0x1.a594d759b0b19p-6
390=-0x1.1fd1e963cd1cp-2
391=0x1.0aec8b1e0c467p-3
392=-0x1.735df6342e242p-5
393=0x1.b4c8dc087d46ap-3
394=0x1.19d888ede32bp-5
395=0x1.03f6b9c99c597p-3
396=0x1.09426e0a002cap-3
399=0x1.2f6af59dcd43ap-3
401=0x1.23bd79f6fa2b4p-5
416=-0x1.04e6e86c74137p-11
417=-0x1.422b0bf4ac1bdp-2
418=-0x1.e827a3daccc54p-9
419=0x1.f723a167ea701p-4
420=-0x1.303c1d8d8bfbap+0
421=0x1.895cf6003969ep-8
422=0x1.16acb850064e2p-4
425=0x1.5a92a1818bef5p-3
426=0x1.017dd9431a896p-3
427=0x1.073594d667ab6p-13
442=0x1.8ecea43fa0b3ap-4
443=0x1.fb12e4d4498e3p-4
444=-0x1.fba5223ab6218p-12
445=0x1.084a14933c227p-3
446=0x1.14b022b3f9b9ep-4
447=0x1.2bdc142249b83p-5
448=0x1.2f67aacc7c54p-3
451=0x1.7e7e643904ae2p-3
452=-0x1.d72d5845ed53ap-1
453=0x1.28ce2c29ce642p-4
468=-0x1.bc234e371795ap-6
469=-0x1.139e76103b5c5p-2
473=0x1.176b09e5eb346p-2
479=0x1.379fbeeb7f0ep-1
494=-0x1.d76c26531d27cp-3
495=0x1.b153fcd156f6ep-4
496=-0x1.1b2b8d730e91ap-5
497=0x1.2bb0df79d91b7p-2
499=0x1.d7ba14c8f395bp-2
504=0x1.6b15526dfbc88p-3
520=0x1.232cf3ddb4827p-6
521=-0x1.5aab854ac763ep-2
522=-0x1.9339a4d2a5d35p-9
523=-0x1.879c406ed565ap-8
524=0x1.2edb73bfbb209p-3
525=-0x1.541e97fc5c0a1p-7
526=0x1.fe75e662ceb5bp-6
529=0x1.0f062ff7e7ccp-3
530=0x1.d30f5da1b2fp-4
531=-0x1.1dee3109dd168p-6
546=-0x1.317b8522e1c61p-5
547=0x1.c5a0b7e109044p-3
548=-0x1.226650a1ae086p-2
549=0x1.a195f2481cff9p-4
550=0x1.51f27d410aef4p-3
551=-0x1.5bb2f48a783efp-8
552=0x1.6f3c1350ec598p-2
555=0x1.306484184c762p-2
556=-0x1.98a428eb94776p-1
572=0x1.2b4f1a9ee02fdp-2
573=0x1.428c3459004c4p-3
574=0x1.84ddfc3fb6a58p-11
577=-0x1.5b1b535268fa7p-6
598=0x1.dfc77bf2ff1afp-7
624=0x1.3f84e43a2bc09p-3
650=0x1.96417560d91p+1
651=0x1.178a5accea011p-1
652=-0x1.018562474ded1p+0
653=0x1.d4738ed4d07cp-9
655=-0x1.b807db3ff1ad9p-3
661=-0x1.10a4f1a86859cp-2
677=0x1.00058cb3ada8bp+1
678=-0x1.358ac7be9dd0ep-1
679=-0x1.50f54a6d782f3p-1
680=0x1.eff59384e0c22p-3
681=0x1.4cb887c5c006bp-3
682=0x1.f6c45de8039cp-3
685=0x1.b8916b8fb3c59p-5
686=-0x1.32987e0daf5f9p-1
687=-0x1.c924549486ddcp-3
703=-0x1.029530d783d38p-4
704=0x1.0566fb2579f18p+2
706=0x1.4eafdf5f0277ep-6
729=0x1.c9fc7991a534fp-2
731=0x1.6a99d1f40b743p+1
732=-0x1.e8d94ad5f8401p-1
733=-0x1.a0b9668b371e6p-1
734=-0x1.1437235ff1dbap-2
758=-0x1.b963832b698f8p-13
759=0x1.2a21d0d365a74p-2
764=0x1.dbf045451eff4p-1
782=0x1.72e26c8f193efp-2
785=0x1.ff3f5fb07008cp+1
786=0x1.4693dee57cbefp+1
789=-0x1.aa178108d98adp-8
810=-0x1.36e819555a584p-4
815=0x1.ed03dff515ed5p-1
816=0x1.81601b4eeb907p-4
817=0x1.87c31c03f81d2p-3
886=0x1.40543a7f3f233p-1
888=0x1.2599162abb802p-1
893=-0x1.da795e8925262p-3
911=-0x1.3e99875c23dc8p+1
915=-0x1.7ada78a7802f8p-2
920=0x1.ab3d494066a35p-16
921=0x1.f99ab5f75f1fep+0
937=-0x1.3f7d36998b5f4p+0
941=0x1.e4045e3264ca6p-6
947=0x1.5d83fea115c79p+1
1326=-0x1.14c9edc313515p-9
1327=0x1.dc1cd8c523b05p-3
1328=-0x1.36d01461651ap-4
1329=-0x1.7885520c9a58bp-5
1330=0x1.9af4e2670f506p-13
1331=0x1.194010c6d3b99p-4
1336=0x1.7dfa8fecb512ep-2
1337=-0x1.600859992d7ebp-7
1352=0x1.4ff7d85d69acbp-2
1353=-0x1.00a2f0e50642p-12
1354=0x1.0967d701d2c1dp-1
1357=0x1.60d1368c1ed42p-10
1358=-0x1.7044dba8d7732p-4
1362=0x1.2d857506bd9a3p-3
1378=-0x1.9eaaa19ef792ep-1
1379=0x1.5c2aa71685eaep-2
1380=-0x1.090aa18e906cfp-2
1383=0x1.4b057d8450aaap-6
1388=-0x1.1c6b28450f571p-4
1389=0x1.52ca509c1fcaep-8
1404=0x1.1afd75210915ep-4
1405=-0x1.8d6f714abd92bp-2
1406=0x1.db47f8c6b11d8p-6
1407=0x1.9787d1bfe4ba3p-3
1408=-0x1.36d1e7be3eap-11
1409=0x1.922ce8f6f2672p-2
1410=-0x1.5356a9b9d69c1p-1
1414=0x1.21bba7bb5b982p-2
1415=0x1.243b6da1e2c7ap-5
1430=0x1.3e0be2e49ad4bp-4
1431=0x1.6bf6306bfda6fp-4
1433=0x1.5876f9df50f87p-3
1434=0x1.b463aaa7e80c9p-2
1435=-0x1.b59d2224df9a5p-4
1436=0x1.b2b904c21153ep-3
1439=0x1.efe80005f25p-3
1440=0x1.df303eed6e07p-5
1441=-0x1.02201f3afef44p-1
1456=0x1.8bad656ed049dp-3
1457=-0x1.97c4406d5eed3p-4
1458=0x1.6bc7c1b9c4d73p-5
1459=-0x1.1a06294be1d77p-5
1460=0x1.d180c32d78e6ap-3
1461=-0x1.c76dc7e73bda7p-3
1462=0x1.306b1f345fe1p-3
1465=0x1.b0734b73140f9p-3
1466=-0x1.b536e5c4e5acdp-11
1467=0x1.092d18d19d7fdp-10
1482=-0x1.fd5e62afaabf2p-3
1483=0x1.250fe34aa8ef5p-7
1484=0x1.965d2d7a8b7cep-7
1487=0x1.062c0a3d593b1p-3
1508=-0x1.e246b1451c1fp-2
1509=-0x1.18957373e49bfp+0
1510=0x1.6241401a3b435p-4
1511=-0x1.fb66defff50dfp-7
1513=0x1.812bf248250dbp-5
1535=0x1.b716da909d8cfp-2
1536=0x1.14322d5ee75eep-18
1539=-0x1.3651524a91d69p-1
1560=0x1.bd0a4f4cfcc69p-6
1561=-0x1.adacf10a28534p-6
1562=-0x1.0b1eca9c4bd2ep-6
1571=0x1.028e5f3e90367p+0
1586=0x1.97d036aa9640fp-3
1587=0x1.5252fb94bef65p-4
1588=-0x1.52f528f91f55ep-6
1589=0x1.260f613a585c9p-3
1592=0x1.9255eedbcc03ep-3
1612=0x1.73c64aae6bc7fp-3
1613=-0x1.a2f12350fe0eap-5
1615=-0x1.88c6ceb044f9fp-4
1617=-0x1.997102aa4dea2p-6
1618=-0x1.2d247491f7a52p-2
1638=0x1.bb20653ad352ap-2
1639=-0x1.2662a87bfa11p-1
1665=-0x1.45bc3626c6dfp-5
1666=-0x1.ab76a4f88de84p-11
1667=0x1.0069531361d72p-10
1669=0x1.98bb568e8f834p-5
1674=-0x1.5711784c878d5p-4
1675=0x1.a04948447b644p-3
1690=0x1.c36cc132c0a83p-2
1691=0x1.cc8f2604cd11p-3
1693=-0x1.1e025adc30762p-2
1695=-0x1.4311d4fd66223p-1
1700=0x1.5e3ac64f7a1c2p-15
1701=0x1.008ef7af0aa6ep-13
1716=0x1.3c499c4dff561p-2
1717=-0x1.18ab448cb231fp-3
1718=0x1.5af8d44eaf89ep-4
1719=-0x1.288384f26d554p-3
1721=-0x1.91d2f54d4241ap+0
1742=-0x1.823e7f7891316p+0
1743=0x1.29e7920ec1579p-6
1768=-0x1.6201d82ac61aep-2
1769=0x1.18a537d6a0353p-2
1770=-0x1.3eb681ed77fb6p-2
1771=0x1.52d926df97123p-2
1773=0x1.9b5fd525d657ep-4
1774=-0x1.a1bc05fc9b7ebp-3
1777=-0x1.98dee6d183ff8p-11
1778=-0x1.1656b2ab0a8b5p-2
1779=-0x1.71ee81fe72064p-5
1795=0x1.57c854d9843d2p-4
1797=-0x1.d5736e406f258p-10
1799=-0x1.76eefd02cd992p-9
1821=0x1.62972dbf216c3p-7
1825=-0x1.040d968278decp-8
1830=0x1.40fc2f81a0432p-7
1847=-0x1.90117ecfceddp-8
1851=0x1.87ad2e34f718ep-14
1856=0x1.f255ff5e2bc7ep-6
1873=0x1.98e68868c972ep-5
1874=-0x1.1caf47fdfe83bp-3
1875=0x1.4b227655315dbp-6
1876=0x1.67ed04a34424dp+0
1877=-0x1.e8045cdeaa8a3p-3
1878=0x1.3dfd5ca797e2bp-1
1881=0x1.1c4127b489c8dp+0
1882=-0x1.9c20e2a455ad9p-3
1883=-0x1.cadbc9ac2f8acp+0
1898=-0x1.4ca36945cd0f6p-1
1899=-0x1.60de6811b097p-3
1900=-0x1.a53e0d6bf740bp-3
1901=0x1.86bf12479e268p-3
1903=0x1.37d90a0c0c0dfp-1
1904=0x1.50bb27093d903p-2
1907=0x1.3732aecd513efp-4
1908=0x1.225d330ad832fp-7
1909=0x1.0dfab9f7c1a2bp+0
1925=-0x1.5103b2068762p-6
1929=0x1.d652e1297d134p-1
1935=-0x1.7dbeb6cf9aaedp-2
1950=0x1.2c5a3ae4458dfp-6
1951=0x1.1d251042b425p-8
1953=-0x1.f2c37488720d8p-11
1976=0x1.026072c8972d7p-2
1977=0x1.2a6f484533ce2p-7
1978=-0x1.04e500a7225b4p-2
1979=-0x1.5124d7a5a1d19p-4
1980=0x1.92bedc760a9bdp-2
1981=-0x1.14579db3377a3p-2
1982=0x1.af360a356cf63p-2
1985=-0x1.b1c169f4d7a91p-3
2002=0x1.946cecd25dcbdp-4
2003=0x1.0a8c8006c83fap-2
2004=-0x1.fbabe7ff08644p-7
2005=-0x1.42675dfe553fcp-3
2007=0x1.036ccd202159ap-2
2008=0x1.6ba030328388bp-3
2011=-0x1.a8c1119988e14p-5
2012=0x1.df7857d045ca2p-5
2013=0x1.2cb015ee097eap-7
2028=-0x1.105c4723273ap-1
2029=0x1.8ee3db2d6f503p-2
2031=-0x1.9443a1f00c8f9p-5
2033=0x1.784daad367ef2p-1
2037=-0x1.034b479e59da2p-8
2039=-0x1.bb7a98d7156ap-11
2054=-0x1.01ff3d6b27802p-2
2055=0x1.18755c260540dp-3
2056=-0x1.6bf7309203538p-11
2059=0x1.5ea353e5e6451p-7
2064=0x1.8a7138d61b3f7p-5
2065=-0x1.be250ea843a3fp-5
2080=0x1.90a96ec064d8bp-5
2081=-0x1.117980ff8d644p-2
2082=0x1.8ee4afc716cbcp-1
2090=0x1.2fd6e16e6efcbp-6
2106=0x1.91ced44ac7dc9p-2
2107=-0x1.ac6c0e53302bbp-1
2108=0x1.59ac7348d81aap-1
2132=-0x1.17855fc9c25cep-5
2133=-0x1.99e3996a89a71p-3
2137=0x1.3252a5539c4dfp-6
2142=0x1.5f1d18222e09bp+0
2143=-0x1.f17d862a46401p-9
2159=0x1.6de564570d884p+0
2184=-0x1.6cd618645bdap-4
2185=0x1.0c36f80743cddp-5
2215=-0x1.895c53267ba37p-7
2236=0x1.fc20f29e3eab4p-3
2237=0x1.d732c0f0b1adep-4
2238=0x1.84610315015c2p-5
2239=0x1.3874d527172c9p-6
2240=0x1.008df000fb2cap+0
2241=-0x1.19f0a2ea1ce97p-3
2242=0x1.d28996f6d5065p-4
2247=0x1.6efc139a55356p-3
2263=0x1.3745c6585c0cap-6
2265=-0x1.a3d794311d2dep-14
2288=0x1.1f9c6b834bce3p-3
2289=-0x1.7bb3e43fdffc3p-5
2293=-0x1.a1731f4a8066ep-12
2315=-0x1.1e606e5166b3cp-5
2319=-0x1.268250d6afc8ep-11
2341=0x1.5fd8573e25c42p-8
2345=-0x1.61525b567bae2p-11
2367=0x1.9d77fc2183f17p-3
2369=0x1.203dc5d164c24p-5
2371=0x1.58bb66aa600bdp-4
2393=-0x1.2d5be80007b3cp-15
2395=0x1.939a986864046p-5
2397=-0x1.4717a3961cd14p-8
2419=0x1.ba61bfc4405f6p-6
2423=-0x1.296176789da19p-6
2444=-0x1.330328888bfbbp-5
2445=0x1.05f8caa05c17ap-1
2447=0x1.a90f6699f7903p-5
2449=-0x1.0f44b6d20b383p-4
2470=-0x1.434186c2b095ep-7
2471=-0x1.238bd0802f981p-6
2473=0x1.15051d7369249p-2
2475=-0x1.7a486455a70bp-9
2497=0x1.1b6dc67c8953ap-5
2498=0x1.78a86962c38fcp-3
2501=0x1.1aa8e927710abp-1
2502=-0x1.d4ac4db331ecp-12
2522=0x1.1e5e1ff76b46dp-5
2523=0x1.08eec2d67693ap-4
2525=-0x1.32984a1ac6c4ap-2
2527=-0x1.85ac3000fcd67p-7
2533=0x1.93797264db36ap-3
2549=0x1.7050bf744335dp-10
2553=-0x1.6fd906632d52p-7
2575=0x1.ab5019c203521p-4
2579=-0x1.e6fdfabe0c495p-5
2584=-0x1.7cfce4df13848p-3
2600=-0x1.f1e664e498985p-5
2601=0x1.1c5c3b7f4d0e2p-2
2602=0x1.f15a70dbf6004p-6
2603=0x1.10e8afdcfad43p-4
2605=0x1.fafa209606563p-3
2626=0x1.462c76b527fccp-3
2627=-0x1.9e83b2721a132p-3
2628=0x1.4ec43880920ecp-3
2652=-0x1.f7b373c06f60ep-6
2653=0x1.2d2b27401b63bp-1
2654=0x1.b8e5d78be67fap-12
2657=-0x1.431eab3d83115p-4
2662=0x1.ba80765640beap-7
2678=0x1.6a62f174a920fp-5
2679=-0x1.0a25851744dd7p-4
2680=0x1.3a54a7ad0fcbdp-5
2683=-0x1.c374ca9559fe6p-5
2705=-0x1.27a0cfec38da8p-5
2709=0x1.4a4830b116ce7p-6
2715=0x1.0ba4e7951372ap-2
2730=-0x1.88a234dad59aap-4
2731=0x1.1dfbbb2520d6dp-4
2757=-0x1.754fe61adbf9bp-3
2759=0x1.493b8d85d967cp-2
2761=0x1.615277f8d763bp-3
2784=-0x1.48cc6f936b53cp-11
2809=-0x1.5894743116dd6p-3
2813=0x1.34b0bd22de0f2p-7
2818=0x1.7cf3f34dae8b6p-15
2834=-0x1.b538ccc8a842p-12
2835=0x1.744d4ee6ea1fdp-5
2836=0x1.39ea56be4fe56p-2
2837=-0x1.3d33b8d00df3p-10
2839=-0x1.088da371aec18p-2
2840=0x1.27177fe6edc66p-2
2843=0x1.73310e6c78984p-7
2860=0x1.a7e6bb5371c46p-3
2886=0x1.962cb9299cf11p-5
2887=0x1.7accdc622db27p-4
2889=-0x1.c46f8aa680bc5p-5
2891=-0x1.e0a8fe865f75p-3
2912=0x1.37cbd016abe9fp-4
2913=-0x1.7ff9748a2e37bp-2
2939=0x1.b480ff2e8cc74p-3
2964=-0x1.84fc11a4d9f0fp-1
2965=0x1.469ba831db1dap-3
2968=0x1.13d32259fa03ep+0
2969=0x1.4ada2e142e559p-6
2973=-0x1.4580d8d2e82f1p-3
2990=-0x1.680060ae5d44bp-8
2991=0x1.a13a155a6ac9p-5
2993=-0x1.2ec95bea7149p-1
2995=0x1.cbcff30265e2dp-7
2996=0x1.9dead1f597256p-2
3017=-0x1.3bb8ad5519369p-5
3019=0x1.23c210b5296bp-16
3052=0x1.7e74acdaa6a6cp-2
3069=-0x1.c97402718fd59p-2
3071=-0x1.fff835c793d3dp-7
3073=0x1.0ec9811d84a9p-2
3074=0x1.ad82171288e0ap-2
3095=0x1.89479969f19b8p-7
3099=0x1.34151a121dd81p-2
3104=0x1.84c401505291cp-2
3123=0x1.840acf3a1e627p-5
3146=-0x1.6bd6ecdd65c6bp-18
3147=-0x1.96dd082c18cdcp-1
3149=-0x1.ea0e555e459f7p-2
3151=0x1.69785cd35f151p-4
3156=0x1.ed2e5941d4b49p-2
3157=0x1.011fb4cf8cb33p-3
3173=-0x1.524db5ca8f5c7p-4
3198=-0x1.aa667c0aa018fp-5
3199=-0x1.2429a9b58c675p-3
3203=0x1.585fe181193a7p-5
3225=0x1.3c06875afe11fp-4
3229=0x1.3a11326680945p-5
3250=-0x1.b9efdc3e85cdap-13
3252=0x1.09cd05b9c3f86p-6
3256=-0x1.cb2595930a05bp-2
3277=-0x1.03ef0ff7f76ep-4
3302=-0x1.745ca43890395p-2
3303=0x1.c9c73a3a43fc6p-5
3305=-0x1.3e26926006658p-4
3308=0x1.e524b39398d38p-4
3311=0x1.db1424e232d3ap-3
3329=-0x1.466fe760c8b19p-1
3330=-0x1.3772f655ee448p-2
3333=0x1.67d9255d2a5a4p-3
3334=0x1.815ac7330f0cep-4
3355=0x1.0f553c8af2d33p-4
3356=0x1.9b66d45e67c18p-8
3360=0x1.1f05ec595ed44p-11
3380=-0x1.39b2af218f2b1p-3
3381=0x1.1f669de72c397p-6
3382=-0x1.cf88db6f32416p-5
3383=-0x1.6c437e6383f18p-2
3384=0x1.053a4300008ebp-3
3385=-0x1.25f0f3a50c034p-7
3386=0x1.56fbcf8d08defp-9
3389=0x1.51e7477e482ccp-4
3390=0x1.99a57b5eba0d3p-2
3391=0x1.5ff81b9866fdbp-8
3392=0x1.1fc724710a2cdp-3
3407=0x1.8794055bbe0c6p-1
3411=-0x1.52f7f52ef5672p-2
3433=0x1.a59fcc9e12ef7p-5
3461=-0x1.2d9a1e2435c38p-11
3486=-0x1.de6f37efc8578p-7
3488=0x1.fffbaeb4623f8p-11
3489=0x1.42a0d92b23866p-4
3493=0x1.1b71b3fb8b55p-3
3494=0x1.4581e90a8ca9ap-4
3495=-0x1.2a3a944e0d757p-3
3511=0x1.6f401186bd189p-1
3514=0x1.c5883a80de785p-1
3515=-0x1.17d08864c9c4cp-1
3516=-0x1.6906c47c57843p-2
3520=0x1.6704dfb7e9fb1p-3
3521=-0x1.fa477bdd8e8e8p-4
3536=-0x1.58535d3377e94p-10
3537=0x1.17bb7e26512d7p-4
3538=0x1.367352d199f13p-7
3540=0x1.35b96547ff79bp-15
3541=-0x1.0eabe2bdda2dbp-14
3542=-0x1.dd1a7b707a3c9p-4
3545=0x1.2c4c0026b626p-6
3546=0x1.5baf754441291p-13
3547=-0x1.e20ec5afd0d13p-6
3571=-0x1.5f326fd3f4d4p-17
3572=0x1.4af8a9cc308ep-5
3592=0x1.11b9637dfc9d9p+1
3618=0x1.1d6feac7cef66p-2
3644=0x1.0fe7de80365d6p+1
3649=-0x1.ecfc8e96a80a6p-1
3670=0x1.e2eb771648187p-14
3675=0x1.2993a88718a7ep-3
3677=-0x1.5f7b99ba484ddp-4
3697=-0x1.599ed6a703442p-11
3701=0x1.c27079dfd9c32p-5
3702=0x1.1c5d46eaf3bfap-1
3703=0x1.894c76d2f3f89p-7
3718=0x1.44ef8e44eba3ep-8
3745=0x1.5aa30fccf14a1p-3
3749=-0x1.57fd0ef9c8d24p-8
3771=0x1.7588a01fb7585p-10
3775=-0x1.b1856a31dbda5p-5
3780=-0x1.1d3f7e044f2f6p-18
3797=-0x1.2af184624628p-16
3801=0x1.77e4633b6dd05p-6
3807=-0x1.84d0b4c2ba7fep-5
3808=0x1.f95eefedf82bp-2
3823=0x1.3bebff7267a03p-7
3824=0x1.39260d5458202p-5
3833=0x1.99c51f99dab7p-3
3848=0x1.0109115d826fbp-3
3849=0x1.fe4f79be9fdffp-2
3850=-0x1.f587e8742915cp-3
3852=0x1.41eeb22f1d304p-12
3853=0x1.0f92c8054748ap-1
3858=-0x1.f32eb4befdaf3p-4
3859=0x1.77c545d2b71ddp-2
3874=-0x1.945d817631c26p-2
3875=0x1.3747aeed593a7p-9
3901=0x1.8dbd590d124b4p-4
3902=-0x1.3ececd0422193p-10
3903=0x1.7e76ea7c18222p-3
3927=0x1.48e94ef1390f5p-6
3953=0x1.3e02fd73b31fdp-3
3955=0x1.e398669dd292dp-3
3957=0x1.a74a13964dd61p-2
3962=0x1.79b455685cc55p-2
3979=0x1.da9b733001121p-5
3983=-0x1.a9d699bf8f812p-9
4005=0x1.79471e803cdcfp-4
4009=0x1.d8f46f1fd7cdep-12
4031=-0x1.61bcf1a7c5eeep-9
4056=0x1.1b3b11e6b1ff3p-3
4057=-0x1.0140e39a20cd7p-4
4061=0x1.d4196bb11298ap-5
4083=0x1.7c7a5a7d82b2fp-9
4085=-0x1.931d2a7158ca8p-4
4087=0x1.a24d44299e851p-5
4093=0x1.29d50439be7eap-2
4109=0x1.efa091911e3e5p-4
4113=0x1.0e92f0904023fp-7
4118=-0x1.28156c96e5e72p+0
4135=0x1.460f8bdf16a58p-11
4165=-0x1.a92a433c4efaap-12
4187=-0x1.df2fe33f4000ep-5
4191=0x1.57310c3fc8febp-5
4213=0x1.3227898e9d648p-8
4239=0x1.ec4c88e7328fp-15
4243=-0x1.a5c3f7e243aadp-9
4264=-0x1.28dbfcd7f4f5cp-11
4291=0x1.1e928e0147e05p-2
4295=-0x1.754eb0321070fp-15
4317=0x1.b7f1ae50d91efp-5
4321=0x1.6a6ca4bf04c3fp-2
4343=-0x1.4231430a5a101p-5
4347=0x1.3477077121f1dp-4
4352=0x1.328d6459722b4p-15
4369=-0x1.14152d92e3e0fp-7
4373=0x1.b77971e2455f4p-6
4379=0x1.c5c35a1b3ebap-9
4395=-0x1.d803ef3a73537p-7
4421=0x1.766d7af813d88p-6
4422=-0x1.abc03dc2dc36bp-11
4447=-0x1.9a82fa3cc55dp-13
4473=0x1.d92cd1d2aea5p-3
4498=-0x1.bdcf4904a6b4ep-8
4499=0x1.1e9215db6130ep-13
4503=0x1.1c33138b486c7p-4
4525=-0x1.71c5846f446f1p-11
4551=-0x1.2334450e41131p-10
4555=0x1.7b2d9e8ef5efap-8
4577=-0x1.494f7aaa00a56p-4
4579=0x1.51b8090109b27p-6
4602=-0x1.0bedddb8b946ap-4
4603=-0x1.001ff9ee4698cp-5
4607=0x1.1c2b2d757c2e8p-3
4630=0x1.71a67428d0f55p-18
4655=-0x1.204dea815de56p-4
4681=-0x1.1dbb636aa506cp-4
4685=-0x1.2fe8ea0e13aadp-2
4686=0x1.0f16f52e5c24ep-7
4689=0x1.369cf2efe9d28p+1
4707=0x1.328f1b6faf6e5p-7
4711=0x1.5fbe48bd3dbd9p-4
4712=0x1.d05914671788p-7
4715=-0x1.9eb167471b33p-7
4741=0x1.db59aa6578039p-1
4758=-0x1.d5780ccde880cp-4
4760=-0x1.0e3a34aed8d54p-6
4761=-0x1.03fac47280a5p-5
4762=0x1.3ae316dfa2044p-4
4763=-0x1.1336be5720319p-1
4764=0x1.55d23413ed8afp-1
4768=0x1.7fae9d8f97e36p-2
4769=-0x1.d140449eacd01p-5
4785=0x1.efb74ab2e712p-5
4786=-0x1.bb1fc48036675p-5
4787=-0x1.9fd53cbf64cacp-3
4789=0x1.0e22c8fb40478p-3
4790=0x1.290a60ad8091bp-2
4793=-0x1.6e3ce9c19e8bap-11
4816=0x1.774bb14ff40f2p-2
4837=0x1.5624a249021a9p-4
4839=-0x1.3229c892ee048p-5
4863=-0x1.42eab27e5df54p-9
4867=-0x1.08669440c35e3p-4
4873=0x1.0cccc8b8922f5p-3
4889=0x1.0c37eafd8b936p-6
4893=0x1.bb3f9e63b6e8fp-17
4898=-0x1.45d8f4cb353d3p-1
4899=0x1.b5c59181b52dfp-7
4915=-0x1.e407f665323c2p-5
4925=0x1.07c49a00a6874p-2
4951=0x1.1d6ae3490274ep-3
4977=0x1.147f3fd6bda76p-3
5003=0x1.5cda583c304dcp-4
5019=-0x1.8b527eb176fdbp-4
5028=0x1.aa49e01d75474p-5
5029=0x1.7ae3946984178p-9
5054=0x1.0c36d5c61dbf7p+0
5071=0x1.52ebdb53c13d2p-13
5105=0x1.6b884d6b58bdcp-1
5122=0x1.34d27b4f0dc5p-5
5123=0x1.0d6960c6415d3p-2
5125=0x1.6a5a509193745p-4
5127=0x1.a79dd1d4b7703p-3
5133=-0x1.c70e78d89da55p-3
5149=0x1.e9e601792de7fp-5
5153=-0x1.5225ae37f0afcp-6
5175=0x1.e9e601792de7fp-5
5179=-0x1.5225ae37f0afcp-6
5201=0x1.e9e601792de7fp-5
5205=-0x1.5225ae37f0afcp-6
5227=-0x1.5e2cce475875cp-8
5231=0x1.ee398433ebb8dp-2
5252=-0x1.65b7c5ae884cap-8
5253=0x1.fafeef1b58b98p-5
5257=0x1.704e78be2e5bap-8
5284=0x1.2415e5c62f169p-5
5305=0x1.448574fc7c7bap-13
5307=0x1.f0ec9aaf7439ep-6
5309=-0x1.7759642afa915p-10
5335=0x1.3fc71c09d6c3ep-4
5357=-0x1.c020ecdb13087p-6
5361=0x1.d186c6730e3a3p-10
5367=-0x1.5c91f61cac452p-3
5383=-0x1.184517faa9c5ep-11
5409=-0x1.78e66d0c97722p-5
5410=0x1.515d9cb0c7924p-3
5413=-0x1.1b5df21324e31p-6
5434=0x1.dd0bfec4851dap-6
5436=-0x1.2742a6a16b445p-4
5460=-0x1.4476156ddc22ep+0
5461=0x1.a93f420694094p-8
5462=-0x1.59418806bdfbep-3
5463=0x1.90073f6517986p-5
5465=0x1.1d777d6cc10cep-1
5470=-0x1.8b84ac6bbb2dcp-2
5496=-0x1.4f94b08a842c8p-4
5517=-0x1.18d5dc9d34888p-4
5543=-0x1.0f17362d3dbc3p-4
5565=-0x1.4bc20b8ef01d7p-5
5569=0x1.1c5a6c28aec3ep-5
5591=-0x1.67359d6ecf346p-8
5593=0x1.8d053342d922cp-1
5595=0x1.72f47a0def95fp-3
5601=-0x1.e89278fd2dd6p-11
5617=0x1.d7f80282afa66p-5
5621=0x1.5957f38d5b477p-7
5627=-0x1.40e8898351053p-4
5647=0x1.8038837d3efp-15
5669=0x1.a05b761b13fc8p-9
5694=-0x1.15c01da28cf12p-14
5695=0x1.89dd00b59d182p-7
5720=-0x1.72d18625a531cp-3
5722=0x1.1e8cdc93ee29ap-8
5747=-0x1.d4510c93a25afp-4
5748=-0x1.ab527e8fe7f4ep-5
5749=-0x1.7d241cc0614b8p-9
5751=0x1.3294697c79e1ep-6
5757=0x1.f20c0002a9079p-4
5773=0x1.099f1d094d02ep-12
5777=-0x1.71a65feea3c6cp-9
5778=0x1.0fddc99e71dc9p-4
5798=0x1.0ad666fd2ca04p-3
5799=-0x1.21314dd1473bfp-3
5824=0x1.1adc7d7d5056cp-12
5851=0x1.0105d080c910bp-12
5855=0x1.b256b42337266p-3
5861=-0x1.609f17e8c5cc7p-8
5877=0x1.259329a5390a3p-12
5903=0x1.1a4de5fd8bb17p-5
5907=-0x1.99cbb7e3d9794p-7
5929=-0x1.2e5906ae7ef84p-1
5933=0x1.7bfc948f61379p-9
5955=0x1.162b3182ef66p-6
5959=0x1.087f85cc410e1p-5
5981=0x1.aa528ba0ba016p-6
5985=0x1.2bb6b6e294949p-5
6007=-0x1.b2344143fe5c4p-4
6011=0x1.71dd0a8de2edcp-5
6033=0x1.bcf0186fb3047p-7
6037=0x1.6d90ac8bfc4dcp-12
6059=0x1.97f2bfbf5a8ap-5
6063=-0x1.634bd8ad60edep-7
6085=-0x1.bf04a063b87d3p-4
6089=0x1.b4e6d8bb52567p-3
6111=-0x1.09f7cc0d36cc1p-9
6115=0x1.69709bc4ff195p-6
6145=-0x1.89674a79d88fap-12
6163=-0x1.f3b4d6ad00bbp-6
6165=-0x1.2a3f9aa6ed5b2p-9
6168=0x1.e94f520185c19p-3
6189=0x1.282c53f6860e8p-5
6193=-0x1.3edcf682be90ep-10
6198=0x1.41b91004f2138p-2
6223=0x1.8862a5c0f239cp-3
6242=0x1.7dac919560d7cp-5
6267=0x1.8eba822bebab1p-2
6271=-0x1.c67caeec0853ap-6
6293=0x1.4a95d45e00be4p-9
6297=-0x1.6a0de51fb87e5p-8
6302=0x1.d1f5848f49cbfp-2
6303=-0x1.55b42c2f8adadp-8
6318=-0x1.5661aa80d40eap-12
6319=0x1.83283ab20f367p+0
6349=0x1.55dda6df085ap+0
6371=0x1.a92b1b67df6b4p-5
6397=0x1.0c1397e095dbbp-12
6422=-0x1.433b916c551a6p-1
6423=0x1.b3993c84747a2p-2
6424=-0x1.b24c2d0752fa9p-6
6427=0x1.20dd4c6826ad6p-7
6432=0x1.fb14facd3937p-3
6449=-0x1.33ae88616cacep-2
6452=0x1.fb9c3b04e729p-1
6453=0x1.e6c74249e6b9bp-9
6454=-0x1.1ae8445715224p-13
6458=0x1.f44c16b1fe03p-4
6475=0x1.c661ccce8958dp-3
6477=-0x1.458995248a39p-11
6480=0x1.057716d9bb84ap-1
6501=0x1.6a1926afb985fp+0
6503=-0x1.dc38d22a4978ap-4
6505=0x1.4e6bcc139b8b3p-2
6506=0x1.5217dd4254a61p-3
6532=0x1.bd565c46d4ce8p-17
6561=0x1.f5cf5bc2a53f4p-2
6579=0x1.a89f9c938976fp-4
6581=-0x1.6eb1cf565d449p-4
6605=0x1.19c29ad377076p-1
6609=-0x1.02879227b064cp-4
6630=-0x1.064c81cc84578p-5
6631=0x1.1ddc7495c7411p-1
6657=0x1.34b5ddbf9e8fep-11
6661=-0x1.9ad824d0d5466p-11
6683=0x1.bf97107e6196ap-11
6687=-0x1.9a640bba9063cp-11
6709=0x1.95006d8b7253dp-4
6713=-0x1.8b61fc05ce339p-12
6738=0x1.2e43805bcdde8p-3
6740=-0x1.09f53633fd55bp-2
6743=0x1.20581170633a8p-1
6762=0x1.2ab630101155dp-6
6787=-0x1.326fd62200f34p-7
6791=0x1.61e2a775dd9c6p-8
6813=0x1.96f27fb05a9bp-2
6839=-0x1.09770fa897965p-6
6841=-0x1.1a5cc63d8d06ap-7
6844=0x1.fd294d8483673p-4
6875=0x1.4bba605d68d83p-1
6891=0x1.18ada302949aep-7
6893=-0x1.8c9b9aa17aabap-13
6917=0x1.ba6aae51684ccp-8
6921=-0x1.b3b0a133e2c84p-6
6943=0x1.27c7e9d09e186p+1
6969=-0x1.38ec1a52e568ep+1
6973=0x1.9d64f2ec3363ap-2
6995=-0x1.026906b27477dp-1
6999=0x1.263f086b2dd64p-7
7021=-0x1.a1e7456eef01p-6
7025=0x1.14065918cb69dp-4
7046=0x1.60cd4694c9c3ap-12
7056=-0x1.a38abc2b44461p-8
7057=0x1.ead9b3a7e7f34p-6
7073=0x1.6d895e8b11415p-2
7102=0x1.9772130483079p-11
7107=-0x1.76dc517353b93p-11
7124=-0x1.72ed30614f8bcp-7
7125=0x1.28275ae5dc5ep-6
7151=-0x1.4cff11f64537cp-14
7155=0x1.7fd824ab8103cp-14
7177=0x1.a6fab095c792cp-10
7203=0x1.df6149f05c327p-3
7207=-0x1.b7527fd8197d5p-2
7229=-0x1.7ec4fae1d471p-10
7233=0x1.7aa8c3c52cdd5p-5
7259=0x1.f3743f2f388cp-12
7285=0x1.f3743f2f388cp-12
7307=-0x1.f789ed5b49e6fp-2
7311=0x1.5ccbe66bc6fd4p-3
7342=0x1.0f1232d20fb7cp-7
7359=0x1.aa4e2d2dd781ap-5
7385=0x1.79069462e0346p-3
7410=0x1.ac1f62568757p-13
7437=-0x1.ca1a2c065ed81p-10
7446=-0x1.638bdd4ba38b8p-5
7447=0x1.ea8707169c6f5p-9
7463=0x1.c5cc4890d56eap-5
7467=0x1.e16faadfc0da7p-4
7473=-0x1.31a295b7b469ap-4
7490=0x1.59ad758b5d6fbp-6
7493=-0x1.abbfd474fe224p-7
7519=0x1.ef38292d96ae2p-5
7525=-0x1.345a2893a91bap-6
7552=0x1.4e269367ad26dp-1
7578=0x1.4e54deaef633p-1
7604=0x1.4e54deaef633p-1
7630=0x1.5286c99748ebap+1
7649=-0x1.cfb77eea3ca69p-14
7675=0x1.09fc4e0b6306ep-6
7701=0x1.bdb91764daa77p-7
7723=0x1.de35a019fd6c2p-1
7733=-0x1.98593723e669cp-5
7749=-0x1.bdea27da102bep-6
7753=0x1.3792bea7c3803p-3
7759=0x1.17cdf7ab77ccp-7
7779=0x1.39edcd903ef06p-2
7801=-0x1.d9a0afe312e24p-8
7805=0x1.e38f90ee33306p-9
7827=0x1.7f7c7d37242adp-14
7837=-0x1.9633996d71734p-6
7853=0x1.6956cf5eddbf3p-7
7857=0x1.ae449a5ad1f1p-2
7883=0x1.140b44959c75dp-2
7904=-0x1.e6ed3873f8ebdp-4
7905=0x1.70380329c8ea8p-2
7935=0x1.501ab77b12b43p-4
7956=0x1.c18b5144fe37dp-2
7958=0x1.1ad43942d9e0cp-2
7959=0x1.41aa180e7a16p-4
7961=-0x1.708095c7c8c4dp-7
7984=0x1.d951cf46c8cfap-3
8009=0x1.b9a65e7d7f54ep-5
8036=0x1.59ad758b5d6fbp-6
8039=-0x1.8d03c68289a94p-8
8061=0x1.033e23ba18dc7p-6
8065=-0x1.b58935f66c1f7p-8
8087=0x1.6101dc3b286ep-9
8113=0x1.33ae103fdccddp-2
8122=0x1.45ec743d2d83ep-5
8139=0x1.9aff650358094p-5
8165=0x1.e7b0662d6ee1p-7
8169=-0x1.9607b659b53bap-8
8191=0x1.20ad6e2329a51p-5
8192=-0x1.5f14803f16a9fp-12
8193=0x1.65e5cdfd2b4ep-12
8217=0x1.765154523721cp-3
8218=-0x1.c1466be8d4505p-5
8221=-0x1.79f7071a71a83p-10
8227=0x1.1ba720498c366p-2
8243=0x1.1449b801a5028p-3
8247=-0x1.3a82abdaf6fb6p-7
8269=0x1.2dad8cc13481ap-3
8273=-0x1.f73431eb48593p-4
8295=0x1.c67c79f15f28ap-2
8321=-0x1.837b4a6422ea9p-8
8347=-0x1.8444411d799cp-11
8351=0x1.5c4e712fb2aa3p-1
8373=0x1.6f343ae8ed4a4p-4
8377=-0x1.883fc9795f05fp-6
8383=-0x1.7c6c4f43499p-7
8399=-0x1.bda9ef63d41b5p-13
8403=0x1.779285e0e06d3p-3
8425=0x1.53b7ad545ecf1p-4
8451=0x1.865d1e6cf1fabp-6
8461=-0x1.b23012bf89e8ap-5
8477=0x1.d67f858c7b11ap-5
8503=0x1.07ca233901f49p-5
8507=-0x1.3bb4b31a88d08p-7
8529=-0x1.13e295e3bad13p-8
8533=0x1.31b1a96803969p-8
8555=-0x1.a90980bbf162ep-2
8556=0x1.0a1cfbb459447p-3
8559=-0x1.2d38a47f40319p-4
8564=0x1.7c168631ca434p-2
8581=0x1.0a3773ed61532p-2
8584=-0x1.a6fdc03d434e4p-5
8586=0x1.6900b6f480f17p-15
8589=-0x1.d80f382e7d048p-7
8590=0x1.63795170b0a84p-11
8606=-0x1.30bd214dc36fap-11
8608=0x1.24874bf2a5a09p-10
8610=-0x1.ba55654ef2b85p-2
8611=0x1.a23787d796d24p-3
8612=-0x1.d347b339c3434p-6
8643=0x1.16af40690d556p-8
8662=0x1.54068c5171fa7p+1
8685=-0x1.058d1efdd62fap-2
8688=0x1.cc82aebdb8c5bp-10
8689=0x1.698cc0bfbfb08p-7
8690=-0x1.07fdabd731c62p-8
8711=-0x1.322ebd06c5d5fp-13
8746=0x1.0f1232d20fb7cp-7
8763=-0x1.eb5be0c7d1f05p-6
8767=0x1.a11b99d6cf3ffp-7
8789=0x1.3b823213c7cecp-3
8793=-0x1.4bcb368fe7d3cp-5
8820=-0x1.72d7fa983a911p-6
8823=0x1.0a65016e64581p-1
8841=-0x1.29ea694bd7d42p-9
8867=-0x1.442d6795b164dp-5
8871=0x1.21d68fe293edbp-6
8896=0x1.9bac96bbd40cfp-5
8901=-0x1.29ec58b7cb1b5p-4
8919=0x1.1d680890f53dfp-5
8923=-0x1.491c430ea19a1p-4
8945=0x1.ffd32e9dc196p-5
8949=-0x1.5a6e9a2b5bd5cp-4
8970=-0x1.f6835cd291232p-5
8973=0x1.523d1453a4f7ep-3
8996=-0x1.8b13e7f92bb86p-12
8997=-0x1.e8fb6c48f0ae4p-4
8999=0x1.b8057fb77ba7fp-5
9023=-0x1.330207cab16d8p-4
9025=0x1.7a497e3d2929ep-3
9049=0x1.8af1254bf7f4cp-10
9051=-0x1.d89cac71b2358p-17
9075=0x1.d24e6783a2b92p-13
9077=-0x1.470d2d453a4aep-17
9101=0x1.d2e8098a3800ep-14
9103=-0x1.0a80c40dff281p-16
9127=0x1.d3c24aaadd324p-14
9129=-0x1.c6b61ee42ea28p-17
9153=0x1.a316457ae69ecp-5
9157=-0x1.8bb725d73916cp-5
9179=0x1.d35474c48edd7p-14
9181=-0x1.ebab07279d9dep-17
9207=0x1.f99d9cd6a96a4p-11
9231=0x1.5a0f8a50a354fp-8
9233=-0x1.4c8859dcf089cp-16
9257=0x1.ae03835f06d72p-13
9283=0x1.53f3219a328ep-10
9285=-0x1.786ed5830970ep-13
9309=0x1.22d1eebee966cp-9
9311=-0x1.6da92caaee3fep-13
9335=0x1.22d1eebee966cp-9
9337=-0x1.6da92caaee3fep-13
9361=0x1.22d1eebee966cp-9
9363=-0x1.6da92caaee3fep-13
9387=0x1.22d1eebee966cp-9
9389=-0x1.6da92caaee3fep-13
9413=0x1.22d1eebee966cp-9
9415=-0x1.6da92caaee3fep-13
9439=0x1.22d1eebee966cp-9
9441=-0x1.6da92caaee3fep-13
9467=-0x1.1947934095c67p-7
9491=0x1.22d1eebee966cp-9
9493=-0x1.6da92caaee3fep-13
9517=0x1.22d1eebee966cp-9
9519=-0x1.6da92caaee3fep-13
9548=0x1.992e1379f4578p-8
9570=0x1.311b8b133247bp-2
9595=-0x1.1bee1abc62a74p-8
9597=0x1.5ad37dd236198p-3
9621=-0x1.2149ecb4d33ffp-7
9623=0x1.8d2aef216e21cp-3
9647=-0x1.0911efeb19c58p-10
9649=0x1.7fdd7a94c09c8p-6
9675=0x1.d54ef0ec9be14p-9
9701=0x1.5d3130562b0fep-4
9725=0x1.9e027ac682b9ep-6
9727=-0x1.26176d9891f2p-11
9753=0x1.a01e9bc2dbe88p-12
9779=0x1.a01e9bc2dbe88p-12
9803=-0x1.cc8252da45bap-15
9805=0x1.921ff111d7203p-7
9831=-0x1.07cad911246e3p-6
9857=-0x1.d6a62b6285c9ap-6
9860=0x1.91ffd6278473cp-3
9881=-0x1.a63ff134e04b1p-5
9883=0x1.544ddcee96d01p-1
9911=0x1.54f3bf97b8b6p-8
9937=-0x1.0d8ec8a1ee6f1p-6
9959=-0x1.708dcdbc1b727p-5
9961=0x1.e6a1c0548875ap-5
9985=-0x1.07fd3f87f9662p-6
9987=0x1.532b0205fd2dcp-9
10013=0x1.006e1858b8987p-9
10037=-0x1.aab0055cb18f6p-7
10039=0x1.fa4f496a27497p-7
10063=-0x1.3c7ff0c4a3b16p-9
10065=0x1.c17afdadf2c2p-8
10091=0x1.426028f60975p-14
10115=-0x1.96ffa96cce4a7p-10
10117=0x1.1bb743b330d8bp-9
10141=-0x1.e541f5a2c8ad6p-11
10143=0x1.da8241a6a74e3p-12
10167=-0x1.9d72ad20f209p-9
10169=0x1.5e99d978fdf63p-8
10193=-0x1.9c7a3115529cap-9
10195=0x1.f32a7114cdad3p-6
10219=-0x1.943648158b2dep-12
10221=0x1.6d82aef2acb57p-9
10245=-0x1.9385e6f57a17ap-12
10247=0x1.aa6eec89a1d97p-9
10276=0x1.a2dd6a372621bp-9
10280=-0x1.2dae26b6ac42cp-11
10299=0x1.0a21ed8805845p-11
10323=0x1.a8f039f728fcep-10
10325=0x1.541a83ae7c928p-15
10327=-0x1.17e60669408b7p-1
10333=0x1.65aea8020c4f8p-6
10349=-0x1.cb58f9c2daf94p-8
10353=-0x1.2be2d6430c324p-7
10354=0x1.196841afb0d2ap-3
10374=0x1.81100d80d82p-14
10375=-0x1.3893194126ef7p-5
10401=0x1.47fe6921aebdp-5
10403=-0x1.572fbbc8bb25ap-12
10429=0x1.8a9ca39f88b7ep-3
10455=0x1.8018f0524cd78p-11
10481=0x1.cf9ddc383401fp-9
10505=-0x1.fd8c78ae73e08p-12
10507=0x1.e2444c1f43cdfp-8
10533=0x1.849ac45ba5199p-11
10557=-0x1.cf7e7a665a104p-11
10559=0x1.1c5cbbb4a1f16p-7
10585=0x1.cf9dddce3103bp-9
10609=-0x1.da1d8439d93f3p-11
10611=0x1.32945531c7ce2p-7
10637=0x1.c9374fd24de7ap-13
10661=-0x1.fa74673018f72p-12
10663=0x1.e2ac5253e2f2p-8
10687=-0x1.72bffaa0496bdp-7
10689=0x1.a3adeb99b025fp-7
10712=0x1.f923ea0e685f8p-6
10713=-0x1.143734845cd81p-2
10715=-0x1.986df200064c3p-14
10739=-0x1.f16a72cf9ea5fp-11
10741=0x1.00cda12668acep-10
10765=-0x1.0c96db81e89dfp-9
10767=0x1.12d9561309bf9p-8
10791=0x1.77f2f36e9af6ep-6
10795=-0x1.960be330a9f72p-8
10817=-0x1.30674c22c5971p-12
10819=0x1.3e655613d8f49p-10
10843=0x1.fd8356cee23b4p-15
10869=-0x1.0347a29b89739p-1
10870=-0x1.f82e5318e63dp-11
10871=0x1.5740f7ee2de8cp-3
10895=-0x1.bceb0ecffeeecp-5
10897=0x1.48d578a1908e6p-3
10921=0x1.5440434860d7cp-9
10923=0x1.95be3f65920d5p-6
10949=0x1.36566a0d39643p-7
10973=-0x1.3beee6f4d107ap-5
10975=0x1.1363fbcf5fe85p-3
10999=0x1.03a7ff3881e72p-4
11000=-0x1.389f0e078876bp-11
11001=0x1.e88d3c726e76ap-8
11003=-0x1.9d44136bcc50ep-4
11025=0x1.a78ab70c495d2p-6
11027=-0x1.466106ef3ff17p-11
11029=-0x1.074afe2d69fe4p-7
11051=0x1.88ada04543c9ep-6
11053=-0x1.33e59034dd315p-10
11055=-0x1.0739384020bdap-7
11077=-0x1.3fc172ae58f0bp-5
11079=0x1.dce8ede45a308p-5
11103=0x1.f616fce279986p-6
11107=-0x1.071e3ea30f037p-7
11129=0x1.316d3e2888036p-5
11131=-0x1.969c21a446c9p-4
11133=-0x1.06de298382d1bp-7
11134=0x1.3bf77ead4952cp-8
11155=0x1.b6118d0e76342p-9
11181=-0x1.42e4a3f5c5947p-9
11183=0x1.a83600b432fdap-8
11207=-0x1.42e4a3f5c5947p-9
11209=0x1.a83600b432fdap-8
11233=-0x1.42e4a3f5c5947p-9
11235=0x1.a83600b432fdap-8
11261=0x1.a7fcf68e0a21dp-8
11285=-0x1.42e4a3f5c5947p-9
11287=0x1.a83600b432fdap-8
11311=0x1.707d8dc1dbdaap-5
11313=-0x1.42f771e9061fap-5
11315=-0x1.064dbbc00dd88p-7
11337=0x1.3b0d44e308e4dp-3
11339=-0x1.0167b6a0a5c74p-3
11341=-0x1.def271a3f4549p-8
11346=-0x1.0322c430a9283p-4
11347=0x1.b9fdd90fa4a8fp-2
11363=0x1.6dc8d3da53308p-3
11365=-0x1.39686a43f2731p-5
11367=-0x1.de12633fe04ccp-8
11389=0x1.be66521ca382ep-7
11391=-0x1.1185746bdc256p-7
11415=0x1.be66521ca382ep-7
11417=-0x1.1185746bdc256p-7
11441=0x1.be66521ca382ep-7
11443=-0x1.1185746bdc256p-7
11467=0x1.be66521ca382ep-7
11469=-0x1.1185746bdc256p-7
11493=0x1.be66521ca382ep-7
11495=-0x1.1185746bdc256p-7
11519=0x1.0c9daa98c1adbp-5
11523=-0x1.96af42f168a2bp-8
11545=0x1.404a974d63c1fp-5
11549=-0x1.9681d03d44bc8p-8
11571=0x1.4616995d512f9p-5
11575=-0x1.960765fe954f5p-8
11597=0x1.4616995d512f9p-5
11601=-0x1.960765fe954f5p-8
11623=0x1.4616995d512f9p-5
11627=-0x1.960765fe954f5p-8
11649=0x1.4616995d512f9p-5
11653=-0x1.960765fe954f5p-8
11675=0x1.0c9daa98c1adbp-5
11679=-0x1.96af42f168a2bp-8
11706=0x1.b6bb3140d238ap-6
11729=0x1.646e08a73cdf5p-16
11753=-0x1.a2c818db94bf2p-14
11755=0x1.1a35d3c7b9229p-13
11781=0x1.170f0fd467e9cp-4
11805=-0x1.6aa72d7f89d93p-12
11807=0x1.852d403b67988p-7
11833=0x1.b92d26b5c9ab3p-5
11857=0x1.888e5efa24533p-2
11859=-0x1.25487603011c6p-7
11861=-0x1.44efae11287ep-7
11883=-0x1.6ddc1e881e908p-16
11885=0x1.8862e1636a2c8p-16
11912=-0x1.eb4a2f3f2be59p-8
11914=0x1.74b4ebc2637e5p-5
11937=0x1.5f06804476da3p-16
11962=0x1.9f3ca8df45986p-5
11986=0x1.2d8fc196017c4p-5
11987=-0x1.d80ae41d0ebcp-16
12014=0x1.c26483f249468p-7
12044=0x1.d4a53236a6d6cp-6
12065=0x1.84d8bef37a7ecp-9
12091=0x1.84d8bef37a7ecp-9
12117=0x1.84d8bef37a7ecp-9
12143=0x1.84d8bef37a7ecp-9
12169=0x1.84d8bef37a7ecp-9
12195=0x1.84d8bef37a7ecp-9
12221=-0x1.ff87ee568118bp-6
12225=0x1.b45779d58dec9p-5
12247=0x1.e092d753d6db3p-7
12273=0x1.e236673b55246p-7
12299=-0x1.b2fd161e5b5ap-5
12303=0x1.39ee05c624ab6p-4
12325=-0x1.36eb28ce97cffp-7
12329=0x1.6ae56b3080218p-8
12351=-0x1.1edd21c622518p-5
12355=0x1.c2360241ff2a9p-5
12381=-0x1.00e660db4ce83p-5
12387=0x1.e6e0a20ac5e95p-4
12403=-0x1.36de845f89493p-3
12407=0x1.381483e89dba1p-3
12429=-0x1.3261a2b9722d8p-5
12433=0x1.32367eb86b5b8p-5
12455=-0x1.5dd6c57f2c74ep-16
12459=0x1.3f293871ed43ep-6
12481=-0x1.801a4a82ee776p-5
12485=0x1.ac8ee2fa12619p-5
12507=0x1.83ea2b92001f1p-9
12511=0x1.349dce4fac7ffp-7
12533=-0x1.67a06c88c6d3ep-8
12537=0x1.46d6ca193a77bp-8
12559=0x1.0881a3b1accd9p-9
12563=-0x1.a92c3b79aa6b3p-10
12584=-0x1.5ee649d9a1978p-13
12585=0x1.1b3ecff302785p-4
12587=-0x1.c5867df25cd23p-6
12611=-0x1.48fe145803215p-7
12615=0x1.cc39fc75c887cp-7
12637=-0x1.3d20bfebbcea2p-9
12641=0x1.28d5a3ae1255ap-9
12663=-0x1.61d681c574de5p-8
12667=0x1.c0a5049acec31p-7
12689=-0x1.8417b6cc36284p-8
12693=0x1.65af795c2ac08p-8
12715=-0x1.34f5c2595d1d6p-14
12719=0x1.ee0d77f0be429p-7
12741=-0x1.cb0cd1dd7d6f6p-10
12745=0x1.946fd8ea928ep-10
12767=-0x1.7225e3f3c1661p-8
12771=0x1.52880be3aaf15p-8
12793=-0x1.cbe56b839a004p-8
12797=0x1.66c402e5716aep-7
12819=-0x1.33ebf65504af4p-2
12823=0x1.b2eb33c8ee811p-2
12845=-0x1.fb25cf91d82c4p-9
12849=0x1.d71ada461c548p-9
12871=-0x1.41a532ebfafd4p-8
12875=0x1.d413543225996p-8
12897=-0x1.6edad63417ba5p-8
12901=0x1.5f53959d277f1p-8
12923=-0x1.b6fc4708532a8p-9
12927=0x1.ad5516a45d2f7p-9
12949=0x1.9a6a2d9337625p-5
12953=-0x1.3febdddc071f6p-5
12975=0x1.9a6a2d9337625p-5
12979=-0x1.3febdddc071f6p-5
13001=0x1.f55b375e34183p-13
13031=0x1.9b5cab127ad8cp-2
13053=0x1.9037e99f3bd73p-10
13057=-0x1.1f7343d85be5bp-7
13083=0x1.f55b6fb26990dp-2
13105=0x1.d8bf8009efee7p-8
13109=-0x1.54670ec37f28ap-6
13135=0x1.50a757c810beep-7
13161=0x1.8c3f346371c05p-3
13183=0x1.82d37b967a742p-7
13184=0x1.2fbedb638ff1cp-11
13187=-0x1.58372387d9f28p-14
13213=0x1.012335e718c52p-3
13235=0x1.9562c988624f8p-6
13236=0x1.68ffb42339872p-10
13239=-0x1.5c1b87edef4d7p-8
13262=0x1.6b94873af1fb8p-10
13265=-0x1.5471c8a0f7a6dp-13
13287=0x1.a37df494ea6ecp-5
13288=0x1.ed0afad80bcb1p-14
13291=-0x1.c66b9119b6c3dp-6
13314=0x1.3935365f0c7e9p-14
13339=0x1.82e00c7f7afeap-7
13340=0x1.b5dc35e621d7dp-10
13343=-0x1.27f994c92a21dp-6
13366=0x1.e7135856936fbp-11
13391=0x1.30459d932c72dp-4
13395=-0x1.5bcf24481d397p-5
13421=-0x1.74398f7b2b78fp-9
13443=0x1.0c317a8731d56p-6
13447=-0x1.334adece8fabep-11
13473=-0x1.20def99a2ecacp-10
13495=0x1.a99fcbfd12d57p-4
13499=-0x1.06269bf886412p-5
13521=0x1.136035f1dc1e3p-6
13525=-0x1.7bf7793ed7d1dp-8
13547=0x1.13b2a6d4fb3f3p-6
13551=-0x1.79acd08aafbp-8
13573=0x1.a89cdcc4793dcp-6
13577=-0x1.6b5cf78a63d29p-7
13599=0x1.a89cdcc4793dcp-6
13603=-0x1.6b5cf78a63d29p-7
13625=0x1.a89cdcc4793dcp-6
13629=-0x1.6b5cf78a63d29p-7
13651=0x1.9b9011e5ad5fep-8
13655=-0x1.60b08bc1e4779p-10
13677=0x1.ca85243cdb9c9p-7
13681=-0x1.45ccbe6772c8p-10
13702=-0x1.e6ed3873f8ebdp-4
13703=0x1.7032b5ed3c962p-2
13730=0x1.fb884b1c90654p-6
13755=-0x1.1fce8af3d7067p-8
13785=0x1.6fb6c85e745acp-11
13808=0x1.59cfb9f00d408p-8
13834=0x1.4fcea183ef45cp-8
13860=0x1.4af6ece6a096p-8
13886=0x1.59cfba2cda904p-8
13912=0x1.4fceb80d59103p-8
13937=-0x1.5cbabe42c2dbfp-8
13938=0x1.188e0ca509ac2p-6
13964=0x1.35a1b156b487cp-7
13998=0x1.04ea8c4927ba2p-4
14024=0x1.091240ca9b60cp-4
14050=0x1.091240ca9b60cp-4
14076=0x1.091418880f063p-4
14102=0x1.8de1062b6c982p-6
14120=0x1.2b58ea1524e68p-5
14146=0x1.75bdf3bb84cb8p-6
14172=0x1.03a4af8357a74p-9
14201=-0x1.144be403edf14p-12
14223=-0x1.87177b216da32p-14
14249=-0x1.87177b216da32p-14
14275=-0x1.3a97ee7640a3dp-14
14276=0x1.23dfeec6a618ap-18
14301=-0x1.1528f3e6993d4p-14
14326=0x1.1755ae9a4b184p-4
14327=-0x1.d415dccaa093dp-5
14357=0x1.05ce788711011p-7
14379=-0x1.d16627442d12cp-7
14404=-0x1.0a1942650f15bp-10
14405=0x1.252421fe22419p-8
14430=-0x1.4c6a0963e83e8p-11
14431=0x1.480efd077b1e7p-10
14456=-0x1.4c69f8d35ef31p-11
14457=0x1.480efa590b245p-10
14482=-0x1.66db6cebdb162p-10
14483=0x1.9a9e1c6c6af29p-7
14486=0x1.8382db76f869p-6
14487=-0x1.d67025cfa9cbp-5
14509=0x1.ad7fef0b0e6c8p-4
14535=0x1.641ea3be227a2p-12
14561=0x1.655af88dcfeacp-12
14587=0x1.0297c52155bbp-17
14613=0x1.a549a0197094cp-11
14639=0x1.dcabee8548fbp-16
14665=0x1.524d1954d91c7p-11
14691=0x1.d111088d62b84p-8
14695=-0x1.cfb140fb2c3cep-8
14717=0x1.c449c14092724p-9
14721=-0x1.c2d7b931ce702p-9
14743=0x1.b46c9c3899827p-7
14747=-0x1.6c995ed9d5616p-8
14769=0x1.88861c9c4029p-7
14773=-0x1.270742d19f686p-8
14795=0x1.1ec6f7886176ep-6
14799=-0x1.27072a547aadbp-8
14821=0x1.526456175815ep-7
14825=-0x1.50ca29663e856p-9
14847=0x1.525448e87a3c2p-7
14851=-0x1.50ca194b79d62p-9
14873=0x1.06c5625ddee8ep-3
14877=-0x1.ac1ca20a3258ep-10
14878=-0x1.041641b4fd04p-7
14881=-0x1.0968912111808p-1
14899=0x1.d7d532ee94a63p-8
14925=0x1.fccbe5e10a5afp-9
14955=0x1.7792d169075c4p-5
14981=0x1.621630604efddp-7
15007=0x1.972fef8fcfc9p-5
15029=-0x1.155cf5b600c1p-9
15030=-0x1.56eb92e8d4266p-15
15033=0x1.8d2490af49964p-14
15054=-0x1.f3147e1d13e21p-5
15055=0x1.f32449d50c45dp-5
15080=-0x1.f03009154166ap-5
15081=0x1.f03ae7b2c32c3p-5
15106=-0x1.c0c8d61a2629bp-6
15107=0x1.c0cc027f8d288p-6
15132=-0x1.c0c8d61a2629bp-6
15133=0x1.c0cc027f8d288p-6
15159=-0x1.8d1c487c4bd48p-10
15163=0x1.9276ef3b2f6f3p-5
15185=-0x1.7f526b9431bf5p-5
15221=0x1.a1ffdf33b764dp-5
15247=0x1.a1ffdf33b764dp-5
15267=0x1.10fe56a9cdcd9p-2
15289=-0x1.bb052f0e1f1dcp-6
15293=0x1.dd251e6d8692ep-6
15319=0x1.70d09e6fcc182p-6
15341=0x1.a853376e82f56p-4
15345=-0x1.fcbecafb412d2p-8
15367=0x1.86046900e5a8cp-6
15371=-0x1.03c7b9423b7d1p-6
15393=0x1.af50678c228f2p-5
15397=-0x1.1fc3bae2da1f4p-5
15419=-0x1.28b74341adc8cp-8
15423=-0x1.6eacee3d86073p-9
15427=-0x1.2d129a5a82fc9p-10
15445=0x1.c77da20cb0f03p-5
15449=-0x1.b863b35b3b5cap-17
15470=-0x1.ca68087c94383p-9
15471=0x1.43e005150edabp-6
15475=0x1.1114168a1cbcp-8
15496=-0x1.ca6795699cfb6p-9
15497=0x1.43d366ad1c471p-6
15501=0x1.1122dfb286775p-8
15523=0x1.76843491f4ecap-9
15527=-0x1.d570df90af98cp-10
15549=0x1.6deae983fbc33p-6
15553=-0x1.6dd9e6c28acfcp-6
15575=0x1.fdb7a6d7936ecp-5
15579=-0x1.8ba543f2f4d2cp-5
15601=0x1.fdb7a6d7936ecp-5
15605=-0x1.8ba543f2f4d2cp-5
15631=-0x1.eb68aece149f4p-7
15653=-0x1.af1bec628f70dp-5
15657=0x1.f311aaba328b5p-4
15679=0x1.f7ad9068ef447p-13
15683=-0x1.03c675d8a099dp-12
15705=0x1.f56135ae09204p-13
15709=-0x1.00d1106d252bp-12
15731=0x1.f78ef26e0c43p-13
15735=-0x1.048cf18ff516cp-12
15757=-0x1.aecdce9b8c002p-9
15761=0x1.14065918cb69dp-4
15783=-0x1.00a01b52ee256p-7
15787=0x1.96e604c51bc7ap-4
15809=-0x1.00a01b52ee256p-7
15813=0x1.96e604c51bc7ap-4
15835=-0x1.00a01b52ee256p-7
15839=0x1.96e604c51bc7ap-4
15865=0x1.5419ae8e05662p-6
15891=0x1.b1e4baff1c687p-3
15917=0x1.b1e4baff1c687p-3
15939=0x1.204a863f72d06p-5
15965=-0x1.843465a014517p-5
15974=0x1.0310edb1249dfp-8
15975=0x1.8e389dd42297ap-5
15991=0x1.092ac3e35ff04p-3
16000=0x1.90e3441260f12p-5
16001=0x1.9f29a6dd18ed9p-6
16017=-0x1.244384e094a72p-6
16027=0x1.a1ba0da56ceep-6
16053=0x1.39beae02c52dp-9
16069=0x1.e46289a60072cp-6
16095=0x1.431bcbcd2df0bp-3
16099=-0x1.de59d769191d8p-3
16121=0x1.ff3f897096197p-6
16125=-0x1.efc8d32824c58p-7
16130=0x1.9d7e412804be7p-3
16147=0x1.371ea62ebc293p-5
16173=0x1.8f36f7e140fe1p-8
16177=-0x1.6d2555e1f66f6p-8
16199=-0x1.46f4089c90b87p-11
16225=-0x1.b8569c16ac33p-10
16251=-0x1.1c079d29bb326p-10
16277=-0x1.fca505fdc5df6p-12
16286=0x1.597b8e4a4bfb7p-3
16303=-0x1.0dd9f793c1bfdp-15
16329=0x1.1ed6b933ebca8p-9
16333=-0x1.40d7ea4abb733p-9
16355=-0x1.9e0de64819d9fp-9
16359=0x1.4424de1e98706p-8
16385=-0x1.e5644d76f59c6p-6
16407=0x1.5a020723dbcb6p-12
16411=0x1.149ee0f6648f6p-8
16433=-0x1.5aa89981e538ep-10
16437=0x1.5aac5489ad9adp-10
16459=0x1.45bd3ecd2d5c1p-9
16485=0x1.c0b7aee158aa3p-5
16489=0x1.c6ba2a8997a6bp-4
16495=-0x1.864703c23c66ep-5
16511=0x1.f58747967abb4p-5
16515=0x1.db194e7ccbfbp-5
16521=-0x1.830abe9adccfap-5
16537=0x1.f58747967abb4p-5
16541=0x1.db194e7ccbfbp-5
16547=-0x1.830abe9adccfap-5
16563=0x1.d6f6350782f9ep-7
16567=0x1.b7e39936aee4p-4
16573=-0x1.83046cdfd85eap-5
16593=-0x1.5fafc299ab975p-3
16615=0x1.70d19f5313e7ep-10
16642=0x1.c5f8e9ee7667cp-8
16667=-0x1.2d5e6d8e88464p-3
16671=0x1.3cd4155b996f3p-2
16672=-0x1.58a5704113b01p-6
16675=0x1.8fc3351c4492dp-7
16697=0x1.454045572ffp-5
16723=0x1.11428e05ec9c8p-2
16749=0x1.11428e05ec9c8p-2
16780=0x1.2591e9e38a17ep-11
16797=0x1.bab8d0e7bd682p-7
16823=0x1.bbfdb63c98c17p-11
16849=0x1.92b75b52c98fcp-9
16875=0x1.bab8d0e7bd682p-7
16900=-0x1.02369cb2841e4p-4
16901=0x1.d0642fc4455cfp-4
16936=-0x1.55d9741f6a9f4p-17
16937=0x1.52b17cfb1272fp-15
16953=0x1.d1387015a7b0cp-8
16989=0x1.5d4c8ab7e6eafp-2
17014=-0x1.f801f1fcc4b0dp-15
17040=-0x1.f7fba8e49a63bp-15
17067=0x1.9120e34537fa2p-2
17093=0x1.a1ffdfbd439a4p-5
17119=0x1.a1ffdfbd439a4p-5
17135=-0x1.74ff3daf40e9ep-6
17160=0x1.6a6a767f6d62fp-1
17161=-0x1.77feebbacb753p-3
17187=0x1.e6452d1fe126cp-11
17191=-0x1.9685ef80d2c5p-13
17212=-0x1.563eb9e86d3cfp-12
17213=0x1.e38c30237d0c9p-12
17239=0x1.0388a59321739p-10
17243=-0x1.ad1fcc60c0415p-9
17269=-0x1.27429b3a999acp-8
17291=0x1.46a5c8960599dp-3
17295=-0x1.467614f8544p-3
17317=0x1.0b4bfc27c20bap-10
17321=-0x1.e7908cc3612a8p-12
17343=0x1.1affdbb879bcep-10
17369=0x1.0b3aefb17651cp-10
17373=-0x1.e3a4bc30d47dp-12
17395=-0x1.6e591b89d9f28p-3
17399=0x1.a92e482b1a2d8p-3
17421=-0x1.6e1579f86e777p-3
17425=0x1.a92fbedebc98fp-3
17447=-0x1.6e595cabad07bp-3
17451=0x1.a86999c47132fp-3
17473=-0x1.eab6a29259798p-14
17477=0x1.38380d346697dp-5
17498=0x1.3ab8a513d7024p-8
17499=-0x1.2ba771e8f2d91p-8
17534=0x1.31678d632de4fp-3
17550=0x1.34d6abc76101ap-8
17551=-0x1.287dac3cd060ep-8
17576=0x1.31d2715b899d8p-8
17577=-0x1.281e451bb5c1dp-8
17602=0x1.34fd87adfb9adp-8
17603=-0x1.2b5b70d952b3bp-8
17628=0x1.3562ac43713ebp-3
17629=-0x1.32a63c680226fp-3
17654=0x1.2529c6d7a4b7cp-8
17655=-0x1.1e34573e28591p-8
17681=0x1.712e5420c3e7ep-7
17682=0x1.17fc5336dbdbep-6
17683=-0x1.0d543bcd6f3efp-8
17685=-0x1.41c7bcdd0303ep-7
17690=0x1.22487ab14db4cp-17
17691=-0x1.b2d54f95a30acp-7
17707=0x1.825aa1202d266p-10
17711=-0x1.827afac91bc64p-10
17733=0x1.988723c07c056p-10
17737=-0x1.98aa828f708a7p-10
17759=0x1.78acda72b6866p-10
17763=-0x1.78c9c7130310ep-10
17784=0x1.356924a638186p-4
17785=-0x1.ac1dd75602634p-8
17786=0x1.c5eedba342228p-6
17789=-0x1.b7d72f6a6072ap-5
17810=0x1.ed7f84596c84ep-5
17811=-0x1.da525c4ad0297p-5
17812=0x1.6330170363249p-5
17836=0x1.35bd8b4391e9p-4
17837=-0x1.4349a6f0996f5p-4
17862=0x1.9ccd9367bf23bp-5
17863=-0x1.79687a06ed28dp-9
17889=-0x1.d3fc08377fa9ap-5
17890=0x1.5f11be6019af7p-5
17914=0x1.e089e02820096p-5
17915=-0x1.75300db0804e8p-8
17941=-0x1.069082b8d58c1p-7
17942=0x1.72baa65115072p-2
17968=0x1.2ab630101155dp-6
17994=0x1.38d903c6618fdp-8
18020=0x1.37e1d100a200fp-8
18046=0x1.38d903c6618fdp-8
18070=0x1.2a6e6eea787d3p-4
18098=0x1.01ba2fa21afb6p-6
18124=0x1.5fad40e051779p-7
18150=0x1.62f725ccb3f0ep-7
18176=0x1.62f725ccb3f0ep-7
18200=0x1.7fef27bd4c95dp-5
18201=-0x1.0aaad0d0f8246p-8
18226=0x1.4db283f53c3p-6
18227=-0x1.142bc83e639d7p-10
18252=0x1.84d719b3db29bp-6
18253=-0x1.47b92b93e34b8p-8
18283=0x1.730c63ed526fdp-3
18305=0x1.25ec78626d653p-11
18309=-0x1.23d85859c33ecp-11
18331=0x1.22160e4f37242p-9
18335=-0x1.21d304da8cd99p-9
18357=0x1.405cc2cd22d67p-11
18361=-0x1.402633ecb49bep-11
18383=0x1.4816b2bbc8a9cp-9
18387=-0x1.ce9fcb292ad92p-10
18409=0x1.2bb964127b0f4p-6
18413=-0x1.2ec6624911782p-8
18435=-0x1.20c497e2c72ffp-6
18439=0x1.67bce37a01aecp-5
18461=0x1.9855f587cdb5fp-10
18465=-0x1.81c79bd0deb36p-10
18487=0x1.ab18ba8eb1b28p-13
18513=0x1.ec8d069e4a84dp-12
18517=-0x1.ec8306533a9d1p-12
18539=0x1.32d3f7b6cde13p-7
18543=-0x1.b244b27a6c3f4p-12
18565=0x1.e7b70ea7b58cp-8
18591=-0x1.4165c00af7f16p-3
18595=0x1.d0719da63201fp-3
18621=0x1.0ed0e990cca5ep-5
18643=0x1.e08efbccd2164p-8
18647=-0x1.8865d0eecb127p-7
18669=0x1.1e6a4f15feafep-3
18673=-0x1.1df0bbfca0723p-3
18695=-0x1.2fea5827844bcp-10
18699=0x1.7ea3dd2a9c2eap-13
18721=0x1.f381047a675a1p-4
18725=-0x1.f28fb61b8c86cp-4
18747=-0x1.26ab9cb146554p-11
18751=0x1.0624951a238e5p-11
18773=-0x1.230e04cdad017p-11
18777=0x1.127de7fb56467p-11
18799=-0x1.fe28fe510735bp-6
18803=0x1.014a277d84ab8p-5
18825=-0x1.fcc4ce109f2b9p-6
18829=0x1.01d2181ea4c22p-5
18851=-0x1.6f12f7386d1d1p-6
18855=0x1.011c588adff91p-5
18876=0x1.0d5826eb57ae1p-10
18878=-0x1.7e6cbec1ddf5p-13
18902=0x1.0d581eb02fa38p-10
18904=-0x1.7e8561cee00b9p-13
18928=0x1.6a82df41e884cp-13
18954=0x1.6a82fbf2e2151p-13
18981=0x1.bc93e5e6cbecdp-8
18985=-0x1.42f54c349afeap-9
19007=0x1.a48cee46350f2p-7
19011=-0x1.13d88c9cc1cafp-7
19033=0x1.af2df684d85b2p-6
19037=-0x1.0e71b66fd1acfp-4
19042=0x1.e033c74a0a619p-4
19059=0x1.2ded75ff0c595p-8
19063=-0x1.75e61e74b8716p-9
19085=0x1.7fa21ad1b4f6cp-8
19089=-0x1.16a46f4f2c469p-4
19094=0x1.80876e88ec3fep-2
19111=0x1.64621ccb5969ep-4
19115=-0x1.486119dce785bp-6
19141=-0x1.951a18c57a6aep-5
19146=0x1.e056f97df218p-4
19163=-0x1.81f9c1f539eddp-12
19167=-0x1.0e331d8612d6bp-5
19172=0x1.659f8ba77ce14p-15
19173=0x1.99a41c38fd87p-15
19193=-0x1.6315897cd2cd1p-7
19198=0x1.30f445981df17p-3
19215=-0x1.4fc3d223e822ap-12
19219=-0x1.6fe3d05f21591p-6
19224=0x1.e03531ef7ed29p-4
19241=-0x1.770833d8e338cp-16
19250=0x1.57a445827feb8p-2
19276=0x1.316b62e2094e9p-3
19302=0x1.316b62e2094e9p-3
19319=-0x1.a524d4631df93p-15
19328=0x1.e097f7776474fp-4
19345=-0x1.c14616cad814ap-6
19349=0x1.feb8070ad0093p-6
19371=-0x1.38cb696415dbep-6
19375=0x1.51f769256523cp-6
19397=-0x1.51e9bd8cebb98p-17
19401=0x1.528bc7691e96fp-17
19423=-0x1.58f5f8e0cdc03p-6
19427=0x1.58b31838753d6p-6
19449=-0x1.58f429aa642a6p-6
19453=0x1.5906005004bb8p-6
19475=-0x1.25a1897cbc00dp-6
19479=0x1.33661a9207126p-6
19501=-0x1.78ee714351d04p-8
19505=0x1.a0e9f1091670ap-7
19527=-0x1.9bc3b3f643f78p-11
19528=0x1.b345a0f281d2dp-6
19557=0x1.5a639042dfdecp-8
19580=0x1.56daefcf19f32p-3
19583=-0x1.1d7af2e1e8a6bp-4
19606=0x1.670276466b706p-5
19632=0x1.8f3531ea8a1f8p-7
19635=-0x1.65047fcfb8b0dp-9
19658=0x1.8f3867ad97f55p-7
19661=-0x1.64e4f3717985cp-9
19683=0x1.b1b39d93ef43ep-12
19687=-0x1.4ed6e27cee21cp-13
19709=0x1.8e38d0d69fb3bp-11
19735=0x1.3d3369f9e0d7cp-4
19739=-0x1.3d2c0a7a9a4ccp-4
19761=0x1.ae8ccf1cda6c1p-5
19765=-0x1.ae21a06c3500bp-5
19787=0x1.961932067936ep-5
19791=-0x1.9517fec66bb45p-5
19813=0x1.24f0932180471p-4
19817=-0x1.24e93b8ddfe9cp-4
19839=0x1.68a70e150ee58p-5
19843=-0x1.730256b332024p-6
19865=0x1.691d6aaa6f1a2p-5
19869=-0x1.68b249d505071p-5
19891=0x1.22ffbe73f8d8ap-5
19895=-0x1.21ff83f63af3cp-5
19917=0x1.577221a88fe5ap-5
19921=-0x1.57663d2c41177p-5
19943=0x1.f2b339958d93dp-17
19947=-0x1.f56661082e1d6p-17
19969=0x1.f2b339958d93dp-17
19973=-0x1.f56661082e1d6p-17
19995=0x1.f2b339958d93dp-17
19999=-0x1.f56661082e1d6p-17
20020=0x1.8607df6b3aefep-4
20021=-0x1.85c3b711c5dabp-4
20047=0x1.3d0b75b0f8d1bp-7
20073=0x1.ec45025079ae3p-5
20099=0x1.48bdb814847ebp-5
20124=-0x1.4c98b05fa25adp-15
20125=0x1.3d6ed7dbf110ap-5
20151=0x1.6aa54976462d8p-5
20177=0x1.449c927e574d1p-7
20203=-0x1.de3939f4ce4b8p-11
20207=0x1.f598e185d320ep-5
20229=-0x1.16d0faebcf1fp-11
20233=0x1.6d592f20e56d6p-4
20255=-0x1.8a3447f434b8cp-11
20259=0x1.4abbe7727044dp-10
20281=-0x1.dde5ab275b9d4p-9
20285=0x1.068934c889fc5p-8
20307=-0x1.5552f7b144555p-10
20311=0x1.48201c2854a3ap-10
20333=-0x1.196ce81c896dap-5
20337=0x1.2f0823e61dba1p-5
20359=-0x1.4a44aa8714b92p-6
20363=0x1.6fc7317f5450ep-6
20385=-0x1.39666ee1d99eap-10
20389=0x1.d16be4a50e11p-10
20411=-0x1.363b105b26b52p-10
20415=0x1.357ae6787f4dcp-10
20437=-0x1.a03d98cb2ab87p-13
20441=0x1.b6b87b5b75e2p-16
20467=0x1.3b867c1b8a66p-15
20489=-0x1.9ce2713f1d224p-11
20493=0x1.9e0fb2da8e3dep-11
20514=-0x1.7af33d1e5458bp-7
20515=0x1.55c9e012fc698p-6
20541=-0x1.46f123480e81cp-8
20551=0x1.24d92942af4c9p-18
20567=0x1.0a54c210197fbp-4
20577=-0x1.6619fd08a5048p-5
20593=0x1.da9171b2f3d64p-6
20603=-0x1.9a369d71d42b6p-6
20619=0x1.e1caba8d211dap-12
20623=-0x1.9aa0a844c02afp-11
20645=0x1.e5aa652860e21p-13
20649=-0x1.12fa2a3c8d7b9p-12
20671=0x1.8775604f26fa6p-16
20697=0x1.4c612344338ep-8
20701=-0x1.0cb49876823a1p-8
20723=0x1.1200f4d6e1c3dp-13
20727=-0x1.eeef8511f7f37p-14
20749=0x1.096a2f9f62ddcp-8
20753=-0x1.f92a9716f8663p-9
20775=0x1.6575215c94599p-13
20779=-0x1.652185ab21784p-13
20801=0x1.670dea89f095p-13
20805=-0x1.6612f2063c8f8p-13
20827=0x1.ff2118d89aaf9p-9
20831=-0x1.c03b665a884c8p-9
20852=0x1.4ddad7cf7dd0cp-7
20878=0x1.aa958dd656d32p-3
20879=-0x1.a92f6e60771e3p-3
20905=0x1.6b4d1293c60cp-15
20941=0x1.2b1c3bd5446dbp-6
20967=0x1.f02c7b44d853cp-5
20992=-0x1.eee09d2ad43a3p-7
21019=0x1.5ae51eb59d9ap-4
21039=0x1.ea93cd6d1d437p-3
21065=0x1.e94661bd79e24p-5
21071=-0x1.bb7ac2ffb493bp-5
21086=-0x1.9967d3b17dddep-15
21087=0x1.a06c0286a133p-10
21089=-0x1.b57461fecd9dp-15
21114=-0x1.3f7720f63f1c1p-7
21140=-0x1.4a716bbbc9af6p-7
21165=-0x1.fa8ae912f5594p-13
21166=0x1.45ae2449ca324p-8
21191=-0x1.f3ccd74009104p-13
21192=0x1.2f9fb21829fd6p-8
21221=0x1.52c65bd9c326ep-6
21247=0x1.64460bedab4bcp-8
21273=0x1.658bf0d4c45c3p-8
21299=0x1.658bf0d4c45c3p-8
21320=0x1.fba282f2c1f2fp-10
21321=-0x1.e06ea10076acap-10
21346=0x1.669b1326ef05cp-6
21347=-0x1.0969c49ab32bcp-7
21373=0x1.cf5eef151cd8ap-8
21403=0x1.823ac6ca5fd47p-18
21425=-0x1.d1873662cede5p-20
21429=0x1.9ead1d142c8ffp-18
21451=-0x1.6b2dbb35c7ffdp-19
21455=0x1.b19ce99dccfdbp-18
21477=0x1.bc7b690e2924ep-8
21503=-0x1.8454232f2d3cdp-18
21507=0x1.39de24a50a9fp-17
21528=0x1.01aefa1420a6bp-3
21529=-0x1.01843f60175a1p-3
21555=0x1.0c8f50cc6673fp-14
21581=0x1.f0752080e468fp-15
21607=0x1.ee2b8c7603fc6p-15
21633=0x1.77ac6b212de0fp-15
21659=0x1.86ab9ba75957ep-15
21689=0x1.fad19128985a2p-16
21710=0x1.92eb5122d69cp-8
21711=-0x1.92112b284fcb1p-8
21736=0x1.92993844d9181p-8
21737=-0x1.9193495265cc2p-8
21762=0x1.92993228d753p-8
21763=-0x1.916fd4c1f036p-8
21788=0x1.99661b40abf74p-8
21789=-0x1.98b558b0d8098p-8
21814=0x1.92eb5122d69cp-8
21815=-0x1.92112b284fcb1p-8
21840=0x1.92993844d9181p-8
21841=-0x1.9193495265cc2p-8
21866=0x1.cb0ac92dacda9p-9
21867=-0x1.c7b837aa755c7p-9
21892=0x1.d8a49d3f8a2c4p-9
21893=-0x1.d7be46638774cp-9
21918=0x1.0fd99dfe9514p-13
21919=-0x1.fb78e159c3f1p-14
21944=0x1.df3fda616f6ap-13
21945=-0x1.d24ecd668e798p-13
21970=0x1.df3fda616f6ap-13
21971=-0x1.d24ecd668e798p-13
21996=0x1.df3fda616f6ap-13
21997=-0x1.d24ecd668e798p-13
22022=0x1.df3fda616f6ap-13
22023=-0x1.d24ecd668e798p-13
22048=0x1.0595b7c4d219p-13
22049=-0x1.c2c74a9d35aep-14
22074=-0x1.0ed435cb2b6eap-7
22075=0x1.8db71818876bap-7
22101=0x1.dc4a49d5be177p-14
22127=0x1.4d2151389d9c8p-16
22153=0x1.5d14bbdbb5426p-13
22180=0x1.708825f77037ep-7
22206=0x1.6b171e855448fp-7
22232=0x1.709c8906a31f6p-7
22257=0x1.fefa5314d3591p-11
22261=-0x1.4c196a9982c33p-12
22283=0x1.e135a257b057fp-15
22287=-0x1.01a946ed5075p-14
22309=0x1.4615e6e018037p-8
22335=0x1.f19633cf04b13p-4
22339=-0x1.20fd1c3e4c31ep-11
22361=0x1.3b363f1e6ab86p-4
22365=-0x1.1bc84f9eeb0c2p-11
22387=-0x1.100a6c10cb98ap-9
22391=0x1.463ec9e6f1ce1p-5
22413=0x1.e08f1b35e13e4p-8
22417=-0x1.886595ca89686p-7
22439=0x1.c796235efbddp-8
22443=-0x1.b1a8695e22211p-7
22465=0x1.e08f1b35e13e4p-8
22469=-0x1.886595ca89686p-7
22491=0x1.e08f1b35e13e4p-8
22495=-0x1.886595ca89686p-7
22517=-0x1.0f5549733d1ddp-12
22521=0x1.6ccda20b51dcep-6
22543=0x1.517e84d404988p-4
22578=0x1.ddf15ea3bc944p-6
22604=0x1.ddf3fae6940a5p-6
22622=-0x1.0f20883efb33p-11
22630=0x1.b795cff4b698p-12
22656=0x1.ddf3ab3da728ap-6
22681=0x1.9917644d4c7f1p-4
22682=0x1.396579c280378p-5
22698=0x1.22fb3969a48d6p-8
22700=-0x1.e7ab82026185cp-9
22725=0x1.988fbd0be4ac9p-2
22751=-0x1.dc3a14bbb5f3fp-10
22755=0x1.491997f2175a8p-6
22777=-0x1.49690b4559c8p-15
22781=0x1.0646cc9f3df0dp-7
22803=-0x1.eab76926d7e8bp-14
22807=0x1.3951e93e0fbaep-9
22829=-0x1.eab76926d7e8bp-14
22833=0x1.3951e93e0fbaep-9
22859=0x1.fad2657cb6079p-16
22881=0x1.f659840e090c2p-5
22885=-0x1.4171a7a7e5ce7p-5
22907=0x1.063125dcc60e1p-5
22911=-0x1.23372f0f486d8p-12
22933=0x1.00c50d6de0536p-6
22937=-0x1.4e8e02576581ap-9
22963=-0x1.a570201887e24p-11
22985=0x1.80bb400576fd8p-6
22989=-0x1.16385a5b31f1fp-6
23011=0x1.80bb400576fd8p-6
23015=-0x1.16385a5b31f1fp-6
23037=0x1.80bb400576fd8p-6
23041=-0x1.16385a5b31f1fp-6
23063=0x1.80bb400576fd8p-6
23067=-0x1.16385a5b31f1fp-6
23088=-0x1.4eed44a1a7dc4p-6
23089=0x1.37ce2699b9d8cp-3
23115=0x1.8e86d656dd2fp-5
23141=0x1.113b3cf343d9fp-10
23145=-0x1.15bce27afe536p-11
23167=0x1.09c60702a9d6ep-10
23171=-0x1.1275a1833ca26p-11
23193=0x1.ff694759b0b0dp-11
23197=-0x1.251ebb8153305p-11
23219=0x1.c1d2163db11ecp-5
23223=-0x1.2cfffe02e942fp-11
23245=0x1.ddd43ddefddccp-11
23249=-0x1.08eee41e92db9p-11
23271=0x1.e0c8eac53c60ap-8
23275=-0x1.85669fa6f074bp-7
23297=0x1.fb61a2e6f8532p-6
23301=-0x1.12cb8793947fp-11
23323=0x1.d091127275778p-11
23327=-0x1.feba7609aaeeep-12
23353=0x1.35baf6e29ce62p-16
23379=-0x1.e744747d01e0cp-7
23384=0x1.8404d68960cfp-7
23405=-0x1.9527a5064bdeep-5
23410=0x1.89cc3320c5ap-7
23436=0x1.2818ccdb1b7b6p-12
23462=0x1.2818ccdb1b7b6p-12
23488=0x1.2818ccdb1b7b6p-12
23514=0x1.2818ccdb1b7b6p-12
23535=-0x1.7d4b415754286p-11
23540=0x1.5a244a5cfaf06p-9
23557=-0x1.40f9e932ffa81p-5
23561=0x1.41370230804d6p-5
23583=-0x1.40a5ae1af69ffp-6
23587=0x1.391f466d487eap-5
23609=-0x1.149b53bfb58bcp-14
23635=-0x1.ea431be4b0c2fp-14
23639=0x1.bb2bcdb3f9296p-9
23661=-0x1.d10a92d030585p-7
23665=0x1.ebb32d22c6343p-6
23691=0x1.b458153901078p-9
23713=-0x1.340a19af1122fp-7
23717=0x1.1af3643ff2c93p-5
23743=0x1.d2b6c65c54ba7p-9
23765=-0x1.9d54eda2ac6p-14
23795=0x1.65942226d34dap-8
23817=-0x1.8842ac740d227p-15
23847=0x1.6aec10e471f4cp-13
23869=-0x1.107682e6dcaafp-14
23870=-0x1.56a6349da17b8p-15
23873=0x1.52bc99fc8243ap-13
23895=-0x1.e6c8cf92aedf1p-15
23896=-0x1.bcedaff864afp-10
23899=0x1.1d1cdca86cc81p-4
23921=-0x1.d21633cecde44p-16
23922=-0x1.2ba1d6bffa215p-16
23925=0x1.b98c79acfc92ep-14
23947=-0x1.6402141a79cffp-16
23948=-0x1.5b39c44f8aba3p-15
23951=0x1.f0a07b0f8c0e2p-14
23974=-0x1.5bd157740699ep-15
23977=0x1.2b2c4c0e39059p-6
24003=0x1.854f43df5d368p-17
24026=-0x1.5a5010197988ep-15
24029=0x1.61780e5ad30cbp-14
24052=-0x1.f0f02d07e87bap-19
24055=0x1.5a5859e44370bp-16
24078=-0x1.c932c4b09547p-16
24081=0x1.18961712c2d5p-14
24107=0x1.0c81428aaca8bp-17
