#mdl#-2089690832#275
#rdr#46/25/0
10:u:%x[-3,0],
10:u:%x[-2,0],
10:u:%x[-1,0],
9:u:%x[0,0],
9:u:%x[1,0],
9:u:%x[2,0],
9:u:%x[3,0],
18:u:%x[-1,0]/%x[0,0],
17:u:%x[0,0]/%x[1,0],
9:u:%x[0,1],
10:u:%x[-1,1],
9:u:%x[0,2],
9:u:%x[0,3],
9:u:%x[0,4],
9:u:%x[0,5],
9:u:%x[0,6],
9:u:%x[0,7],
9:u:%x[0,8],
9:u:%x[0,9],
11:u:%x[-2,10],
11:u:%x[-1,10],
10:u:%x[0,10],
10:u:%x[1,10],
10:u:%x[2,10],
10:u:%x[0,11],
11:u:%x[-1,12],
10:u:%x[0,12],
10:u:%x[1,12],
20:u:%x[-1,12]/%x[0,12],
19:u:%x[0,12]/%x[1,12],
10:u:%x[0,13],
10:u:%x[0,14],
10:u:%x[0,15],
10:u:%x[0,16],
10:u:%x[0,17],
10:u:%x[0,18],
10:u:%x[0,19],
10:u:%x[0,20],
10:u:%x[0,21],
10:u:%x[0,22],
10:u:%x[0,23],
29:u:%x[-1,23]/%x[0,24]/%x[0,21],
29:u:%x[-1,23]/%x[0,24]/%x[1,11],
10:u:%x[0,25],
19:u:%x[0,25]/%x[1,12],
1:b,
#qrk#10
6:author,
9:booktitle,
5:title,
6:volume,
9:publisher,
8:location,
4:date,
6:editor,
7:journal,
5:pages,
#qrk#135
6:u:_x-2,
6:u:_x-1,
5:u:Der,
6:u:Text,
3:u:.,
5:u:all,
6:u:none,
11:u:none/none,
3:u:0,
9:u:no-male,
11:u:no-female,
12:u:no-surname,
10:u:no-month,
10:u:no-place,
14:u:no-publisher,
12:u:no-journal,
12:u:no-editors,
1:b,
5:u:des,
7:u:lower,
3:u:r,
9:u:initial,
3:u:1,
8:u:others,
27:u:terminal/other/no-editors,
24:u:terminal/other/initial,
9:u:surname,
11:u:publisher,
25:u:others/other/no-editors,
22:u:others/other/initial,
3:u:t,
3:u:2,
20:u:others/other/other,
4:u:de,
7:u:other,
3:u:3,
4:u:31,
3:u:E,
3:u:&,
13:u:vandenhoeck,
13:u:none/double,
3:u:5,
9:u:numeric,
5:u:Van,
6:u:_x+1,
3:u:8,
6:u:_x+2,
11:u:none/year,
4:u:16,
7:u:place,
3:u:9,
11:u:year/_x+1,
6:u:*The,
5:u:the,
4:u:in,
3:u:e,
3:u:I,
5:u:2.4,
4:u:Es,
11:u:cambridge,
14:u:none/numeric,
14:u:numeric/none,
7:u:Press,
6:u:1935,
3:u::,
7:u:press,
5:u:112,
4:u:R.,
4:u:II,
14:u:(Septuaginta,
7:u:Vetus,
9:u:Graecum,
13:u:testamentum,
5:u:8.2,
21:u:Testamentum/Graecum,
3:u:m,
5:u:und,
5:u:MSU,
4:u:25,
6:u:Esra,
6:u:2003,
4:u:20,
4:u:du,
4:u:la,
11:u:Septante:,
4:u:et,
14:u:introduction,
8:u:titles,
8:u:*Bible,
16:u:d’Alexandrie,
7:u:bible,
6:u:11.2,
13:u:dalexandrie,
6:u:Cerf,
23:u:*Bible/d’Alexandrie,
4:u:*B,
5:u:*Bi,
6:u:*Bib,
4:u:le,
5:u:ble,
6:u:ible,
6:u:samt,
4:u:3.,
5:u:HAT,
6:u:Mohr,
4:u:to,
4:u:B.,
4:u:47,
11:u:B./Taylor,
6:u:1999,
4:u:18,
16:u:Scholars/Press,
6:u:with,
7:u:Study,
4:u:of,
7:u:study,
10:u:Parallel,
12:u:Redactions,
10:u:parallel,
9:u:Yahwism,
12:u:redactions,
7:u:after,
21:u:Parallel/Redactions,
8:u:Exile:,
5:u:for,
10:u:Utrecht,,
7:u:6–9,
6:u:2000,
5:u:and,
12:u:Van/Gorcum,
16:u:199–218/_x+1,
8:u:199–,
5:u:218,
8:u:–218,
11:u:page/_x+1,
0=0x1.faba6aa0ff0c9p-1
1=-0x1.e1dc333d5cb69p-5
10=0x1.1279a0e9d82ebp+1
17=-0x1.b22d510eee29cp-8
21=0x1.f138fa4859b9bp-6
31=0x1.ca38a7c1da3p-14
40=0x1.f2a8ddca5bbcfp-2
41=-0x1.28a8b3bec05cdp-4
47=0x1.c0b050003b84ap-1
48=-0x1.209b4991cb3a4p-12
52=0x1.8ad3fb8901c28p-1
61=0x1.f0aac1eed242ep-6
62=0x1.6cb3414a85341p-3
63=0x1.4d2185cf1d023p-7
64=0x1.8e1eef0964b93p-4
66=0x1.47689db69d3eep-5
67=-0x1.e34b83dbac29dp-7
68=-0x1.3462ec3df68bfp-4
69=-0x1.a3c363d0c597ep-2
70=0x1.57ef429a7f18ep-4
71=0x1.2f1884c8ab799p-2
72=0x1.3923fee643fb3p-5
73=-0x1.7ba5a9d5b3d72p-3
74=0x1.1c5756987c847p-2
75=-0x1.f5e86591738dcp-8
76=-0x1.0091eb4cb5b2ap+0
77=0x1.0570568496968p-4
78=-0x1.24cb97ae36993p-5
81=-0x1.702bd4e968fe3p-7
82=-0x1.8c6e00c63c1dcp-9
83=0x1.04f82a7c7f8aap-2
85=-0x1.29496aa3875bdp-2
86=0x1.1da0d683e724ap-3
88=-0x1.dda138fc5824fp-9
91=-0x1.ef2f285532b64p-9
92=0x1.6c45336018206p-7
97=-0x1.781099a525a18p-11
98=-0x1.6f9a10a871273p-8
101=0x1.aa3ff667c51eap-11
108=-0x1.8ba2cf1906699p-8
111=0x1.59bcaaf3aee86p-8
118=-0x1.48bc12527a58fp-8
128=-0x1.ebe715dfea9b2p-8
131=-0x1.600c5a39c5ffbp-5
132=0x1.0ea5f454e53bep-5
134=0x1.b027237b3fc73p-4
135=-0x1.982f3a5c02504p+0
137=-0x1.0f70fad1afd5cp-11
138=-0x1.114b22d5a8146p-6
144=-0x1.53590cdc8c294p-2
147=-0x1.45c28ba0fd869p-7
148=-0x1.8c648c97a2b55p-9
151=-0x1.07153302df94cp-5
152=0x1.46e52be0de3c6p-8
158=-0x1.7cd9441e47d2bp-8
161=0x1.c6ce8007a98ccp-11
162=0x1.6ce41771b8b08p-11
168=-0x1.790cee8a5fc9dp-8
170=0x1.a00c58670b4fap-3
171=0x1.acd92bb4793afp-5
181=0x1.91c5060218b3ap+1
184=-0x1.4b394ea957654p-1
188=-0x1.9df44c0d0ea01p-3
191=-0x1.7177586269a1ep-1
192=0x1.1b0bb9b7ce435p+0
193=0x1.06ca88ac8d3cap+1
194=-0x1.57e9d2095106ep-2
204=0x1.15cbb9ab8596p-3
205=0x1.665f472175a5ep+0
212=-0x1.f7bfdc8c8c5f1p-3
214=0x1.a6851e6c1f612p-2
215=0x1.8f89a6f94032p-2
216=0x1.38adb83023711p-2
224=0x1.562b6ebfd7ff1p-1
226=0x1.9be9b30c45bc6p-1
236=-0x1.00ebe5b6b6bf4p-3
239=0x1.5d9b02c340e8p+0
242=0x1.1791bc3dc98ccp-4
247=0x1.5710177c4f344p+0
252=-0x1.9f7eef3b0aeccp-2
258=0x1.ed11eb2f05c48p+1
271=0x1.e9df474651124p-2
280=-0x1.c742848e88588p-4
281=0x1.c85df0097a0f3p-3
282=0x1.1fd5a01f6f676p-2
283=-0x1.842eeda7e8b03p-3
284=0x1.388926cce6328p-13
285=0x1.0cff604b5d895p-4
287=-0x1.5c1ecb54a1c45p-4
288=-0x1.e12f0a1f1dff5p-7
289=-0x1.ab9b285f5ffb6p-4
290=0x1.d9cb7aa233b6bp-5
292=-0x1.20eea606a075fp-4
297=0x1.5b8b483fccfeap-2
301=0x1.883024603efcap-10
303=-0x1.96aa0334eddc9p-2
304=0x1.75c6b4849e69ap-3
305=0x1.0d8820782d8ccp-5
308=-0x1.e3d0d22bbf035p-10
311=0x1.a296ccc1be328p-12
314=-0x1.55a590fc88f8p-4
321=-0x1.2da111e19092dp-4
322=0x1.3303572aab614p-8
327=-0x1.7dc5a9401a0bp-12
328=-0x1.0cf80a48be874p-8
330=0x1.e075ece9f9bc2p-2
331=-0x1.78b537bc34bbep-7
337=0x1.bc092d23d9495p-1
340=0x1.1c8369a880318p-2
341=-0x1.15f2fdd395dd8p-3
351=-0x1.c46f1763abcc7p-5
354=0x1.7576173997925p-2
364=0x1.5e523815e90fap+0
370=-0x1.705b8d52e1ce4p-1
371=0x1.7c2dbe666a7f5p-8
372=0x1.150580d029b3fp-7
375=0x1.40ee5cc3246dep-7
377=-0x1.97e5cb99db76dp-3
378=-0x1.6c98aa1ea636p-8
381=0x1.3d6ff2df42ba2p-9
383=0x1.780364ecb7de9p-3
388=-0x1.0334e1706928cp-6
391=0x1.06be3def17f6bp-8
392=-0x1.00c5b143eebd4p-14
403=0x1.b7954f3fbf7cep-11
406=0x1.5f489d917dfd5p-4
412=0x1.11dcc7ac2faa9p-3
421=0x1.774175fece606p-7
432=-0x1.2ec1950d20d24p-12
433=0x1.bbac070ddf5bap-2
434=-0x1.f5b3896ec0941p-3
436=0x1.6b8b75f220c88p-3
446=0x1.f16f8cd2b1fa5p-5
451=-0x1.da4e491108c4p-7
453=0x1.377beb25bfca9p-2
461=0x1.70c94396feeb4p-1
474=0x1.501631aadc1fap-1
484=0x1.c7fbf9d967f07p-9
491=-0x1.49de3cd85470cp-4
492=0x1.00aba7206e48p+0
502=-0x1.84fd5d7d966f1p-8
503=0x1.4e0fea2c77576p-3
511=-0x1.ad1e93eb66fbp-6
512=-0x1.7dcfa96527801p-2
513=0x1.705d4e64f8b3p-1
515=0x1.a057d3797b93bp-2
519=0x1.0546fc71edbe3p-1
524=0x1.61405eacb0f2cp+0
531=-0x1.7e266fe82520dp-2
532=-0x1.c031e37b9a098p-2
533=-0x1.63da64d786b75p-2
534=0x1.33f7f65ef68f5p-4
535=0x1.d4677610cb507p-4
536=0x1.8e06cbd0ad8c5p-1
538=-0x1.7fc504b13c5ap-3
539=0x1.37af152d22c34p-2
541=-0x1.630690dbc8037p-2
554=-0x1.0c72c0960d783p-4
556=0x1.c3f75e2fa0f65p-2
559=0x1.2e0452705c74dp-3
562=-0x1.eab9873dcf754p-7
564=0x1.afa4baaf85c0cp-4
565=0x1.bd033a850ac83p-2
575=0x1.2401283c9ff43p-1
584=-0x1.380bbca1e0192p-5
585=0x1.1db544382f85ep+1
595=0x1.437b99888b866p-5
596=0x1.f06c606f3accep-3
606=0x1.d428d93741e84p-2
611=0x1.c69297589879dp-1
621=-0x1.f618c95997369p-5
622=0x1.21f8e9fd00b5fp-4
628=0x1.a2a1c71f9cccdp-1
632=0x1.632ba15762e39p-2
637=0x1.4e875ba8bfd0bp-3
642=0x1.b0a53d9f123a6p-3
651=0x1.25f5d68630be4p-3
661=-0x1.f19173e738441p-6
663=0x1.ed5c55e038c2bp-2
671=0x1.38f5ea4b59e7ap-3
681=-0x1.91ab35cbbac9dp-9
684=0x1.f5e8081144c3ap-4
691=0x1.13f05276e9df5p-7
693=0x1.6e52107aedafbp-10
703=0x1.5e66910fb8e6bp-4
714=0x1.a5b59878de2aep-4
724=0x1.5ca06bc3b98fbp-2
726=0x1.31c484b8936bdp-4
734=0x1.79f2c76abc957p-3
744=0x1.20bd6a401d07p-1
751=-0x1.3dd0f685a295cp-3
752=0x1.8b1be32102372p-5
767=0x1.e7774f7206b6ep-2
768=-0x1.1d6747c802d04p-8
771=0x1.3b4334ca723bap-7
781=0x1.15e753cb1d02p-3
791=0x1.bf9aaf83b9404p-12
801=0x1.b187035cbc46fp-8
811=0x1.26406b5803d2ep-7
823=0x1.e4dd51a588b14p-2
831=0x1.9ea7fe353c35bp-9
842=-0x1.258fa0fb6df0ep-7
851=0x1.e8fd8e747157ep-7
861=-0x1.3c323e35700b7p-7
862=0x1.063577b39087ap-7
873=0x1.23201f8b34df5p-2
881=0x1.a7c8373b27fcp-4
896=0x1.371bed6c88c85p-3
899=0x1.65548808febefp-3
906=0x1.7d41437fd5781p-4
911=0x1.40ef6d592f3dp-6
921=0x1.11bb4f92b012ep-9
931=0x1.4b5e2144bdde8p-6
941=0x1.a0e82fb74a9e2p-4
942=0x1.009a53ed96d16p-5
951=0x1.55dd53081af6ep-10
961=-0x1.649c43f9724d5p-5
962=0x1.769384a14a216p-2
972=0x1.5254601872fp-9
982=0x1.66ee570a8f13p-10
992=0x1.612be56a1b34ap-5
1001=-0x1.47ee0c37a5fbdp-5
1003=0x1.12f476d8d75adp-3
1012=0x1.7e32a01c3599bp-5
1021=-0x1.cb3c7d52b8c4p-3
1022=0x1.e44ec2ed221cp-6
1024=0x1.9fe16312e4afep-1
1031=-0x1.aefec894c8c44p-5
1032=0x1.c3b47552ac48bp-2
1042=0x1.da7b19b39cacdp-6
1052=0x1.da7b19b39cacdp-6
1062=0x1.da7b19b39cacdp-6
1072=0x1.da7b19b39cacdp-6
1082=0x1.da7b19b39cacdp-6
1092=0x1.da7b19b39cacdp-6
1101=0x1.c5cc3e14d4295p-3
1111=0x1.3f61af1cc89d5p-6
1121=-0x1.46ccdef3c639fp-3
1122=0x1.159b37dc2ac04p-1
1134=0x1.aa92d44de758ep-4
1141=0x1.412c0043b2b3bp-3
1157=0x1.84bcbee218a8p-1
1162=-0x1.53bbe07f6e2c5p-5
1163=0x1.f7d5ea01efddfp-4
1167=0x1.2aa95aadd0d8cp-4
1177=0x1.44e8ac06beaa4p-4
1184=0x1.3e8f1b5121734p-3
1199=0x1.6ff18da77da2ap-3
1204=0x1.93d20389a8b41p-5
1212=0x1.d084cb0dbca76p-1
1222=0x1.282f1782658b5p+0
1228=-0x1.8d556924364e1p-4
1232=0x1.023e8c7b3933ep-1
1238=-0x1.65142ba6f089bp-5
1242=0x1.205e604bb8ee8p-4
1252=0x1.2fcadd29843b3p-3
1262=0x1.1ba3e41aff489p-7
1272=0x1.aa349d2283b29p-5
1282=0x1.fb85b173c0e39p-11
1292=0x1.d4e05191b82d4p-10
1302=0x1.be47787d1238cp-6
1312=0x1.8d0b501e37a31p-5
1328=0x1.9dd274650619bp-3
1338=0x1.40c1cefcfe7fcp-3
1348=0x1.b5a99355f2072p-6
1358=0x1.0d54ffbdf13f6p-4
1367=0x1.0b6963953b013p-7
1368=0x1.e2d933f391b9ep-2
1372=0x1.12b2e1bdaaf8cp-1
1384=0x1.521cda8356211p-4
1399=0x1.7b819a9138a4p-3
1409=0x1.7b819a9138a4p-3
1419=0x1.7b819a9138a4p-3
1429=0x1.7b819a9138a4p-3
1439=0x1.7b819a9138a4p-3
