#mdl#-1219466640#2794
#rdr#46/25/0
10:u:%x[-3,0],
10:u:%x[-2,0],
10:u:%x[-1,0],
9:u:%x[0,0],
9:u:%x[1,0],
9:u:%x[2,0],
9:u:%x[3,0],
18:u:%x[-1,0]/%x[0,0],
17:u:%x[0,0]/%x[1,0],
9:u:%x[0,1],
10:u:%x[-1,1],
9:u:%x[0,2],
9:u:%x[0,3],
9:u:%x[0,4],
9:u:%x[0,5],
9:u:%x[0,6],
9:u:%x[0,7],
9:u:%x[0,8],
9:u:%x[0,9],
11:u:%x[-2,10],
11:u:%x[-1,10],
10:u:%x[0,10],
10:u:%x[1,10],
10:u:%x[2,10],
10:u:%x[0,11],
11:u:%x[-1,12],
10:u:%x[0,12],
10:u:%x[1,12],
20:u:%x[-1,12]/%x[0,12],
19:u:%x[0,12]/%x[1,12],
10:u:%x[0,13],
10:u:%x[0,14],
10:u:%x[0,15],
10:u:%x[0,16],
10:u:%x[0,17],
10:u:%x[0,18],
10:u:%x[0,19],
10:u:%x[0,20],
10:u:%x[0,21],
10:u:%x[0,22],
10:u:%x[0,23],
29:u:%x[-1,23]/%x[0,24]/%x[0,21],
29:u:%x[-1,23]/%x[0,24]/%x[1,11],
10:u:%x[0,25],
19:u:%x[0,25]/%x[1,12],
1:b,
#qrk#12
6:author,
9:booktitle,
5:title,
6:volume,
9:publisher,
8:location,
4:date,
6:editor,
7:journal,
5:pages,
3:url,
7:unknown,
#qrk#1408
6:u:_x-2,
6:u:_x-1,
6:u:J.A.,
5:u:Der,
6:u:Text,
3:u:.,
3:u:J,
4:u:J.,
4:u:A.,
5:u:der,
5:u:all,
6:u:none,
11:u:none/none,
3:u:0,
9:u:no-male,
11:u:no-female,
12:u:no-surname,
10:u:no-month,
10:u:no-place,
14:u:no-publisher,
12:u:no-journal,
12:u:no-editors,
10:u:terminal,
20:u:_x-1/other/initial,
1:b,
5:u:des,
7:u:lower,
3:u:B,
4:u:Be,
3:u:r,
4:u:er,
6:u:text,
9:u:initial,
3:u:1,
8:u:others,
27:u:terminal/other/no-editors,
24:u:terminal/other/initial,
3:u:D,
5:u:101,
6:u:male,
9:u:surname,
11:u:publisher,
9:u:journal,
25:u:others/other/no-editors,
22:u:others/other/initial,
3:u:T,
4:u:Te,
3:u:t,
3:u:2,
20:u:others/other/other,
3:u:d,
4:u:de,
3:u:s,
4:u:es,
7:u:other,
3:u:3,
4:u:31,
3:u:4,
3:u:E,
3:u:&,
7:u:upper,
3:u:F,
13:u:vandenhoeck,
8:u:double,
13:u:none/double,
3:u:5,
9:u:numeric,
3:u:6,
12:u:Göttingen,
5:u:Van,
3:u:k,
4:u:32,
12:u:göttingen,
3:u:7,
6:u:_x+1,
3:u:R,
4:u:Ru,
4:u:ht,
4:u:37,
3:u:8,
6:u:_x+2,
3:u:G,
3:u:n,
4:u:en,
6:u:ngen,
6:u:year,
11:u:none/year,
4:u:16,
7:u:place,
3:u:9,
6:u:_x+3,
4:u:19,
4:u:22,
11:u:year/_x+1,
19:u:others/other/_x+1,
11:u:none/_x+1,
6:u:*The,
5:u:Old,
3:u:y,
5:u:the,
4:u:in,
3:u:e,
4:u:he,
5:u:The,
4:u:96,
3:u:O,
4:u:ld,
3:u:I,
5:u:Tes,
3:u:i,
4:u:84,
3:u:;,
10:u:internal,
21:u:others/other/single,
5:u:2.4,
8:u:single,
27:u:internal/other/no-editors,
24:u:internal/other/initial,
11:u:Cambridge,
3:u:,,
4:u:Es,
4:u:s,,
4:u:24,
3:u:h,
14:u:none/numeric,
8:u:hyphen,
22:u:internal/other/other,
12:u:University,
4:u:2.,
14:u:numeric/none,
25:u:hyphen/other/no-editors,
22:u:hyphen/other/initial,
3:u:C,
4:u:ge,
12:u:university,
3:u::,
7:u:press,
4:u:ty,
5:u:ity,
5:u:112,
3:u:P,
4:u:Pr,
4:u:ss,
4:u:36,
4:u:R.,
7:u:liber,
4:u:II,
3:u:H,
4:u:Ha,
5:u:Han,
4:u:rt,
14:u:(Septuaginta,
4:u:ii,
7:u:Vetus,
3:u:l,
13:u:septuaginta,
13:u:Testamentum,
7:u:vetus,
9:u:Graecum,
3:u:(,
3:u:a,
13:u:testamentum,
5:u:8.2,
9:u:graecum,
3:u:m,
4:u:um,
4:u:82,
6:u:1993,
4:u:93,
5:u:und,
3:u:u,
4:u:un,
4:u:nd,
5:u:MSU,
4:u:25,
5:u:Esr,
6:u:Esra,
20:u:terminal/other/all,
3:u:M,
6:u:2003,
4:u:20,
5:u:200,
4:u:T.,
5:u:Jan,
3:u:z,
4:u:nz,
12:u:Traduction,
9:u:desdras,
4:u:du,
3:u:L,
4:u:Li,
4:u:re,
7:u:texte,
6:u:grec,
4:u:on,
5:u:ion,
6:u:tion,
4:u:la,
11:u:Septante:,
3:u:g,
3:u:c,
14:u:Introduction,
8:u:female,
4:u:et,
14:u:introduction,
8:u:titles,
3:u:S,
8:u:*Bible,
4:u:In,
5:u:Int,
4:u:64,
6:u:11.2,
13:u:dalexandrie,
6:u:Cerf,
23:u:*Bible/d’Alexandrie,
7:u:Paris,
4:u:ie,
6:u:2010,
11:u:11.2/Cerf,
4:u:11,
7:u:paris,
4:u:Ce,
5:u:Cer,
3:u:f,
4:u:rf,
5:u:erf,
4:u:10,
4:u:W.,
3:u:W,
3:u:w,
6:u:esra,
9:u:Nehemia,
6:u:samt,
5:u:sra,
9:u:nehemia,
4:u:3.,
3:u:N,
4:u:ia,
5:u:HAT,
6:u:1.20,
9:u:3./Esra,
6:u:Mohr,
10:u:HAT/1.20,
4:u:HA,
4:u:AT,
11:u:tübingen,
4:u:Z.,
12:u:Z./Talshir,
3:u:Z,
6:u:From,
4:u:Ta,
4:u:ir,
8:u:Origin,
6:u:from,
4:u:to,
8:u:origin,
4:u:Fr,
4:u:B.,
13:u:translation,
3:u:o,
4:u:47,
4:u:or,
6:u:1999,
3:u:A,
4:u:18,
4:u:Sc,
4:u:rs,
6:u:with,
4:u:th,
4:u:Di,
4:u:Co,
5:u:Con,
4:u:of,
7:u:study,
4:u:St,
5:u:Stu,
7:u:after,
4:u:Re,
4:u:ns,
8:u:Exile:,
15:u:Yahwism/after,
3:u:Y,
14:u:Perspectives,
7:u:exile,
11:u:Israelite,
10:u:Religion,
11:u:israelite,
4:u:Is,
9:u:Persian,
6:u:Era:,
9:u:persian,
8:u:Papers,
4:u:an,
8:u:papers,
4:u:at,
4:u:a:,
5:u:ers,
10:u:European,
4:u:Me,
5:u:Mee,
6:u:Meet,
4:u:ng,
5:u:ing,
13:u:Association,
10:u:european,
5:u:for,
10:u:Studies,,
10:u:Utrecht,,
9:u:studies,
7:u:6–9,
4:u:al,
8:u:August,
4:u:69,
6:u:2000,
8:u:august,
6:u:page,
11:u:none/page,
11:u:page/none,
4:u:29,
9:u:Becking,
9:u:alberzb,
11:u:year/none,
9:u:Studies,
9:u:becking,
18:u:AlberzB./Becking,
10:u:Theology,
5:u:and,
5:u:ies,
10:u:theology,
4:u:Th,
6:u:Theo,
4:u:gy,
5:u:ogy,
6:u:logy,
9:u:Utrecht,
14:u:and/Religion,
13:u:none/single,
5:u:van,
13:u:single/none,
11:u:199–218,
12:u:Van/Gorcum,
4:u:Go,
11:u:page/_x+1,
7:u:China,
7:u:World,
4:u:Ch,
5:u:Chi,
6:u:Chin,
4:u:na,
5:u:ina,
6:u:hina,
7:u:china,
18:u:_x-1/other/other,
7:u:world,
4:u:Wo,
5:u:Wor,
6:u:Worl,
5:u:rld,
6:u:orld,
22:u:terminal/other/other,
13:u:Engagement.,
9:u:Abbott,,
11:u:Frederick,
8:u:abbott,
8:u:MChina,
4:u:En,
11:u:frederick,
6:u:1998,
4:u:Ab,
5:u:Abb,
8:u:mchina,
18:u:Frederick/MChina,
6:u:Fred,
7:u:Hague,
7:u:et.al,
7:u:hague,
6:u:etal,
13:u:Hague/et.al,
4:u:ue,
7:u:Cass,,
9:u:Deborah,
11:u:Williams,,
6:u:cass,
9:u:deborah,
7:u:Brett,
10:u:williams,
9:u:Barker,,
8:u:George,
4:u:Wi,
8:u:barker,
8:u:george,
4:u:r,,
5:u:er,,
4:u:Ge,
5:u:New,
5:u:new,
6:u:2005,
4:u:ew,
16:u:Cambridge/_x+1,
8:u:Joseph,
6:u:C.H.,
8:u:China:,
4:u:ch,
4:u:Jo,
4:u:C.,
8:u:Market,
10:u:Economy.,
8:u:market,
6:u:1997,
9:u:economy,
8:u:oxford,
6:u:John,
4:u:K.,
7:u:Trade,
7:u:trade,
11:u:Diplomacy,
3:u:K,
8:u:Coast:,
9:u:Opening,
11:u:1842-1854,
7:u:ports,
6:u:1953,
4:u:Po,
12:u:year-range,
17:u:none/year-range,
4:u:54,
4:u:e,,
21:u:internal/other/_x+1,
8:u:Chinas,
5:u:ang,
21:u:Wirtschaftsstruktur,
8:u:chinas,
10:u:Reformen,
4:u:as,
10:u:reformen,
9:u:Binnen-,
5:u:men,
8:u:binnen,
18:u:Außenwirtschaft,
6:u:1982,
3:u:-,
18:u:außenwirtschaft,
9:u:hamburg,
9:u:Finanz-,
8:u:finanz,
18:u:Währungspolitik,
6:u:nach,
18:u:währungspolitik,
13:u:Asienkrise.,
4:u:ik,
8:u:Bilanz,
12:u:asienkrise,
8:u:bilanz,
14:u:Perspektiven,
14:u:perspektiven,
15:u:Reformpolitik,
6:u:2006,
15:u:reformpolitik,
4:u:48,
8:u:Lardy,,
10:u:Nicholas,
4:u:La,
7:u:lardy,
10:u:nicholas,
13:u:Nicholas/R.,
4:u:n,,
6:u:Bank,
7:u:quote,
10:u:Economic,
9:u:unquote,
14:u:Development.,
10:u:economic,
26:u:unquote/other/no-editors,
23:u:unquote/other/initial,
4:u:So,
5:u:Soc,
6:u:Soci,
13:u:development,
9:u:Volumes,
6:u:1983,
9:u:volumes,
11:u:3/Volumes,
6:u:Idem,
13:u:Development,
5:u:dem,
8:u:Issues,
17:u:China./Longterm,
4:u:a.,
5:u:na.,
6:u:ina.,
4:u:by,
4:u:se,
6:u:1985,
5:u:don,
6:u:ndon,
4:u:Ka,
9:u:Policy:,
8:u:policy,
5:u:Pol,
6:u:Poli,
6:u:2007,
8:u:London,
8:u:london,
6:u:Benj,
5:u:Com,
6:u:Comm,
9:u:between,
4:u:Cu,
4:u:Im,
11:u:Discourse,
7:u:&amp;,
11:u:discourse,
9:u:Society,
4:u:An,
5:u:amp,
9:u:society,
14:u:numeric/page,
11:u:page/year,
16:u:Cross-Cultural,
10:u:Business,
15:u:crosscultural,
10:u:business,
12:u:Pragmatics,
4:u:Cr,
5:u:ral,
6:u:ural,
5:u:Bus,
6:u:Busi,
12:u:pragmatics,
5:u:Pra,
6:u:Prag,
4:u:cs,
5:u:ics,
6:u:tics,
12:u:Management,
12:u:management,
5:u:Mul,
6:u:Mult,
6:u:Case,
6:u:case,
6:u:Hong,
4:u:Sp,
6:u:Kong,
6:u:hong,
9:u:Journal,
6:u:kong,
11:u:Hong/Kong,
5:u:ong,
12:u:Journal/of,
5:u:Jou,
6:u:Jour,
5:u:nal,
6:u:rnal,
8:u:Speech,
8:u:speech,
5:u:Use,
15:u:Intercultural,
15:u:intercultural,
15:u:International,
6:u:Inte,
8:u:Review,
15:u:international,
4:u:gs,
5:u:ngs,
6:u:ings,
9:u:Applied,
10:u:Language,
6:u:Ling,
10:u:language,
5:u:Lan,
6:u:Lang,
5:u:age,
6:u:uage,
6:u:2002,
9:u:Michael,
9:u:michael,
23:u:Intercultural/Apology,
4:u:42,
6:u:chen,
6:u:Comp,
4:u:ts,
12:u:Politeness,
6:u:Cont,
9:u:English,
9:u:english,
9:u:Chinese,
4:u:Am,
4:u:sh,
5:u:ish,
6:u:lish,
9:u:chinese,
6:u:East,
7:u:West:,
6:u:west,
4:u:Si,
5:u:Sim,
6:u:Anna,
8:u:across,
11:u:Languages,
5:u:Ann,
11:u:languages,
10:u:Cultures,
6:u:ross,
8:u:Berlin,
5:u:Cul,
6:u:Cult,
5:u:Ber,
6:u:Berl,
7:u:2003a,
11:u:Amsterdam,
11:u:amsterdam,
16:u:John/Benjamins,
5:u:ins,
6:u:mins,
6:u:287-,
8:u:“The,
5:u:“,
10:u:81–104,
20:u:English/World-Wide,
5:u:221,
6:u:2001,
4:u:81,
4:u:Cl,
4:u:M.,
5:u:Tao,
4:u:ao,
6:u:1996,
4:u:D.,
15:u:Communication,
15:u:communication,
7:u:Helen,
4:u:17,
15:u:Spencer-Oatey,
7:u:helen,
14:u:spenceroatey,
21:u:Helen/Spencer-Oatey,
4:u:He,
10:u:stefanie,
4:u:ey,
5:u:Ste,
10:u:managing,
18:u:of/Intercultural,
12:u:Occasional,
5:u:”,
12:u:occasional,
20:u:Warwick/Occasional,
5:u:htt,
6:u:http,
5:u:url,
10:u:url/_x+1,
5:u:163,
8:u:Modern,
6:u:1990,
9:u:William,
10:u:handbook,
10:u:Thousand,
6:u:Oaks,
29:u:Intercultural/Communication,
10:u:thousand,
6:u:Sage,
24:u:Communication/Thousand,
15:u:Thousand/Oaks,
15:u:understanding,
15:u:Encounters”,
12:u:encounters,
19:u:Encounters”/The,
16:u:The/Pragmatics,
15:u:Pragmatics/of,
19:u:Intercultural/and,
19:u:and/International,
11:u:Bloomaert,
29:u:International/Communication,
5:u:Jef,
11:u:bloomaert,
13:u:Verschueren,
5:u:jef,
9:u:51–90,
4:u:Bl,
5:u:Blo,
13:u:verschueren,
6:u:1991,
17:u:Jef/Verschueren,
11:u:Pragmatic,
7:u:North,
7:u:Korea,
7:u:north,
9:u:Nuclear,
7:u:korea,
8:u:Crisis,
9:u:nuclear,
8:u:crisis,
16:u:Nuclear/Crisis,
4:u:Xu,
6:u:hang,
7:u:Norms,
13:u:Negotiation,
3:u:j,
8:u:Style,,
13:u:negotiation,
7:u:style,
15:u:Accommodation,
6:u:Talk,
6:u:talk,
15:u:Negotiations:,
14:u:negotiations,
3:u:?,
11:u:Research:,
10:u:research,
14:u:Language/and,
4:u:12,
4:u:13,
5:u:135,
6:u:ling,
10:u:Insights,
10:u:insights,
6:u:B.V.,
4:u:V.,
9:u:British,
5:u:30,,
4:u:no,
12:u:Department,
12:u:department,
6:u:City,
12:u:of/English,
6:u:city,
6:u:Ming,
8:u:Theory,
8:u:theory,
12:u:‘Face’,
11:u:Revisited,
4:u:ry,
6:u:face,
11:u:revisited,
4:u:Sh,
6:u:Xing,
16:u:chinesebritish,
10:u:Clevedon,
10:u:clevedon,
14:u:multilingual,
9:u:matters,
22:u:Multilingual/Matters,
9:u:Rapport,
12:u:comparison,
6:u:2004,
5:u:hen,
28:u:Multilingual/Communication,
13:u:multilingua,
4:u:ce,
11:u:Speaking:,
12:u:culturally,
22:u:Culturally/Speaking:,
6:u:2008,
18:u:London/Continuum,
5:u:uum,
6:u:nuum,
4:u:Ng,
6:u:Dong,
13:u:Interaction,
7:u:zhang,
6:u:Qiao,
7:u:Yeung,
9:u:Lorrita,
9:u:Ngor-To,
7:u:yeung,
9:u:lorrita,
8:u:ngorto,
10:u:Question,
17:u:Lorrita/Ngor-To,
6:u:19/3,
6:u:“A,
10:u:Transfer,
10:u:transfer,
11:u:141–163,
5:u:nce,
10:u:National,
10:u:Archives,
10:u:national,
7:u:(TNA),
10:u:archives,
3:u:),
15:u:Given-Wilson,,
5:u:al.,
10:u:Medieval,
9:u:England,
10:u:medieval,
6:u:vols,
3:u:v,
12:u:Rochester,,
4:u:NY,
11:u:rochester,
8:u:passim,
4:u:ny,
11:u:NY/passim,
13:u:passim/_x+1,
3:u:p,
5:u:pas,
6:u:pass,
4:u:im,
5:u:sim,
6:u:ssim,
7:u:Egan,,
4:u:G.,
6:u:Lead,
7:u:Cloth,
7:u:Seals,
7:u:cloth,
7:u:seals,
5:u:Clo,
6:u:Clot,
5:u:als,
7:u:Items,
8:u:Museum,
8:u:museum,
7:u:Paper,
7:u:paper,
6:u:true,
6:u:York,
6:u:Hull,
6:u:1924,
4:u:P.,
6:u:1394,
7:u:MPhil,
8:u:Thesis,
8:u:thesis,
10:u:aulnager,
7:u:Devon,
7:u:devon,
14:u:transactions,
5:u:von,
17:u:Transactions/of,
10:u:Industry,
10:u:industry,
8:u:Middle,
6:u:Ages,
8:u:middle,
10:u:Clothing,
11:u:Cloth/and,
10:u:clothing,
9:u:Europe:,
8:u:Essays,
8:u:europe,
8:u:Memory,
8:u:memory,
7:u:Prof.,
6:u:E.M.,
7:u:Pasol,
4:u:f.,
4:u:E.,
13:u:chinesische,
5:u:che,
9:u:Science,
4:u:Fe,
9:u:science,
8:u:Sacred,
5:u:Sci,
6:u:Scie,
6:u:ence,
6:u:1984,
4:u:).,
9:u:jianzhu,
6:u:Peng,
14:u:Architecture,
14:u:architecture,
9:u:Schinz,,
8:u:Alfred,
8:u:alfred,
9:u:Square:,
6:u:fred,
8:u:Cities,
8:u:cities,
8:u:Thomas,
20:u:Strukturprinzipien,
9:u:soziale,
4:u:ig,
5:u:zig,
6:u:pzig,
15:u:Chen,Congzhou,
7:u:Zhang,
14:u:chencongzhou,
10:u:Shanghai,
8:u:jindai,
10:u:shanghai,
8:u:shigao,
6:u:1988,
10:u:Henry/K.,
8:u:murphy,
6:u:Deke,
6:u:Erh.,
6:u:deke,
6:u:last,
6:u:look,
7:u:toshi,
6:u:1992,
8:u:Urban,,
16:u:ShanghaiCities,
16:u:shanghaicities,
18:u:Society/Shanghai,
9:u:Honghai,
17:u:societyshanghai,
10:u:Cultural,
9:u:honghai,
10:u:cultural,
9:u:Company,
9:u:company,
21:u:Development/Company,
15:u:Trans-Century,
14:u:transcentury,
10:u:Deutsche,
10:u:deutsche,
6:u:Deut,
5:u:Die,
5:u:die,
6:u:Plan,
11:u:deutschen,
5:u:mit,
5:u:den,
12:u:Historical,
13:u:Demography,,
6:u:A.D.,
12:u:demography,
6:u:1987,
5:u:.D.,
5:u:Des,
8:u:Taiwan,
5:u:da,,
8:u:Family,
10:u:Planning,
8:u:family,
8:u:Reader,
10:u:planning,
6:u:1970,
12:u:Population,
12:u:population,
11:u:Fertility,
8:u:Policy,
11:u:Singapore,
13:u:Demographic,
13:u:demographic,
12:u:collection,
11:u:Sociology,
11:u:sociology,
14:u:Anthropology,
19:u:Chinese/Sociology,
9:u:China's,
10:u:New/York,
6:u:Wang,
9:u:Terence,
12:u:ha-Nakdan:,
12:u:Glossateur,
12:u:glossateur,
11:u:grammaire,
9:u:Études,
6:u:1886,
10:u:Collins,,
10:u:wolseley,
9:u:collins,
9:u:grammar,
17:u:George/wolseley,
9:u:lexicon,
8:u:Hebrew,
8:u:hebrew,
5:u:rew,
6:u:brew,
5:u:ben,
6:u:Aron,
7:u:Moses,
7:u:moses,
5:u:Yom,
7:u:Ṭov,
5:u:yom,
11:u:427–428,
23:u:Encyclopaedia/Judaica,
6:u:1971,
13:u:grammatical,
12:u:literature,
11:u:Ashkenazi,
5:u:(in,
5:u:5-6,
13:u:(in/Hebrew),
5:u:1-3,
11:u:Jewry”.,
7:u:Lewis,
10:u:Glinert,,
7:u:lewis,
9:u:26–45,
9:u:glinert,
16:u:Lewis/Glinert,,
6:u:2645,
18:u:Glinert,/26–45,
8:u:Sepher,
11:u:ha-Shoham,
6:u:(The,
10:u:hashoham,
6:u:Onyx,
8:u:Jewish,
9:u:punctis,
6:u:quae,
6:u:Kohn,
6:u:Mór,
8:u:Ronela,
10:u:Dayyaqut,
11:u:MeRabbenu,
10:u:dayyaqut,
9:u:Shemuel,
11:u:merabbenu,
6:u:[Ben,
9:u:shemuel,
10:u:detailed,
7:u:table,
10:u:contents,
11:u:institute,
11:u:Wilensky,,
7:u:Moše,
10:u:wilensky,
9:u:al-Roti,
12:u:Michael/R.,
7:u:moše,
10:u:R./Moše,
8:u:alroti,
7:u:Union,
9:u:College,
7:u:union,
8:u:Annual,
14:u:Hebrew/Union,
9:u:college,
10:u:Medicine,
14:u:_x-1/Science,
13:u:Science/and,
10:u:medicine,
19:u:Twentieth-Century,
5:u:Z.,,
8:u:Nathan,
7:u:Sivin,
8:u:nathan,
7:u:sivin,
14:u:Contemporary,
14:u:contemporary,
10:u:Orleans,,
5:u:Leo,
20:u:Contemporary/China,
6:u:1980,
12:u:Technology,
12:u:technology,
10:u:Post-Mao,
7:u:Denis,
7:u:simon,
4:u:F.,
7:u:denis,
10:u:Science,,
21:u:Science,/Technology,
7:u:drive,
4:u:U.,
9:u:zukunft,
5:u:zur,
4:u:zu,
6:u:Cong,
5:u:Cao,
9:u:15-year,
8:u:15year,
9:u:Physics,
6:u:plan,
17:u:Technology/Plan,
9:u:2006-12,
15:u:Physics/Today,
6:u:3843,
8:u:Trends,
10:u:Movement,
10:u:movement,
12:u:Scientists,
8:u:States,
14:u:Implications,
15:u:Collaboration,
9:u:visited,
6:u:16th,
9:u:ordinal,
6:u:OECD,
15:u:O.E.C.D./2006,
4:u:O.,
5:u:O.E,
6:u:O.E.,
6:u:C.D.,
9:u:academy,
14:u:of/Sciences.,
10:u:Derrida,,
8:u:Gewalt,
13:u:Derrida,/J.,
6:u:Derr,
6:u:ida,,
9:u:derrida,
8:u:gewalt,
13:u:Metaphysik.,
7:u:Essay,
12:u:metaphysik,
7:u:über,
7:u:essay,
5:u:das,
8:u:Denken,
13:u:Lévinas’,
11:u:Differenz,
11:u:differenz,
11:u:Frankfurt,
11:u:frankfurt,
5:u:hg.,
4:u:hg,
4:u:v.,
4:u:au,
4:u:S.,
12:u:Gesammelte,
5:u:Bd.,
4:u:2:,
5:u:–,
16:u:Simmerath/2003,
6:u:Simm,
5:u:ath,
6:u:rath,
9:u:levinas,
9:u:Versuch,
6:u:Frei,
10:u:Judentum,
6:u:Jude,
7:u:a./M.,
13:u:single/_x+1,
15:u:Exteriorität,
19:u:Freiburg/München,
15:u:exteriorität,
18:u:freiburgmünchen,
33:u:Exteriorität/Freiburg/München,
24:u:Freiburg/München/2002,
13:u:Rosenzweig,,
24:u:Atheistische/Theologie,
6:u:sein,
12:u:Der/Mensch,
4:u:u.,
7:u:Meyer,
7:u:meyer,
13:u:Discovering,
9:u:Levinas,
16:u:2007/Cambridge,
8:u:Other.,
11:u:Gegenwart,
6:u:1965,
11:u:gegenwart,
13:u:1965/Berlin,
16:u:Umgangssprache,
7:u:Juden,
6:u:ache,
7:u:juden,
13:u:Österreich,
13:u:Zeitschrift,
6:u:für,
13:u:Demographie,
13:u:demographie,
11:u:Statistik,
11:u:statistik,
6:u:1905,
4:u:2,,
13:u:Bibliothek,,
12:u:Allgemeine,
6:u:1777,
12:u:bibliothek,
12:u:allgemeine,
16:u:Berlin/Stettin,
21:u:Allgemeine/Deutsche,
15:u:Deutsche/1777,
15:u:berlinstettin,
9:u:Nicolai,
8:u:Anhang,
9:u:nicolai,
6:u:Bde.,
8:u:anhang,
10:u:13–24,,
16:u:Nicolai/Anhang,
5:u:bde,
13:u:Anhang/Bde.,
5:u:Anh,
6:u:Anha,
6:u:1324,
6:u:nder,
11:u:Jüdische,
11:u:jüdische,
5:u:Jü,
6:u:Jüd,
7:u:Jüdi,
4:u:I.,
7:u:bloch,
12:u:zerstörte,
15:u:Schutzverband,
11:u:Deutscher,
15:u:schutzverband,
16:u:Schriftsteller,
16:u:schriftsteller,
7:u:Bloch,
15:u:Gesamtausgabe,
10:u:E./Bloch,
15:u:gesamtausgabe,
5:u:11:,
12:u:Politische,
4:u:1:,
6:u:1881,
5:u:auf,
4:u:L.,
7:u:Brod,,
7:u:v./M.,
6:u:brod,
6:u:Brod,
8:u:8/Bde.,
6:u:LTI.,
7:u:eines,
8:u:Loewe,,
7:u:Zion.,
15:u:Monatsschrift,
19:u:Der/Nationalismus,
15:u:monatsschrift,
21:u:Zion./Monatsschrift,
11:u:Judentums,
6:u:1895,
4:u:3,,
10:u:Sprachen,
11:u:Guttmann,,
11:u:Mittwoch.,
13:u:Fortgesetzt,
13:u:fortgesetzt,
10:u:Altmann,,
9:u:altmann,
13:u:A./Altmann,,
8:u:Engel,,
13:u:Altmann,/E.,
7:u:engel,
9:u:Brocke,,
8:u:brocke,
13:u:krochmalnik,
25:u:Stuttgart-Bad/Cannstatt,
14:u:Im/deutschen,
7:u:reich,
6:u:1897,
6:u:Wege,
13:u:Deutschland,
13:u:deutschland,
6:u:u.a.,
5:u:[K.,
5:u:Das,
3:u:],
7:u:Musik,
6:u:Neue,
6:u:1850,
5:u:Nr.,
5:u:19:,
4:u:nr,
6:u:Mein,
10:u:Brenner,,
13:u:Brenner,/M.,
9:u:brenner,
5:u:20.,
6:u:Half,
6:u:19th,
14:u:19th/Century,
14:u:ordinal/none,
6:u:Year,
11:u:Leo/Baeck,
6:u:A.B.,
4:u:ab,
13:u:historische,
11:u:485–517,
20:u:Weimarer/Beiträge,
6:u:1900,
8:u:nekula,
18:u:sprachnationalen,
10:u:»Jewish,
14:u:Literature«,
9:u:»World,
15:u:Literature«.,
14:u:Wissenschaft,
14:u:wissenschaft,
5:u:its,
9:u:Concept,
9:u:concept,
12:u:Literature,
13:u:Gotzmann/C.,
7:u:Wiese,
11:u:gotzmannc,
7:u:wiese,
19:u:Gotzmann/C./Wiese,
8:u:Kremer,
11:u:A./Kremer,
8:u:kremer,
5:u:Ort,
20:u:Auseinandersetzung,
13:u:1780–1933,
11:u:Barner/C.,
9:u:Al-Ali,,
7:u:Nadje,
8:u:Nicola,
7:u:nadje,
7:u:Pratt,
8:u:nicola,
7:u:Women,
14:u:Nicola/Pratt,
7:u:women,
11:u:Women/and,
5:u:Wom,
6:u:Wome,
6:u:omen,
8:u:Muslim,
10:u:politics,
14:u:postcolonial,
6:u:War,,
11:u:resisting,
7:u:labor,
6:u:Arab,
16:u:exceptionalism,
6:u:arab,
10:u:Politics,
21:u:Arab/exceptionalism,
8:u:Gender,
5:u:8:1,
14:u:Politics/and,
8:u:gender,
9:u:51–82,
12:u:and/Gender,
6:u:2012,
5:u:Gen,
6:u:Gend,
7:u:Islam,
7:u:islam,
5:u:Isl,
6:u:Isla,
10:u:Islamist,
11:u:democracy,
12:u:Feminists,,
9:u:nation.,
8:u:making,
12:u:Gender/and,
9:u:Linzer,,
6:u:Drew,
11:u:political,
9:u:support,
16:u:World/Politics,
9:u:markets,
5:u:5:4,
8:u:rights,
6:u:oil.,
10:u:Culprits,
5:u:oil,
13:u:inequality?,
12:u:inequality,
20:u:gender/inequality?,
10:u:546–53,
10:u:activism,
9:u:parties,
11:u:293–312,
22:u:Comparative/Politics,
5:u:353,
7:u:piety,
9:u:Daniela,
5:u:aut,
6:u:auth,
9:u:shaping,
10:u:Doumato,,
9:u:Eleanor,
9:u:doumato,
9:u:eleanor,
6:u:Gulf,
11:u:Posusney,,
10:u:posusney,
15:u:globalization,
6:u:Colo,
9:u:Islamic,
9:u:islamic,
10:u:equality,
15:u:civilizations,
8:u:Amaney,
8:u:amaney,
8:u:Vickie,
7:u:level,
12:u:democracy?,
9:u:Working,
10:u:mattered,
12:u:importance,
15:u:Governance/in,
8:u:africa,
10:u:133–54,
9:u:kandhim,
15:u:Abbas/Kandhim,
7:u:13354,
8:u:piety.,
9:u:revival,
10:u:feminist,
9:u:subject,
5:u:2nd,
10:u:response,
6:u:Ross,
14:u:Abdel-Hamid,,
13:u:Abdel-Latif,
11:u:Katherine,
11:u:katherine,
14:u:relationship,
8:u:versus,
9:u:nonarab,
11:u:societies,
7:u:Ross,,
6:u:Oil,,
10:u:107–23,
10:u:Michael.,
9:u:Islam:1,
16:u:Ross,/Michael.,
16:u:transformation,
8:u:women?,
9:u:publics,
0=0x1.7b153a9cca42fp-1
1=-0x1.50d208c3b7fa7p-1
2=0x1.c7e9414f26195p-4
7=0x1.26c45f3cdf875p-2
12=0x1.001211d8c735bp+0
13=0x1.1cb75add8979cp-2
14=-0x1.4b41ce9e2edcap-7
19=0x1.4099a53a8675fp-2
20=-0x1.4f5183dafaf43p-7
24=0x1.b0c58375f1be6p-3
36=-0x1.5d9ace1ce8a5ep-2
37=0x1.e1ec1abb7da1fp-3
38=-0x1.baf277796fdd8p-11
48=0x1.277bd293feaf6p-4
50=-0x1.141ebcb31c7f9p-1
60=0x1.f50ca697672c3p-5
61=0x1.b459c2c78aa62p-4
62=-0x1.1fb23c887872fp-3
63=-0x1.471ede13706bfp-2
64=-0x1.49b4f5e9c0bcbp-1
66=-0x1.bbf058643f0a7p-2
67=0x1.7c365081ab4fep-1
69=-0x1.26738d32b7da3p-1
71=0x1.f384ac2fd4076p-2
74=-0x1.15d92593b15d9p+0
76=0x1.b61c9b65902f4p-8
77=-0x1.330361ea22aafp-2
79=0x1.90f857ed76d2dp-5
85=0x1.5042dbaf2a8f3p-4
86=0x1.4ebb9bebc1e94p-13
91=0x1.e06956e994b03p-4
96=0x1.1db788246b0dep-3
97=-0x1.15753e1f5a00dp-5
98=-0x1.1726dbfc8a226p-1
103=0x1.46c3f89cd8387p-2
107=0x1.a9a634da23dbbp-4
109=0x1.0610f9913b4b8p-3
110=0x1.b59da32cb0386p-3
113=-0x1.e742f257286f5p-2
115=-0x1.8def7b01c1247p-4
116=0x1.801da0790981cp-7
121=-0x1.62cdfc426b524p-3
122=0x1.0b950b7f997b2p+1
132=0x1.299cea216fbb2p-2
133=0x1.01076919a5417p-1
134=0x1.b1cdaa80afc09p-2
135=0x1.d53b024c7670fp-4
136=0x1.83280d04c372dp-4
137=0x1.90235dec94aecp-3
138=-0x1.00726ef37e638p-3
139=0x1.b099438161604p-3
140=0x1.f6723a2e09fbcp-4
141=-0x1.0d3de6dfe874ep-5
142=-0x1.01fc2180fbeap-1
143=-0x1.28116b1526d69p-3
144=0x1.cacf638a55a68p-3
145=0x1.5261a1c6fd30dp-2
146=0x1.2a1f687c4c7a1p-2
147=-0x1.686252048dbaep+0
148=0x1.4f05dcb70b957p-4
149=0x1.d5c3e677815e9p-5
150=-0x1.a39c03e91c7cp-1
151=0x1.78c5dc21358dcp-3
152=0x1.b51961e7e0ce9p-4
153=-0x1.8b2185ab9e60bp-3
154=-0x1.520d8abff8bcfp-4
155=-0x1.4a95a58aedb48p-5
156=-0x1.0ccd3fc57a2ecp-2
157=0x1.eeae8351869ap-9
158=0x1.5bc5183802fccp-3
160=-0x1.0dfc8a1fb9e9fp+0
161=-0x1.243d05cbf58ddp-1
162=0x1.febf88051cf9dp-2
163=-0x1.d4e7107cc1e25p-4
164=-0x1.95023a266789p-4
165=0x1.6b325e79ecab3p-3
167=0x1.fb65ccd904d6ep-13
168=-0x1.1e1ba4eb278b7p-2
169=0x1.cae4c7969711p-7
170=0x1.c897f0178eaacp-4
172=0x1.43a3abf0f848bp-6
173=0x1.29f8c3a228a47p-5
175=-0x1.1d4e0619b9c6ap-4
176=0x1.6831a62d54ebdp-7
179=-0x1.0e61bd9eb4017p-3
180=-0x1.1c10852c3731bp-2
181=0x1.909597e46a5f1p-4
182=0x1.a90a7af184739p-4
184=0x1.36b0548c95b47p-7
185=0x1.048f9c57160ffp-5
187=-0x1.7ee53a2846e71p-4
188=0x1.0d5fa56c7451cp-5
191=0x1.1dfc264794e76p-6
192=-0x1.3a826150e1cd4p-2
193=0x1.2dd0a6d42971ap-3
194=0x1.55ffce5345d7ap-4
196=-0x1.6e755278b2df4p-7
197=0x1.bc606ee0a626bp-3
199=-0x1.043131ec3d5b5p-4
200=0x1.057e7eb2fc7acp-6
203=-0x1.54aa6edffa973p-11
204=-0x1.6d0f46fb8cdd9p-10
205=0x1.45b27db1c3791p-5
206=0x1.9b1ad91e389b6p-4
208=0x1.4d7a7561bdb7ap-6
209=0x1.a63ee4826620bp-5
211=0x1.1acd657905ec3p-5
212=0x1.8b9da819e23f5p-7
215=-0x1.7f89179e5712dp-11
216=0x1.026d696c27513p-5
217=0x1.fde4c4c304a72p-6
218=0x1.0862210324ff4p-3
220=0x1.fbd98568cffdep-6
221=-0x1.a6001c5de1d11p-1
223=0x1.f5ba71a81dd1cp-6
224=0x1.e1ba474893fe7p-6
225=0x1.d0616e5828d67p-7
228=-0x1.a443ee054ea56p-10
229=0x1.1a3b0088dd6b1p-5
230=0x1.8c58db52a36b4p-4
232=-0x1.7ba3087bec23bp-1
233=0x1.3e0f426a3f597p-6
235=-0x1.077d8c5d57da1p-5
236=-0x1.147d2c519e524p-9
239=0x1.a7e522aed6f0bp-5
240=0x1.0dbe4927cd21cp-4
241=-0x1.d0274d4a78321p-4
242=0x1.58b9ff0a04044p-4
244=0x1.e604e19087019p-6
245=-0x1.1fb416146ffe1p-13
247=0x1.3fa3ccf76a72p-4
248=-0x1.c60323f58e454p-3
251=0x1.2c5b3595cda49p-4
252=-0x1.6454bf2c56adep-10
253=0x1.2551a31c71618p-4
254=0x1.9c13759820198p-4
256=0x1.4919773b6a8a1p-6
257=0x1.9752826d988e2p-5
259=0x1.3e27e2b6b1aabp-5
260=0x1.6d2ec077d3097p-6
263=0x1.f4c58c9564c74p-7
264=0x1.d0e0504cce304p-2
265=-0x1.00cad9086675cp-5
271=0x1.cf5faaf1b6985p-3
272=-0x1.15231b3efa05p-4
276=0x1.aed9e2d5d65e4p-3
277=-0x1.540b649b11a7cp-8
288=0x1.f8b3f67eecd92p+1
289=-0x1.097f5f1568c5bp-4
290=0x1.4496daf302bcdp-9
293=-0x1.764289231d18cp-2
294=0x1.460407426fc64p-3
295=-0x1.47cfa799b5e75p+1
296=-0x1.11c7e1856e84bp+0
300=-0x1.319fdc1d28503p+0
301=0x1.1925119b8f4fdp+1
302=-0x1.60ea38cf7e8eap+1
303=-0x1.2f3bfcf904a11p-4
304=-0x1.4cb4b9812f2fep+0
306=0x1.5c8c16d549eddp-2
307=-0x1.a50772bd0c809p-2
308=-0x1.64bd7cec392aap+1
311=-0x1.477bd0b1de8bfp-1
312=-0x1.7b781c2742b06p+0
313=-0x1.cbc7c736c2633p+1
314=0x1.dbe9278fce11ep+0
315=0x1.af3be4e638a25p-4
316=-0x1.907ce1119f721p+0
317=-0x1.87330d4ff18acp+0
318=-0x1.79475e4ed539dp-5
319=-0x1.4c5328292f1c8p-1
320=-0x1.00f178d69d34ap-1
323=-0x1.0b1d3e1972299p-2
327=-0x1.13ba1ce19528p-2
329=0x1.df13795d215bap-2
333=0x1.e0d718b7dc2fap-1
337=-0x1.2232bf60bbea8p-2
338=-0x1.3311bc198dd4ep-2
340=0x1.d8e0eca996a39p+1
344=0x1.4178c277bbb99p-2
349=-0x1.718595e9a1cf4p+0
350=-0x1.4c005d988dc0ap+0
352=0x1.be17eaee698dfp+0
353=0x1.ea60097dee80cp-1
354=0x1.3b1452d211241p-5
355=-0x1.2896b1f0298c5p-4
356=-0x1.204c84cd7ef19p+0
359=0x1.c165c74e8436ep-15
362=-0x1.0315029224feep-5
364=0x1.9a8d72bc32e22p-14
365=0x1.7801b404fabd4p+0
366=-0x1.f0a8a3381a669p+1
367=-0x1.515d18434973ep+0
370=0x1.286fcc2e881b6p-2
371=0x1.72dd7af767f7dp-2
372=-0x1.744c6657310a5p+0
373=-0x1.ee44459db608cp-1
374=-0x1.41e37d103bf73p+0
377=-0x1.b024fc2bbb669p-1
378=0x1.3033e436ecaeap-1
379=0x1.5fbfd1e874f1ep+1
380=-0x1.8594ac433c17dp-2
381=0x1.0468608f6dc7p-3
385=-0x1.480fe2f079f36p+1
386=-0x1.6ee4bd619623ep+1
387=0x1.b18a85349591fp+1
388=-0x1.165b82bd0c6ffp-2
390=-0x1.0b9d42c9d6588p+0
392=0x1.7b8c5b6c1c4dp+1
393=-0x1.bbc04048aaa6dp-3
395=-0x1.e5702207b90ap-6
402=0x1.07466421dc5a7p+0
403=0x1.a752719cce5aap+0
405=-0x1.7d8debee8d5d4p+0
431=0x1.3f43994cb101ep+2
433=0x1.8a9abf490f67ap-3
434=-0x1.b0f5856359662p-5
440=0x1.831197fa19067p-3
444=-0x1.ddafc09d91339p-3
445=0x1.6c200c8336075p-3
446=0x1.5c4aec4c3436ap-2
447=0x1.78bf954af79bp-6
448=0x1.d9353f2ea7b81p-3
449=0x1.4e2735d33368p-4
450=-0x1.cac04b951d133p-3
451=-0x1.0e27ccfc327efp-4
452=0x1.1ca90a6884a84p-1
453=-0x1.2e326f22e10a4p-1
455=-0x1.77ac20c860ccep-3
456=0x1.6b81e9a017fd2p-17
457=-0x1.ac5fed0e40ef4p-5
458=-0x1.90cd1124d7ee3p-7
460=0x1.972cf52dc1417p-22
463=0x1.72d9cb6cdc3f5p-3
469=-0x1.0f74b2ffa4bb9p-1
470=-0x1.e3816761ad37ep-4
472=0x1.86f3b658f0975p-21
473=0x1.2570b44f6569p-7
480=0x1.743cabc2d98ecp-5
481=0x1.32d59fa77f22ap-5
482=-0x1.2904a23732ea6p-6
485=-0x1.e4f5420249bcdp-2
487=0x1.48a50e695c465p-8
488=0x1.0deaa2bd8e363p-6
493=0x1.cfbfd135084d1p-4
494=-0x1.9f4e0e677f41ap-5
500=0x1.5be3a43a4e825p-6
504=0x1.5f74a3f9194dcp-4
516=-0x1.261a94c92e5f1p-5
517=-0x1.c64b4426a7342p-4
518=0x1.204fc790fff37p-4
519=-0x1.b81174f0a40a1p-1
520=0x1.4ee1b01a9c085p-3
521=0x1.d10b8add31079p-2
522=-0x1.a73eeef16e56ep-13
523=0x1.fc4f18972926dp-5
524=0x1.91352e319106ap-2
525=-0x1.2760712219b1ep+1
527=-0x1.88243ae9a7514p-14
528=0x1.1d13de1fe8762p-2
529=-0x1.39ccc321f7386p-2
530=0x1.a27272dc9a79ap-3
531=0x1.c850b057e69b5p-2
532=-0x1.4ab04ed925edfp-7
533=-0x1.d3e801046313fp-2
534=0x1.9ae31ef2c99f7p-2
535=-0x1.d03afac3dbec3p-5
536=-0x1.6604f6be3206p-3
537=-0x1.b7bb56b9eb6f8p-3
540=-0x1.0146e7ffc4bd4p-2
541=0x1.d6a9b92e314a7p-5
542=0x1.c9b9b6de12131p-7
544=0x1.0763f7a0b48ecp-9
545=-0x1.4123b8175f719p-13
546=0x1.d4182d95f4f8bp-5
547=-0x1.9f184b344a486p-5
548=0x1.7c0ee8eb0638fp-5
549=0x1.472ea9a1c5c1p-2
551=-0x1.120f6ed6573ecp+0
552=-0x1.2a00c25391ceep-1
553=0x1.24fa66c33731ep-2
554=0x1.6aa17de5ce64dp-11
559=0x1.395fe92ad0d27p-4
560=0x1.5d917e25239bfp-2
564=-0x1.20051ec1d9525p-2
565=-0x1.5ea10e62e9b48p-12
566=0x1.56475507bc17p-8
571=0x1.4605c0135b76p-3
572=0x1.5a929f41c39c1p-2
577=0x1.30d0e410d00b8p-3
584=-0x1.77c2edcfdc608p-5
589=0x1.64496194163b8p-12
600=0x1.b05a7353a6309p-2
601=0x1.575bcebd5bcd7p-6
602=-0x1.3ab3fa21fc464p-3
605=-0x1.773b4816197d7p-7
607=0x1.1d39e80bea87ap-2
611=0x1.49f7f053925e6p-3
612=0x1.f8f3421efa6e2p-2
613=-0x1.0b36a66ab4aecp-3
614=-0x1.0bd557d56fb56p-5
616=0x1.4b852a00f6e08p-4
617=-0x1.c01cb13b6580bp-8
619=0x1.ba3057112ac3bp-1
620=-0x1.060818d0d3eb2p-3
623=0x1.c353cdb185ddap-9
624=-0x1.fbf331d80cbeap-14
625=-0x1.6600843f270bdp-8
626=-0x1.7f0bac814704ep-8
628=0x1.7c4ebd944ea4ap-1
629=-0x1.274ce76c2548ep-12
631=0x1.41b57f8daf98p-5
632=0x1.03425ac2272dbp-5
636=-0x1.3a8700da29c09p-1
637=0x1.3e0aafafb30cfp-5
638=-0x1.51ff2fc7e9565p-7
640=-0x1.19d0040a90cf1p-7
641=0x1.6c64157f4421p-3
643=-0x1.5995673f78279p-2
644=0x1.a5a847b042d1cp-2
648=-0x1.eebfc88d08757p-3
649=0x1.154d3872dc07bp-5
650=0x1.04c2d7d060703p-4
651=0x1.d1291cb2dbd3ap-3
652=0x1.62974401b1416p-7
653=0x1.4c3c09b09f5b2p-14
655=0x1.b9dfdf462b994p-9
656=-0x1.7cded0e02d27cp-10
657=0x1.168959a4faad7p-5
659=0x1.06f1a39844b37p-11
660=0x1.8a37df115c76fp-2
661=-0x1.f8fcd4eb12cfap-3
662=0x1.f9ecb1f931064p-5
663=0x1.6668edd23ee97p-6
664=0x1.8863883a61f64p-3
665=-0x1.f34581e4e1f15p-20
666=0x1.84ffac7535e4fp-1
667=0x1.65ac014cd5b05p-4
668=-0x1.827f54405dd46p-4
669=0x1.9fe4fd666ad5dp-4
673=-0x1.d17a186bbe8p-8
674=0x1.56059bfa6d441p-5
685=0x1.12a76bce2ad6p-5
697=-0x1.df17b8a09385dp-9
698=-0x1.32d06aed1e638p-11
701=0x1.59e15d5891f64p-4
704=0x1.7171f068ab8abp-5
708=0x1.044af26ece8e7p-2
709=0x1.36702a964221dp-3
710=-0x1.7a923b299cc39p-7
711=0x1.0aa0e41f52509p-2
713=-0x1.a5943fbc4c078p-4
714=0x1.1e44ee6394c9ep-4
715=-0x1.594db913999e2p-4
716=-0x1.d755b75ea9729p-2
717=-0x1.ebb9acb3f278bp-3
719=0x1.21125d4c75d93p-2
720=-0x1.2a7f0023d91bfp+1
721=0x1.3b2dc537fd233p-2
722=0x1.118612362e9afp-7
725=0x1.b2055a5ac730cp-9
727=-0x1.7145f2562ea49p-1
728=0x1.b58f36ae74a25p-1
731=-0x1.33bde8990e76p-6
733=0x1.1f43d21f224bep-4
734=0x1.385d24ce8e71ap-9
737=0x1.1c5e75501347ep-3
739=-0x1.9782178c87012p-7
740=0x1.ade271e7f9b7ap-6
745=0x1.359a7c428ff02p-10
746=0x1.b73613c2410e4p-6
748=0x1.c5d91b94eea53p-4
756=-0x1.283cd7ccb656ap+0
757=0x1.f12751370bd3cp-6
758=0x1.74cc90cb78b82p-3
760=0x1.242913da2de1bp-5
764=-0x1.40f7c4677a8d4p-2
768=-0x1.a2e1318036191p-5
769=0x1.ff538a079a021p-3
770=0x1.445ff793b8323p-6
781=0x1.519b6c1f5bf9bp-3
782=0x1.33f931e09ba49p-4
783=0x1.3bc38e5ae26aep-1
784=-0x1.c9c28115edc82p-1
785=-0x1.15ef7afb67a39p+0
786=0x1.688484170d4c4p-1
787=-0x1.d305d6f4ab034p-2
788=-0x1.f382e5f51b8b7p-2
789=0x1.9d2f188f31579p-3
790=0x1.2e8208ccc9abcp-4
791=0x1.4e06aabecc3c3p-4
793=0x1.d6a08b8ee7e95p-9
794=0x1.bbb3989094e19p-4
795=0x1.e38391d906bafp-5
799=-0x1.3c3f53d2c4ccdp-1
800=0x1.baf78685febb3p-5
801=-0x1.9a67707e97a6fp-6
803=0x1.5ed82fc44bd37p-2
807=0x1.1694498fe47aap-1
816=0x1.e95d6f4487e49p-4
817=0x1.a2951fdb872bap-5
818=0x1.962de5e2165d2p-4
819=0x1.403253f65b1b6p-2
820=0x1.90fadea8191d6p-4
823=0x1.2f14dca74b6d2p-4
824=-0x1.c37b6faa33f2dp-4
829=0x1.32042f6df6fdep-1
830=-0x1.9557c2ff4e065p-8
833=-0x1.eba556c1b7fedp-4
835=-0x1.5e2538a22a5d8p-5
836=0x1.d897337f5a2f4p-3
841=-0x1.317168f836b04p-2
842=-0x1.ab5d1b28e748fp-7
844=0x1.861a53198d866p-2
854=0x1.c6fe678cdf092p-2
855=0x1.1a3724537000ep-3
866=-0x1.428102313aec1p-5
869=0x1.513315a9bda02p-3
877=-0x1.a4881fa9cba2dp-7
890=0x1.24bd27d5137b8p-7
891=0x1.f66a7d182d978p-9
896=-0x1.b535dd5385cd7p-5
901=-0x1.ae511a9b760cap-2
902=0x1.0ad02e1df884ep-1
903=0x1.ca6c70cad258dp-4
913=0x1.343e375cae9c1p-5
914=0x1.87aaf6a9d4a41p-8
915=0x1.cf3d2ff17fa06p-2
917=-0x1.d1be8641e4247p-5
919=0x1.ce1af31da5287p-3
920=-0x1.323a0163f2655p-3
923=-0x1.45c84e8f07f9ap-3
924=-0x1.6f874b8946f5dp-2
925=-0x1.fe9a6a4d4e0b1p-3
926=-0x1.07f68ac9d0fb6p-1
927=0x1.4b44ec334d7d9p-1
928=-0x1.4ba183560b478p-2
929=-0x1.d7266ee12bff8p-17
930=0x1.73332b24b760dp-2
931=-0x1.c1b6a869cee6p-4
932=-0x1.fd402b125b7fbp-2
933=0x1.70041401cba6bp-1
935=0x1.3cd2d5a13fc59p-15
937=-0x1.03b6040fb5727p-6
938=-0x1.56c97ac288db1p-5
939=0x1.ddaf4f4044b75p-2
941=-0x1.604b234168872p-3
943=0x1.a8cc75157b41p-3
944=-0x1.31fb080d5bdf7p-8
949=0x1.da854db20bcc9p-5
964=0x1.f9a809166d33ap-1
965=-0x1.c95f87d5f69d1p-9
968=-0x1.a34c7d1ea22e7p-5
974=0x1.e10cad9949536p-16
984=0x1.d3c2268d727e2p-3
985=-0x1.2daacfad72dp-2
988=0x1.c4cc37a925671p-2
991=0x1.df83a27208934p-5
992=-0x1.e542e55d8bb4bp-6
997=0x1.c6b2161d6c578p-8
1008=-0x1.1c007517ca6fep-1
1009=0x1.ebe56c9b6541cp-8
1010=-0x1.7e3ea8a78d216p-3
1012=-0x1.4422de580f96bp-12
1015=0x1.c7c1557b48748p-6
1016=0x1.f4721f16737e2p-3
1017=-0x1.8736278609e78p-5
1020=-0x1.1cd7dd5a0c25ep-2
1021=-0x1.be8dfdc92825cp-2
1022=-0x1.9e9746d28944bp-1
1023=0x1.b7cfd6f97c1b9p-5
1024=0x1.4ba1b012285p-2
1025=0x1.3577a4176d8d3p-1
1026=0x1.dfc9bce87fd69p-3
1027=-0x1.03e7fcbe205fp+0
1028=-0x1.a2c062f2ba75dp-3
1029=0x1.afca607e2879fp-3
1031=0x1.2afaf77c805bap-2
1034=0x1.3d2d0cec8764ep-6
1037=-0x1.bcf81d56ba062p-7
1040=-0x1.f8662f8cc4f89p-2
1043=0x1.383d389e1370ap-1
1044=0x1.a505fba3ce126p-2
1066=0x1.48472deaeff03p+0
1068=0x1.5c90ec610e85dp-2
1070=-0x1.974d06a4967adp-2
1081=0x1.2847bc3674886p-3
1082=-0x1.583e08e42a96dp-1
1083=0x1.dd0bbe7b5ecf4p-5
1084=0x1.27b12ae975c63p-1
1085=0x1.17bf440bc3a9fp-2
1087=-0x1.1fc5b779637d8p-4
1088=-0x1.5f16c6af1b44ap-5
1089=0x1.6487aba7ce617p-5
1091=-0x1.c3124b36cace2p-3
1093=-0x1.172c976535864p+0
1095=-0x1.1975e0e063c06p-2
1096=0x1.d598653dda9e8p-4
1097=0x1.694938ad7cb35p-3
1098=0x1.dac2e037bd247p-4
1100=0x1.0ffbccc924163p-5
1101=0x1.d1e4ff9600ba9p-3
1103=0x1.2a0d06a7d1ce4p-2
1105=0x1.6c65930769ba1p-1
1106=-0x1.27c5f58def88p-3
1111=0x1.a47ecfd21391ep-16
1112=-0x1.c56e84fa39327p-6
1117=0x1.58bbe076dce87p-4
1118=-0x1.dabb910635856p-6
1121=0x1.b925887992d08p-2
1124=0x1.d84417efee444p-9
1129=0x1.cf5e01c9f6581p-4
1130=-0x1.359f5b3f259efp-5
1132=-0x1.32035f0b056b5p-4
1133=0x1.20293013979f6p-1
1145=0x1.77eb801d6e672p-6
1153=-0x1.e046e24b21e25p-4
1154=-0x1.5d333c0d959c3p-3
1155=-0x1.db7829d7b8c3p+0
1157=0x1.03f145c36454ep-2
1158=0x1.864bddab70084p+0
1159=0x1.5c85cfa08e4a2p-4
1160=-0x1.fec41660cca72p-6
1161=-0x1.81f408ee3a0dcp-13
1164=0x1.f71d052f4d208p-2
1165=0x1.3b0943520d093p-2
1166=0x1.13542928fae89p-6
1167=-0x1.0235200dc271cp-2
1168=-0x1.ff008b5badb96p-4
1169=0x1.feb70843ca47dp-7
1170=0x1.4b40013d4ed6dp-4
1171=0x1.fe9e33bd04ec6p-2
1172=-0x1.c2b0dea0e944ep-3
1175=-0x1.72aa6df204b53p-3
1177=0x1.049b62353fdafp-3
1178=-0x1.3a544f650e23cp-4
1180=-0x1.6685847cb3ab8p-2
1181=0x1.7fea7a60b0112p-2
1185=-0x1.1c2900f5b5fe8p-12
1187=0x1.023c3f0428c92p-1
1189=0x1.5a085f704cd68p-9
1190=-0x1.10b645d22e461p-4
1192=-0x1.1674617b40403p-5
1193=0x1.eb9951ec1ff81p+0
1196=-0x1.30388685eaa5ep-5
1201=-0x1.923ddf73558f7p-1
1202=-0x1.09da4dd0ecc6cp-1
1203=-0x1.90417d0a28187p-5
1204=0x1.07a30be77b93dp-1
1205=0x1.e2b821d12fe9fp-4
1209=0x1.9bccc4740f33dp-2
1211=0x1.4d67bf2206846p-3
1217=-0x1.d7e238285aedep-16
1218=-0x1.bb208729a00cap-16
1223=0x1.0200147eedb16p-3
1230=0x1.4a9f61c43446bp+1
1236=0x1.f8f3c191ebd3dp-6
1254=0x1.0c5205c08a0eap+0
1257=-0x1.b8ddb7535fdf9p-4
1264=0x1.9ed6c980abedp-4
1265=-0x1.4371a37e4312fp-2
1266=-0x1.c2de24906aa62p-16
1271=0x1.16db77b491819p-1
1276=0x1.840a160104e3ep-5
1277=0x1.d2ee02d4a1153p-5
1278=-0x1.1cd64b34fc356p-5
1280=-0x1.546ceff785bafp-9
1283=0x1.227d9dc4b3dbfp-5
1285=0x1.0ad393d0f5259p-5
1297=0x1.861c407e13de1p-3
1298=-0x1.7c03a892f47c8p-4
1301=-0x1.f783c08ce634cp-4
1309=-0x1.3aa06cdb9d562p-6
1310=0x1.7f811ce87bc13p-10
1315=0x1.3abc6b8dd3fbfp-11
1316=-0x1.70bb7eadb4f8p-13
1320=0x1.80bcd0cdda20ap-2
1321=0x1.146757530e9bp-3
1322=0x1.40df2ce319f1cp-3
1324=-0x1.0d668b6f0cddp-2
1327=-0x1.469ede7677fb8p-3
1328=0x1.4ce65a1cd9d9ep-5
1332=-0x1.cdc7dc423e705p-2
1333=0x1.6705edfd7a211p-2
1334=0x1.4f4778df3dd24p-2
1335=-0x1.0ea6a92a42b9p-5
1336=-0x1.c993172d03b7p-3
1337=-0x1.db46abb0d5371p-3
1338=-0x1.d866039c354c3p-11
1339=0x1.2fb83f8dc41bcp-5
1340=0x1.24d61d455cfe2p-3
1343=-0x1.9b3a9b9cda9a7p-4
1344=-0x1.df45c8d93dfcfp-1
1345=0x1.aab5f35b6343cp-3
1346=0x1.8bf52619c1834p-4
1351=-0x1.748f31bdef4d3p-3
1352=0x1.4bb7f2a458244p-5
1357=0x1.fb3d2cc1396d3p-5
1358=0x1.0ed1efef5c9bp-6
1363=-0x1.54562de35eb37p-4
1368=-0x1.5e6d1c28d6303p-2
1369=0x1.04e44b2a077c7p-5
1370=0x1.784bd15f67d8ep-3
1373=0x1.1196768ee9aecp-4
1375=-0x1.52b04173c75ep-16
1376=0x1.b7210d49c14cap-8
1380=-0x1.b264e303ac337p-7
1381=0x1.2606def4d1f65p-5
1382=-0x1.fc43ff305db7cp-9
1387=-0x1.274c0894644e2p-7
1388=0x1.6800198f20a6p-3
1394=-0x1.35045f1d45676p-5
1399=0x1.6dc78dfdb5374p-2
1412=0x1.499e62c11216cp-4
1416=-0x1.8c9fbca85e7cdp-6
1417=0x1.cf5c7b4578a8bp-2
1418=-0x1.65a1e62727497p-6
1424=0x1.a5a3f6ed4adfdp-5
1428=0x1.97771085790cp-5
1441=0x1.50455107800d6p-5
1442=0x1.9ffdd90eb8b13p-8
1453=-0x1.e7c770de7cbcap-14
1454=0x1.98dd77215ee83p-7
1457=0x1.b924a369c1ec3p-1
1466=-0x1.7af341aa4d793p-4
1472=0x1.961722de01732p-2
1476=-0x1.bee348926c162p-1
1478=0x1.618f576c1f872p-10
1483=0x1.d4e474cd22968p-4
1484=0x1.7bea9c21b3085p-6
1487=0x1.319e5fd91b0e6p-5
1489=-0x1.3d91fe95081eap-7
1495=0x1.364b5023bdbdfp-2
1501=-0x1.812662864ef78p-17
1503=0x1.1e783c470f298p-1
1512=0x1.2acb2db925aedp-2
1513=0x1.a2fc2e95ef0dp-6
1514=-0x1.575c9570b264bp-4
1519=0x1.66ea8b87cf8e8p-4
1524=0x1.1d2e91bc0cc98p-2
1525=0x1.314a12b85b8d1p-8
1526=-0x1.475d5cead273cp-4
1528=-0x1.2bcf9f55897ecp-5
1529=0x1.d9371a114077cp-2
1531=0x1.424cfff7893bcp-8
1533=-0x1.b09ac02090ec5p-2
1536=0x1.90ad5a9f8b1c9p+1
1538=-0x1.762e22522fea1p-2
1552=0x1.53680e37296f7p-4
1560=0x1.fc3e3b3843227p-4
1561=-0x1.d3f080b9d718dp-5
1562=-0x1.2b11cb3c7ec2ap-3
1563=-0x1.566302ce10b3ep-3
1564=-0x1.817eb783a90aep-2
1566=-0x1.d92fc2564a3e1p-3
1567=0x1.dac36a47ba5d6p-2
1568=-0x1.7adb581fe04a5p-3
1569=-0x1.2e0e222ae875ap-3
1573=0x1.1a611679dcce4p-3
1574=-0x1.602be94f8dfe4p-11
1584=-0x1.ba9e4f878f344p-5
1591=0x1.db121849fbc4ap-5
1599=0x1.2e12c25834f2p-2
1608=-0x1.144da00be969bp-1
1609=-0x1.3e62a5cfe9048p-14
1610=0x1.7a0b8906485b8p-5
1618=0x1.012b28b9854fp+0
1621=-0x1.7a31e6f7fbc32p-7
1622=0x1.c0931c67e0727p-4
1623=0x1.b427e765f38a3p-1
1628=0x1.890af81fc8e68p-2
1633=-0x1.19ce0dc0bede4p-12
1634=0x1.f598645ea587ep-6
1640=-0x1.433ef172e1ea8p-4
1641=-0x1.0c793fbaa04d1p-4
1644=-0x1.8e66975529f1p-2
1645=0x1.9c2c1f5211efp-5
1646=0x1.fa5c64a06d8bep-6
1651=0x1.93dd4893062a9p-4
1660=0x1.35ddeacf268e1p-6
1669=0x1.daf8853105c37p-4
1679=0x1.1b9b2f2f8475ep-6
1681=0x1.fcd568bea5664p-6
1682=-0x1.13f9425cd866dp-13
1683=0x1.aaabe7240f8b2p-2
1694=-0x1.43bf162604cap-19
1699=-0x1.17f6ae796ff92p-6
1704=0x1.e9d2767ba0facp-5
1706=-0x1.645696e63cdd9p-7
1716=-0x1.f4f940da31246p-5
1717=-0x1.f1fb396dc6ae8p-8
1718=0x1.28add49fd0ad8p-3
1720=0x1.8c434c5368877p-4
1723=-0x1.3b16f5a0bb39cp-2
1724=-0x1.2a6a54fdb5459p-13
1728=-0x1.dc94c117b833ep-5
1736=0x1.23ac8066b516bp-5
1742=-0x1.beada52cfa676p-5
1744=0x1.5ff8be8dfd9e9p-3
1745=-0x1.98417860045b6p-22
1752=-0x1.d27fd3b8a8b26p-1
1753=0x1.874a0923dadffp-3
1754=0x1.94444f9fa2a77p-5
1756=0x1.2f0522f3f261cp-3
1757=-0x1.e66016fdfb0eep-2
1760=0x1.315947779986cp-1
1768=0x1.10b89470f56cbp-1
1778=-0x1.22de017a9886p-12
1780=0x1.9ab64ebc2e04p-3
1790=-0x1.cf32139d04137p-11
1792=0x1.6da540960a78dp-3
1802=0x1.8ae1ae0f90fa4p-5
1804=0x1.9b9c78f982378p-4
1813=0x1.249527e13ad1cp-8
1814=-0x1.f9fa5d3f4513cp-6
1820=0x1.43f9ed12928aep-3
1825=-0x1.4993830f18671p-8
1832=0x1.23d89ef8f1e83p-4
1838=0x1.5add7f9719956p-4
1848=-0x1.51bc21abb4904p-3
1850=0x1.ab301ee95ee8bp-5
1853=-0x1.f2adba8a9d6a6p-3
1856=0x1.8f65dc62ffd4bp-4
1860=0x1.924a46eeb7dabp-5
1861=-0x1.140dd1704e24fp-3
1862=0x1.86265b7ef5f76p-6
1867=0x1.4a5c13b0cf2b4p-5
1873=0x1.e0db0e14be816p-5
1874=-0x1.54e4ec2d46c12p-5
1885=0x1.18892e43c29b6p-3
1886=-0x1.2e4e9ab35d35p-4
1896=0x1.0cbe6526f4dbdp-4
1897=-0x1.faad46426583p-7
1898=-0x1.4c10f6d7f2284p-10
1903=0x1.b556eda37bf48p-6
1908=0x1.28b1f1b7a16bp-1
1920=0x1.b348f56c66e15p-17
1933=-0x1.878cf4283aac6p-7
1945=0x1.54d8dbcf18797p-2
1946=-0x1.786fb18d0b019p-6
1957=0x1.7f3d91f71853cp-8
1969=0x1.327aadbe092dap-3
1970=-0x1.4016969ad0ecep-6
1981=0x1.15a65c8c33e41p-18
1982=-0x1.3a653821bc258p-7
1988=0x1.08c17f98aa956p-1
1993=0x1.7d5ad50c43e2fp-5
1994=-0x1.ee1645dbcc4cfp-8
2005=0x1.8fbcfdb437f21p-5
2006=-0x1.b4036da834d9dp-7
2017=0x1.97d61e9d1a30dp-3
2018=-0x1.bf61b402d1dep-8
2029=0x1.8efb9ab54b842p-6
2051=0x1.85530b6c2d2abp+0
2052=0x1.db09d69ed7dbcp-3
2053=0x1.721d44401b0f4p-6
2054=0x1.d37a3c73edd74p-5
2056=-0x1.093366d28446cp-1
2059=0x1.f0ecf1d1a45b1p-4
2060=0x1.87c6a9e3a2ab2p-6
2065=0x1.40040d25ff99dp-5
2079=0x1.a0967754f63c6p-2
2089=0x1.d06efcdf1d2ep-11
2101=0x1.385cee03779d9p-4
2102=0x1.930aa08367b2bp-8
2107=-0x1.da91a7222b89ap-11
2108=-0x1.b7239cd41c349p-3
2114=0x1.8e279d7d03035p-1
2116=0x1.ad6afebe391ebp-2
2117=-0x1.a592fb3125021p-5
2120=-0x1.3ccaf9f0e8b4cp-2
2125=0x1.967cc869f0632p-6
2126=-0x1.dba454c3e2df1p-4
2137=-0x1.df6bac78f9382p-6
2138=-0x1.19d4030536479p-2
2140=0x1.531bf1f581a49p-4
2141=0x1.cbc966748a531p-4
2142=0x1.2706a6757c4f2p-3
2143=0x1.30d1af34761fep-2
2145=-0x1.63ae58497912dp-5
2151=0x1.ab15ab84c99ddp-2
2161=0x1.02bb22315ca05p-2
2162=0x1.9067c14a3853fp-3
2167=-0x1.33fd1ca3064cp-4
2168=0x1.48b2c86386214p-3
2173=-0x1.7557bcad5c816p-9
2174=-0x1.c6c3e3b5d55bbp-8
2179=0x1.6152f3fc9e631p-4
2185=-0x1.4aa9200a9658dp-9
2197=0x1.dbc944ed3aecfp-6
2198=-0x1.e11da148e2c31p-11
2210=0x1.d7b4e92816d84p-2
2222=-0x1.1d07d3e96b70ep-3
2223=0x1.85d30c9a6d709p-2
2233=0x1.0048d3312ed2p-5
2234=-0x1.117304ad12306p-10
2245=0x1.065c52c0c13e6p-2
2246=-0x1.cc977fc69bb54p-5
2257=0x1.d702d8b4d933cp-11
2258=-0x1.18a31307daa1cp-3
2269=-0x1.082d0a4585eabp-5
2273=0x1.ca0da23dfa821p-3
2281=-0x1.2d6de82cc2615p-3
2284=0x1.41018ab96a4c7p-6
2285=0x1.091cce28d6521p-1
2286=0x1.909e29f5b87dfp-4
2293=0x1.b0c5f9b50df36p-16
2294=0x1.9429b6d75d849p-10
2297=-0x1.502d52b79ba92p-8
2298=0x1.fa44ce9ad86eap+0
2299=-0x1.0750e6bdde82ap-6
2300=0x1.cbf6d37dc5bd7p-4
2301=-0x1.d61d70e0321edp-2
2310=0x1.53449902840c3p+1
2313=-0x1.07cfe23e2161bp-3
2316=0x1.8f9a54c99430ap-2
2318=-0x1.0d08b660fab5ap-8
2330=-0x1.37639d0f9bb65p-2
2335=0x1.192bf11fffa3fp-2
2336=-0x1.a1a867c7928b4p-10
2347=0x1.19ed6a0b3554ep-7
2359=-0x1.1bfade6f0dda3p-11
2365=0x1.024f97a87a5fcp-7
2377=0x1.d1cc27de90b08p-9
2389=0x1.33697843aaa89p-4
2390=-0x1.b1896231832bfp-7
2402=-0x1.1fd6466a722f1p-6
2412=0x1.a450e907e1fdcp-1
2425=0x1.b721bb1323a4ep-7
2438=-0x1.5b63276435a59p-10
2449=0x1.3bca4ff4328b4p-5
2450=-0x1.ac538a0628da9p-10
2461=-0x1.46dbfcca6ed38p-9
2462=0x1.1f7a22be4c87cp-4
2467=-0x1.f595f98ce6b1bp-4
2468=0x1.5a2c0c5155375p-3
2472=-0x1.3e0d3d06cf581p-6
2473=0x1.f1ca293d34b9cp-6
2474=0x1.fb83b05fa675dp-5
2480=-0x1.e55ea29d7459bp-15
2484=-0x1.1b7e0b4619953p-6
2485=0x1.97a89afb356c3p-3
2486=0x1.fddf922f80c0ap-6
2497=-0x1.44a40c1266334p-13
2498=0x1.67099e1c9433bp-13
2509=0x1.fc4f0dffc156dp-4
2510=-0x1.8cfc91d7fc568p-5
2521=-0x1.040822369dbbcp-9
2522=-0x1.0e9649e53c091p-10
2525=0x1.19ea77ec97a34p-2
2532=-0x1.a3b59c5ccff6cp-15
2533=0x1.41a3e7faf3c2ap-5
2540=-0x1.49ebc13f16dd2p-7
2545=0x1.8bf650ace15e5p-5
2556=0x1.4435a9c3bd312p-2
2557=-0x1.099a329d85878p-1
2558=-0x1.29ce74349c831p-5
2563=0x1.d2f75b032caf5p-2
2564=-0x1.0c04a6d8d59eap-3
2568=0x1.5b7febe67e5cdp-4
2569=0x1.d233125e37f35p-6
2570=-0x1.eccc838b4ddbdp-4
2575=0x1.708590ce4e624p-3
2581=0x1.572e4b36866a1p-2
2582=-0x1.ebbd30745fefp-4
2593=0x1.a602458c5a94ap-10
2594=0x1.36fa84674214ep-5
2600=-0x1.c8a0cba511e44p-8
2605=-0x1.b7862ac81bed6p-9
2606=0x1.8f189ba801e76p-6
2609=0x1.9fc2dae80afebp-2
2612=-0x1.a5412e2646cc6p-6
2620=0x1.1443a382debdp-15
2636=0x1.e4bb1ebc8bca4p-4
2642=0x1.c2cb37299b2dbp-11
2648=0x1.2a9d96a272bacp-7
2653=-0x1.a6007fe733ac1p-6
2654=-0x1.6e46fad6f6336p-8
2659=0x1.d99ca6d84ee8ap-10
2660=0x1.5973adb1f2659p-1
2667=0x1.dcf6849c37629p-2
2680=0x1.5719e95f3647ap-10
2689=-0x1.2d419d8e448b7p-1
2690=0x1.08592f4e31c5bp-2
2692=0x1.a5f65cc857d51p-1
2693=-0x1.d0e1b4e6ffbap-7
2701=-0x1.f6a07d97a901fp-4
2702=0x1.4da0e51066151p+1
2716=0x1.7bb6b92eb4737p-8
2726=0x1.8937b245846a7p-6
2740=0x1.fd09db8579f78p-7
2752=0x1.85227df9db7a7p-10
2762=-0x1.11ace435518a8p-7
2774=-0x1.57fe43df7eae1p-1
2776=0x1.857b7f7b27823p-8
2779=0x1.c95833e6df57fp-8
2788=0x1.72c86a0b9984cp-10
2800=0x1.a03bf461593d6p-10
2809=-0x1.ed6dabb571496p-6
2810=0x1.aa0ead8d76ba7p-6
2817=0x1.89bd2ecd4dabep-4
2824=0x1.a2d4d32e31c04p-10
2836=0x1.a2d4d32e31c04p-10
2848=-0x1.31dcf98a22241p-4
2856=0x1.ae2fd42a05025p-5
2857=-0x1.18aad04011bc4p-5
2863=0x1.0cca54752369ap-3
2870=-0x1.3052ecbd26242p-6
2876=0x1.1c8f733ce75f5p+1
2881=-0x1.4a88000d81e18p-6
2893=0x1.2c83c4fde8af8p-9
2894=-0x1.55ddb9805fbf3p-15
2905=0x1.07d44f6334fb6p-5
2906=-0x1.8c382086d8639p-8
2917=0x1.3db5d17626e25p-3
2918=-0x1.730442fb58ebp-8
2929=0x1.0cb3c77a8493dp-14
2941=0x1.c5b224729a57ap-7
2942=-0x1.3946c73a9b1b2p-10
2953=0x1.624a26b7c8f65p-3
2954=-0x1.12117a8210558p-7
2971=0x1.11f7eb879bd13p-4
2978=-0x1.5498f27f9445bp-1
2989=-0x1.7e0dd1dacfa5cp-4
2990=0x1.2cde12f7dfa79p-1
3003=0x1.2edae890ae1a6p+0
3006=-0x1.f780013e91636p-3
3013=0x1.30126cb7398abp-8
3026=0x1.ca0d40a0e00b8p-7
3028=0x1.5ac7b79bd5156p-8
3038=0x1.b7cd2db007782p-6
3050=0x1.538b5123ea9aap-5
3062=0x1.538b5123ea9aap-5
3074=0x1.c6d46148f7aa2p-7
3091=0x1.3b27e5d0fe7bp-5
3096=0x1.771ee7f7ca9e9p-2
3110=-0x1.c0a3c98295b6ap-7
3116=0x1.60377eb1f4fe2p-6
3121=0x1.b9429130ce509p-4
3122=-0x1.4dec8a8c36d71p-5
3132=0x1.0e3ec25146f0ap-3
3144=0x1.9e69305166022p-1
3157=0x1.3c99939744bp-4
3158=-0x1.db00dbaf30063p-6
3169=-0x1.dc141b96f8a4ap-11
3170=0x1.3ae73b4c18402p-7
3180=0x1.dc9ba2f4e9a81p-4
3181=0x1.86415ea5a7b4bp-5
3182=0x1.a549a78cad5b4p-4
3193=0x1.13a252bfab71cp-4
3206=-0x1.d1a9d460a7382p-2
3209=0x1.32f6f3247f149p-1
3216=0x1.ab0b006657102p-4
3217=-0x1.278d2310a448ep-5
3218=-0x1.04b5d63ee7435p-3
3223=0x1.8e8494f4609d1p-2
3230=-0x1.447bf130e4e2bp-6
3240=0x1.39faf621d2c5cp-1
3241=0x1.0a6d66e6807d1p-5
3242=-0x1.cb8e1682e2ccap-6
3248=0x1.3c3af7eb4e735p-11
3253=-0x1.bb0eefc0bf08fp-4
3255=0x1.07d4bd40689c6p-1
3260=-0x1.01507a088e15ap-3
3264=-0x1.782c09aa3e07ep-4
3265=-0x1.f2d7e0d1448b3p-5
3266=0x1.51fed3e729c8dp-3
3271=0x1.0ca77e06cf90cp-6
3277=-0x1.ac5ee5bbbbf34p-7
3278=-0x1.f447bf3f50a21p-4
3281=0x1.fba78f43d17c2p-4
3282=0x1.615af541a88dfp-4
3288=-0x1.a4a797479ee9bp-3
3289=0x1.3aaa8131ac8d6p-3
3290=0x1.3354f22a2d2c6p-3
3295=-0x1.a35144c274e9dp-9
3296=-0x1.10d1910073908p-3
3299=0x1.07fb9e39c7eadp-8
3303=-0x1.53bde57d206a5p-5
3306=0x1.1b7336c2e83c5p-1
3313=0x1.1843556e1968cp-4
3314=0x1.8066f38c46fe3p-5
3328=0x1.1e562c879e387p-3
3332=-0x1.3b78ac01121a7p-4
3338=0x1.07f35d2630716p-6
3350=-0x1.3d8f34c34a3bp-9
3353=0x1.44a6c702b8b96p-6
3362=0x1.fb52a4036658fp-7
3373=-0x1.f9cab1816eefdp-5
3374=0x1.7738c8bda676ep-1
3386=0x1.5fcc8d37d8fafp-6
3388=0x1.1caec154a591fp-4
3392=-0x1.991d7b90d653cp-3
3396=0x1.2d0ab579bf31fp-8
3397=0x1.4e54f72a7d39p-3
3398=0x1.584b7c63930adp-2
3400=0x1.e3061103b5fa5p-3
3401=-0x1.54c4fa138bd4ap-1
3403=-0x1.d34e9d1f46e9dp-2
3404=0x1.4a4d964a5581p-2
3410=0x1.c976f1618c4d6p-4
3420=0x1.44926bcb2c5b2p-7
3421=-0x1.540c1a7dd07ebp-6
3433=-0x1.16b90ce5c149ap-8
3446=-0x1.031069329f02ap-3
3452=0x1.58e4fa0486919p-2
3458=0x1.2bbf82d6e8ad8p-5
3472=0x1.8b4bd4acec1bbp-5
3482=-0x1.32ddd66b44ed6p-2
3488=0x1.a5e8b2add064cp-1
3494=-0x1.39681bedce6fap-8
3500=0x1.07952fa72f237p-5
3506=-0x1.fdc103d4c17fbp-5
3512=0x1.7e5c768fda763p-3
3518=-0x1.3e24477cc6af1p-4
3524=0x1.ab1317943db44p-4
3529=-0x1.ee92e4756431bp-10
3530=-0x1.52c9338df99fdp-3
3535=0x1.ccc1a639b6801p-2
3542=-0x1.148eca408a5c4p-6
3548=0x1.4b0240959107cp-4
3553=-0x1.53911885c7908p-16
3572=0x1.991edb7458008p-7
3578=0x1.c08bb0da1f72fp-2
3590=-0x1.1cef915f9c74ep-8
3596=0x1.25db65a9e657fp-4
3602=-0x1.3f225308d6951p-6
3608=0x1.598e55fa2cd9ep-4
3620=0x1.4f70a27498f87p-5
3626=-0x1.062552170c949p-4
3632=0x1.00d8adb94a371p-2
3637=-0x1.a35c5fed88333p-10
3638=0x1.f69420d7d3a98p-7
3644=-0x1.f9438f90ab7aep-5
3650=-0x1.e7d41e77fcf22p-11
3656=0x1.bddee3dc702e9p-2
3662=-0x1.05aa4160691f5p-2
3668=0x1.3aefe15b4fd65p-2
3674=-0x1.8e2107083556ep-4
3680=0x1.015221a0a0a72p-2
3692=-0x1.93ed2121f1e4dp-6
3698=-0x1.b258786bf9b1cp-6
3716=-0x1.5547a0755f32ep-6
3722=0x1.5f9c0e47e9a64p-3
3728=-0x1.5d79f4ad318fdp-4
3734=0x1.5f9c0e47e9a64p-3
3740=-0x1.5d79f4ad318fdp-4
3746=-0x1.2afede180cebfp-11
3751=0x1.5c2e4a967603fp-11
3756=-0x1.e24e2a6b1f155p-2
3757=0x1.9d680d3efe276p-11
3763=0x1.9f55dec43f75p-9
3770=-0x1.0778f916e8982p-3
3776=0x1.d14ba5f77c0e2p-3
3788=0x1.8a070b0de402cp-6
3794=0x1.d99b5e2e29ba4p-7
3796=0x1.3f5bd72c1bc8dp-2
3800=-0x1.1f1b8c61f30c5p-5
3808=0x1.3864d8030054fp-2
3824=0x1.f5e37349cbfbep-2
3829=-0x1.23b0b8a7578f7p-6
3830=-0x1.6654bd9a2e7e1p-4
3836=0x1.1e7dcffae3b46p-3
3848=0x1.d8aa488604818p-2
3853=-0x1.9d2bca7006067p-5
3860=0x1.05d7411a929dcp-1
3872=0x1.4e2c4be2f0425p-4
3884=0x1.b35b9f685de83p-3
3890=-0x1.e3320ed9e53d1p-5
3891=0x1.c69f8cd1b9d68p-8
3893=-0x1.5cc2c89113dfbp-4
3894=-0x1.93501873e88d8p-2
3896=0x1.15f5ed89c273ap-1
3908=0x1.0a34b41aa07bp-4
3913=-0x1.7c0f7c2438496p-7
3914=-0x1.9af281f8a4651p-2
3919=0x1.8b7ba26f5054dp-14
3920=-0x1.bde31aa719d84p-4
3921=0x1.99b73065d9fd3p+0
3925=-0x1.20f5db30465dcp-3
3926=-0x1.8f4c8291e36ccp-3
3927=0x1.159c4c781c951p-2
3929=-0x1.e91e4e0eb545cp-4
3931=0x1.2b9827c9ecfdp-4
3933=0x1.8dfb22b6b8277p-1
3945=0x1.06934c230f7c7p+1
3949=0x1.412502d826152p-5
3967=0x1.1ddd5a70b50c5p-3
3979=0x1.187141bfdf64cp-3
3985=-0x1.d4cca793274fap-3
3989=0x1.ad8b5e799137cp-1
3990=0x1.6ebc173e208adp+0
3995=-0x1.8d7a93a0f3704p-7
3997=-0x1.196ba371abcd9p-7
4003=0x1.0f6799771dc9dp-4
4004=0x1.281cf7d28644bp-4
4015=0x1.077891f4cbaccp-1
4027=0x1.dc85b2c020c4p-18
4033=-0x1.7ae41a8846642p-9
4034=0x1.25206dd28ba82p-4
4040=-0x1.80cea6e7922f2p-4
4044=0x1.ba7d5470634a1p-3
4045=0x1.09be8e8e1ea77p-4
4046=0x1.d7b7c4e94c3efp-4
4048=-0x1.8b959bb9694a2p-4
4050=-0x1.4d7225fac4fe5p-3
4051=0x1.7a04e7cfa0283p-2
4052=-0x1.263e4bd41d6c3p-7
4053=-0x1.8dc4fa69c52e8p-5
4058=0x1.94b3269647009p-8
4069=-0x1.59b8b4b978ad5p-10
4070=0x1.49fbbc23fef3ep+0
4076=-0x1.1d7d470747fdep-4
4082=0x1.34c5194869778p-6
4085=0x1.d42904f800224p-8
4094=0x1.fb7f598915a9cp-3
4106=0x1.1684340e91d36p-6
4118=0x1.1684340e91d36p-6
4130=0x1.1684340e91d36p-6
4142=0x1.d8884cae36154p-6
4148=-0x1.16b8064270cc6p-5
4154=0x1.048fb6c6fedf1p-3
4160=-0x1.8698f1cc45a7p-10
4165=0x1.14606d7d301e9p-9
4166=0x1.615c5bb765cb3p-6
4171=-0x1.0888da6c01d19p-2
4172=-0x1.9c84de5bd1764p-14
4176=0x1.b8ae5c4e7c40cp-6
4189=0x1.8540d668d70c6p-4
4195=-0x1.932db23797377p-7
4196=0x1.940092a17db0cp-16
4204=0x1.346a380d2fde2p-8
4216=0x1.16c228cc6295ep-5
4226=-0x1.136ec1084f1e2p-8
4245=0x1.7806974d6f551p-1
4249=0x1.9f2ec94b23ef1p-5
4250=-0x1.55451b58d364bp-6
4255=0x1.b8d685ed35688p-2
4261=-0x1.10ba0d1cdd848p-2
4262=0x1.3efefbdf72f8ap-1
4272=-0x1.0688c2aea2877p-1
4273=0x1.cd5747c0cb1eap-5
4274=0x1.f2373539278cbp-5
4284=-0x1.b355984e6d944p-1
4285=0x1.250069a1fa7e4p-2
4286=0x1.121f46dd9d5bdp-4
4291=-0x1.b5b4f2fa42a08p-7
4296=-0x1.af693327a5ccap-1
4297=0x1.28fcdbe426dfcp-2
4298=0x1.13ae86e6efd3ap-4
4303=-0x1.a8fd48bdd0a5ep-7
4309=0x1.2aa907de43c41p-7
4321=0x1.4250d061d706ep-6
4333=0x1.483f91d3b7053p-6
4344=0x1.f556b122a8a7bp-9
4345=0x1.1db1670ee674ap-3
4346=-0x1.4133695bb0abfp-5
4356=-0x1.1a5765d5bb3e6p-2
4357=0x1.d49e80978a936p-3
4369=-0x1.99bdf584c35e4p-5
4370=0x1.4c6ba86f7a7c7p-3
4381=0x1.8c399608cb34fp-7
4387=-0x1.231bd75096321p-6
4388=0x1.2974bb1506516p-2
4400=0x1.2d6bdf2f78977p-2
4412=0x1.00a768ad9442fp-3
4424=0x1.731f1ee29d80dp-4
4436=0x1.731f1ee29d80dp-4
4440=-0x1.ac288d7d04763p-1
4441=0x1.6042fb6105447p-3
4442=0x1.39303e2dd7792p-8
4447=-0x1.bb05411138b9fp-7
4459=0x1.139a216b37627p-7
4471=0x1.0ba20743bcd0cp-7
4483=0x1.05d700a114742p-7
4495=0x1.1d134f0e7cf9cp-7
4501=-0x1.758185a37fe79p-9
4507=0x1.0107bba38795ep-7
4520=0x1.cf8d605b7f593p-5
4531=0x1.148208c4caaep-7
4538=-0x1.fc49ab8e230ffp-2
4540=0x1.3cf90236fdc62p-18
4541=0x1.c5b71752d5ff2p-2
4543=0x1.d59d98406393dp-2
4544=-0x1.abeaf0cb8bde7p-1
4555=0x1.faa2252dca9fap-4
4567=0x1.20c786ac97fa1p-3
4579=0x1.0d0633761e6f2p-3
4591=0x1.b7e60038d26b8p-7
4596=0x1.2c1b7a225248p-1
4597=-0x1.8db4ae5161b38p-4
4613=0x1.2aef0ecfa261bp-2
4625=0x1.8117cb2e8307dp-2
4637=0x1.8117cb2e8307dp-2
4649=0x1.8a6de013d1d35p-2
4661=0x1.2bff853f29929p-3
4676=0x1.27c2438e4f21p-9
4680=-0x1.19f1232c61cdp-16
4687=0x1.470efd1fbdc43p-6
4692=-0x1.0564bdf8c2d8ep-8
4699=0x1.ee5be366440e2p-6
4704=-0x1.232154ec42479p-4
4711=0x1.73424e54a5cc3p-3
4723=0x1.e18c2de4b9fc5p-8
4728=-0x1.19f1232c61cdp-16
4735=0x1.470efd1fbdc43p-6
4740=-0x1.636cbedaef83ep-7
4747=0x1.b98b6dc11e6fep-1
4759=0x1.67223bcb3b12fp-10
4771=0x1.7e110f1623e31p-4
4776=-0x1.971486c9f1cabp-7
4783=0x1.492466b34f552p-2
4789=-0x1.2d7ef5e979894p-4
4807=0x1.f277a8b778d8bp-5
4812=-0x1.8a9f76eaa24f7p-8
4819=0x1.10b56a59f52edp-2
4831=0x1.27ac39a1ad121p-4
4843=0x1.6eb2886be0b41p-6
4849=0x1.29503c213c531p-2
4861=-0x1.4cb72ca0bfdfp-3
4862=0x1.946c56da26fe6p-9
4864=-0x1.2bd7d762d75fbp-5
4865=0x1.92829502b8f2fp-2
4867=0x1.b10bd297c8dbbp-8
4868=-0x1.29f4cf0acca55p-5
4872=0x1.bf7da32e1bc4cp-8
4885=0x1.3813d1063bdd7p-15
4886=0x1.ddb076469ebcep-7
4898=-0x1.4a23df40a5281p-6
4912=0x1.8b72126187a2ep-2
4913=-0x1.d71bebe8acc04p-4
4921=-0x1.76d01e3e37a4ap-16
4932=0x1.e8d7775935bc7p-2
4945=0x1.b084a6f8f6e05p-4
4946=-0x1.41eb668d7fac6p-5
4957=-0x1.8727884b8baep-9
4958=0x1.9f413c9c579d4p-13
4976=0x1.86e768150a658p-5
4980=0x1.74931f451e1a6p-3
4981=-0x1.dbcd4bc09112cp-3
4982=-0x1.0f038f9482d49p-2
4987=0x1.a8398dda22d9p-2
4994=0x1.93516cc466333p-3
5006=0x1.8e534d440a53fp-7
5018=0x1.a33701c637a7cp-7
5030=0x1.cf245973203b6p-8
5034=0x1.11beb74b8376cp-2
5041=-0x1.5e767517c00ap-8
5042=0x1.743c8fe6bd2c5p+0
5056=0x1.ac1d66d1d674ep-5
5065=-0x1.2614753406631p-5
5069=-0x1.5fde7791939fbp-3
5071=0x1.f91a6ea8a921cp-8
5077=0x1.09b63eac1641bp-3
5078=-0x1.13e38ba4926dbp-4
5089=-0x1.32d896e9f6379p-8
5090=0x1.cd0e5b96084fp-5
5101=-0x1.73141d517398fp-13
5102=0x1.c796a9286e358p-4
5113=-0x1.2a15816299d7cp-17
5114=0x1.25996f4f4c805p-17
5125=-0x1.e2403b34fee1cp-5
5129=0x1.479200cf223cap-9
5131=0x1.da65aa6723baep-1
5137=-0x1.3a1819107ceap-19
5138=0x1.0763569f2986p-18
5149=-0x1.28b61b34239p-21
5150=0x1.9f415a365b2b8p-19
5162=0x1.05f6692c3c6d5p-17
5174=0x1.100a8f15e82cp-17
5186=0x1.00c4f606d79a7p-2
5197=0x1.ec836734c2495p-2
5198=-0x1.990d5810c2cccp-3
5209=0x1.576a92e9ae179p-2
5210=0x1.0f2fdf71cdf97p-4
5221=0x1.09d29e78dcab9p-1
5222=0x1.2e9c44875daf4p-1
5233=-0x1.7cea2e2c8fffp-17
5244=-0x1.cbc9afb873bap-5
5246=0x1.ea50a37b5d09fp-5
5261=0x1.0725cf412df09p+0
5269=-0x1.6a04584dbc3ccp-5
5270=0x1.9260ad03f20e4p-5
5291=0x1.12d7da7a0c60cp-5
5293=-0x1.ca22fe80ca06cp-6
5306=-0x1.d71c4309e85c3p-9
5317=-0x1.b57d9cefad4ffp-5
5318=0x1.640c336738ecdp-3
5329=-0x1.011970383365dp-4
5330=0x1.21f698365ae8fp-1
5341=-0x1.f98eb0635079p-6
5342=0x1.6ffd8c9a9a384p-5
5353=-0x1.e0faa7273627cp-4
5354=0x1.45a801bca8baep-3
5365=0x1.d9295531d504fp-9
5377=-0x1.3ed662d50944ep-4
5378=0x1.0dbb15bdfbf6ap-3
5389=-0x1.a0dceeec55428p-6
5390=0x1.567bca1bc93a4p-4
5402=0x1.3861b1d2d7612p-3
5413=-0x1.d7a76d14dda27p-8
5414=0x1.4fe4c31763053p-5
5426=0x1.adf113671b4a4p-8
5437=0x1.65457c13d15f3p-3
5449=-0x1.475a024315d98p-11
5450=0x1.36d036bf1ba71p-8
5461=-0x1.b348ae832f992p-8
5473=-0x1.538b12a7624cep-6
5474=0x1.23d1733e8229fp-5
5485=-0x1.f0b96c2d7487ep-8
5486=0x1.50610741b222p-3
5497=-0x1.5cd51040b90ep-15
5498=0x1.6d977c459cb48p-8
5509=-0x1.9637a33e39856p-6
5510=0x1.bd24927812304p-5
5522=0x1.9244b0e8ab9d3p-7
5533=-0x1.81c3603c00d79p-5
5534=0x1.0f27e9d9ffb4cp-4
5545=-0x1.c622bd424dp-7
5546=0x1.74c29c3f293b9p-6
5557=-0x1.d23465579c704p-7
5558=0x1.7ce0f3ecef17fp-6
5569=-0x1.4313c5360e2abp-5
5570=0x1.c218bf4955a77p-5
5581=-0x1.e0304b5bba275p-6
5582=0x1.7952857154241p-5
5593=-0x1.7ce2bc990db98p-6
5594=0x1.00d339f698112p-5
5605=-0x1.747a3e195d34p-5
5606=0x1.93fc8710f3a7ap-4
5610=-0x1.e12053dbdc9dcp-3
5611=0x1.13967037a64edp-2
5613=-0x1.4dbda136e604bp-8
5618=0x1.3ad077533cff4p-6
5633=0x1.c055e7f4acc48p-3
5640=0x1.a5a86b63ce84cp-6
5652=0x1.9dd625077f6cdp-6
5672=0x1.675d115dfa157p-5
5676=0x1.bd50f9d3f453dp-6
5688=0x1.a5a86b63ce84cp-6
5700=0x1.a1a8621fe456dp-8
5713=0x1.c93614b194018p-4
5726=0x1.cf9b9a6bf01d3p-3
5736=-0x1.92500d70e796cp-6
5738=0x1.e5403430bafa4p-1
5756=0x1.0f09d56dc651ep-2
5762=0x1.972d014073dffp+1
5780=0x1.319242f242c63p-2
5792=0x1.0373258b95debp-3
5798=-0x1.51a18d8e44b48p+0
5804=0x1.06646b8fdba7ap-2
5810=-0x1.4dad61a594bfap-4
5828=0x1.e56c51732adfp-3
5840=0x1.47403c3850b86p-2
5852=0x1.47403c3850b86p-2
5864=0x1.6c187987fe8c6p-5
5876=0x1.bda33e8ca42dfp-9
5881=-0x1.4466401f2a81ep-5
5882=-0x1.ee26a9281c5a8p-5
5888=0x1.6abe8af86e117p-2
5900=0x1.a6116bf867d68p-22
5912=0x1.56d1add7dcf15p-9
5916=0x1.e52e76a2289d4p-11
5929=0x1.28a1d1f0772d3p-14
5940=0x1.2fde71884e361p-3
5941=0x1.28c7cd9e45b55p-9
5942=-0x1.2ce148b320f61p-6
5952=-0x1.9ab5f103d7c56p-5
5954=0x1.7bd67d704de78p-2
5964=-0x1.3880b3c2e0b0fp-5
5966=0x1.a3687a9161f3dp-4
5977=-0x1.27020cd6b03e5p-2
5981=0x1.6d9f6e25062a1p-1
5983=0x1.81e70a1faa57fp-4
5987=-0x1.9aa589e7dffdap-13
5988=-0x1.8f0a528467acp-27
5990=0x1.644a23bb7eb92p-11
6000=-0x1.8f0a528467acp-27
6002=0x1.644a23bb7eb92p-11
6013=0x1.1925c6e0c80d9p-3
6026=0x1.cc312313bd306p-6
6037=-0x1.327f0b5e00274p-4
6043=0x1.0fee36504d287p-5
6053=0x1.6bc7a1d838412p-1
6065=0x1.e2945c22acf57p-2
6073=-0x1.1cd4bfa48e84ap-4
6086=0x1.d41e1a243e07ap-5
6098=-0x1.0a9cb01224076p-9
6109=0x1.8383866c83deep-5
6110=-0x1.45ff95a53e7adp-3
6121=0x1.72bc1d32564fp-5
6122=-0x1.cb63c2ceed3b4p-4
6133=0x1.0e20a5096eb3cp-5
6134=-0x1.263c65bef79dep-5
6136=0x1.4f25cbb3b70d9p-2
6141=0x1.37f5f1074c126p-4
6145=-0x1.67cac44c76692p-4
6146=-0x1.20c72d61baaf4p-2
6148=0x1.9641add979ecfp-2
6160=0x1.370275c481f8ep-2
6172=0x1.8bf4e6a4af2ep-12
6181=-0x1.5e136b21908e7p-3
6188=0x1.5bfee1e506b0bp+0
6194=0x1.cc2787574a08bp-7
6205=0x1.263a11bdb4581p-12
6206=0x1.0cd18de044c61p-4
6224=0x1.dd40ecb645488p-2
6230=-0x1.d9bb5491217b5p-4
6236=0x1.df39577717003p-2
6242=0x1.cfe6eed9ca09ep-6
6248=-0x1.aeb10d52ae89cp-16
6260=0x1.fb77ed70c47cap-5
6266=0x1.6d33e50d5f38ep-6
6280=0x1.1e2b14bf7c0fbp-6
6284=-0x1.893a0f8e04349p-15
6288=-0x1.01f58a9f06b99p-3
6289=0x1.3dd41ea07de96p-1
6299=0x1.e5b754fd7752ep-6
6302=-0x1.2c146bc4be609p-5
6308=0x1.3343062aca85fp-2
6314=-0x1.c7b5d0faaad79p+0
6316=0x1.18aaddf1417bcp-9
6320=0x1.f2f4496386743p-5
6327=0x1.3bc3c6f324c49p-1
6345=0x1.24bab99d5bdecp+0
6356=0x1.670a6da38dc88p-6
6361=-0x1.1aace47a898d2p-14
6362=0x1.4f9602944e759p-3
6368=0x1.88dce4f580762p-7
6374=0x1.c1fba135ea1c8p-7
6385=-0x1.8f1c833dda626p-3
6386=0x1.58dd84bd21486p-3
6398=0x1.3578664c1d441p-8
6404=0x1.85e2ac65e0fdfp-4
6410=0x1.249ac0dc0596p-2
6422=0x1.f78a7fb009d0cp-10
6428=0x1.f3ef0f48defddp-9
6440=0x1.4545a720d3244p-8
6446=0x1.22926ed45f618p-5
6458=0x1.22926ed45f618p-5
6470=-0x1.6b5428cb062a6p-3
6476=0x1.5acf10c25bf29p-2
6481=-0x1.04a3743651646p-10
6488=0x1.4f03eeb997a62p-4
6494=0x1.c9cbc916fdb22p-9
6500=0x1.064e0bf89e13dp-4
6505=0x1.3dea0a9fe81f4p-7
6506=-0x1.d13ab94fba779p-4
6512=0x1.a777e9e0183aap-2
6517=0x1.3dea0a9fe81f4p-7
6518=-0x1.d13ab94fba779p-4
6524=0x1.a777e9e0183aap-2
6529=0x1.c819696b2ac36p-6
6530=-0x1.5c1b911e1a5aep-4
6536=0x1.5e095a36d4ab6p-3
6542=0x1.6e8b0e0782e4cp-7
6554=0x1.09fa165216e87p-4
6572=0x1.f63c0f2f79a2bp-2
6584=0x1.f63c0f2f79a2bp-2
6590=0x1.e042fef48246p-17
6602=0x1.689811230f26ap-10
6616=0x1.a1449c5eed59dp-2
6620=-0x1.847b098df663dp-3
6626=0x1.214a41d1c0a79p-7
6632=-0x1.682e09c56a08p-5
6638=0x1.257299bcfb38ep-3
6640=-0x1.6f63bdd3db395p-13
6641=0x1.44d9128d5cefcp-2
6644=-0x1.99e1eb17d5629p-4
6650=-0x1.861fa56af91f5p-14
6652=0x1.ded1afe70a43dp-4
6662=0x1.afdd256fa32ccp-2
6668=-0x1.b15dbbcc1b595p-3
6674=0x1.e8bf34628a9a2p-4
6680=-0x1.3f56af2179448p-5
6688=0x1.777d7babbe611p-6
6700=0x1.650e41ff3f6c2p-6
6710=-0x1.a30bbab50efb6p-3
6716=0x1.a36e540c0e837p+0
6722=-0x1.27da4f21d202p-10
6728=0x1.2985a009207dap-4
6734=-0x1.27da4f21d202p-10
6740=0x1.2985a009207dap-4
6752=0x1.7903a5a27e051p-4
6758=-0x1.27da4f21d202p-10
6764=0x1.2985a009207dap-4
6770=0x1.b931e94ebf8a7p-4
6780=-0x1.11bc0f07fbf9fp-11
6782=0x1.0ab395bc3cdb8p-3
6794=0x1.8d76f6930b65ep-4
6800=-0x1.12ec0256ef21bp-6
6805=-0x1.ac5857d27581fp-3
6806=0x1.f6ead6afc0f96p-5
6809=0x1.779cff28f1366p+0
6812=0x1.dac143538c973p-4
6817=-0x1.647ce67e72bcp-6
6818=0x1.48886df386013p-4
6824=0x1.1b75fbff21119p-4
6830=-0x1.97e980c1bbe41p-6
6836=0x1.65de8827a34d6p-5
6842=0x1.9c87d6c519073p-7
6848=0x1.5428aabd544b4p-7
6854=-0x1.9b7ed4c7e4c01p-4
6860=0x1.562fd9c414b47p-1
6872=0x1.a77f0480f3fb8p-5
6878=0x1.a761bd8b798c7p-4
6890=0x1.a761bd8b798c7p-4
6902=0x1.a761bd8b798c7p-4
6914=-0x1.9065ecafa1dbcp-8
6920=0x1.090cee363cc89p-4
6932=0x1.44a8923f0f228p-5
6936=0x1.aed323695e01p-5
6950=-0x1.befa8079622c5p-6
6956=0x1.51dabee2eba26p-4
6968=0x1.7de69bf28c40ep-5
6980=0x1.8a08d248999e6p-5
6992=0x1.b26403adeeb13p-8
7004=0x1.b050b59d36aa5p-6
7009=-0x1.9020778e6049bp-6
7010=-0x1.73b0a0d144847p-7
7013=0x1.4be6779976257p-1
7022=0x1.911674e9e1f73p-1
7032=-0x1.487a86520056ep-4
7034=0x1.2589e70e41ebp-4
7043=0x1.4b152d189d448p-5
7046=0x1.b66843a37de57p-8
7052=-0x1.11f69aa52b4bfp-9
7058=-0x1.06f849c370cfap-4
7059=0x1.185ea251e11a1p-5
7069=-0x1.7081065d07293p-5
7073=0x1.77ad0b7dd8f88p-5
7082=-0x1.1848449ca8f3p-12
7094=0x1.76a1d39404611p-4
7106=0x1.ef52cbd8f7dd7p-9
7120=0x1.0fa8996c354aep-5
7124=-0x1.6a9fd6bb3a999p-7
7130=0x1.05a25ca1d45d6p-3
7142=0x1.d3274e0e7d2fdp-4
7154=0x1.4e0605e0fc182p-1
7160=-0x1.749599369389fp-5
7166=-0x1.72b6196382ec7p-5
7180=-0x1.d51cf318cf47cp-8
7184=0x1.bf06f29bc782ap-6
7192=-0x1.3c98297f6b39p-7
7196=0x1.10c2847b4d299p-8
7204=-0x1.cf0b28fcc5ff7p-10
7214=0x1.6223a9115746bp-3
7220=-0x1.5fc7464197fffp-5
7225=0x1.400f30af3f7f9p-2
7226=-0x1.956eedccb1f5p-9
7238=0x1.5a680725a16d7p-2
7250=0x1.5e07d84f1c1dap-4
7261=-0x1.b288dcdd5d25p-4
7273=-0x1.af0fc1ef8770bp-4
7277=0x1.d2defe4a7c95fp-5
7291=0x1.0ff72c5cb0d27p-1
7297=-0x1.dfca8385a7785p-5
7304=0x1.c32881f696988p-2
7316=0x1.54fbd6c2cd9ffp-5
7324=0x1.13bb4df96c078p-1
7325=-0x1.8b55418a1d394p-3
7327=0x1.34144e51cbc2p-2
7340=0x1.8aa8396ffddcep-4
7352=0x1.00f6d45f0cbfbp-2
7364=0x1.009ad3f8a008ep-1
7367=0x1.a7431dc7cbcf4p-6
7369=0x1.3673c78f3ee55p-3
7372=0x1.40d799a636ec8p-4
7388=0x1.e70de1ba3d858p-2
7400=0x1.f00d69b6b26ebp-2
7409=0x1.f5744059f56c5p-5
7421=0x1.d1ea510a1614ep-5
7430=0x1.a13f736ccc36dp-3
7441=-0x1.323a32cf76228p-4
7456=0x1.63d4a8ce8714cp-3
7468=0x1.3dc0dce1cedb8p+0
7477=0x1.cce3152c70d21p-3
7492=0x1.f707dae5d4d88p-10
7509=0x1.3a8fe09e3f966p-12
7512=0x1.7a610d4887434p-2
7513=0x1.5fe4691eddfc2p-7
7514=-0x1.a08711bbf7378p-6
7524=-0x1.4a2c6eca860d9p-6
7526=0x1.1cba68c18d3b5p-4
7538=-0x1.545402d36534ep-8
7544=0x1.b08fcba0b8738p-6
7550=-0x1.aa902f06d4b27p-9
7556=0x1.d1d790f314b62p-5
7562=-0x1.cc20dde7fece5p-8
7568=0x1.795b7ec21a78bp-6
7573=0x1.37a57753a7a43p-2
7585=0x1.78f90b8a5a4f2p-5
7592=-0x1.5656adcc6287ep-6
7604=0x1.1ec8ae31e247ep-7
7608=-0x1.7a0028dac494cp-8
7609=0x1.a716d582341bbp-7
7610=-0x1.68c20a5c34c75p-3
7613=0x1.b3523578cfc22p-2
7615=0x1.6f81fa6d43138p-3
7619=-0x1.8d1d99905c476p-16
7620=0x1.42b798cefb9bdp-1
7622=-0x1.911173794c5abp-4
7632=0x1.f77defa6722e8p-9
7634=-0x1.0f327ddf4808p-2
7645=-0x1.9b5a5cff60af6p-6
7650=0x1.160ed78f76335p-4
7651=0x1.0575d90554f5p-7
7656=0x1.2f46f6818eb4bp-2
7657=0x1.24ab9f8b1b2ap-5
7658=-0x1.137ab0553c44bp-2
7669=-0x1.b96a095ef911bp-3
7670=-0x1.d445665b8c2cp-12
7675=0x1.70793ef77ebfap-8
7676=0x1.8fb5a40efc3ebp-4
7682=0x1.bdbafcb863d7ap-10
7684=-0x1.5b35b5069340dp-4
7685=0x1.429ee8ff3ef4bp-3
7688=0x1.a58aeda8104a2p-4
7692=0x1.04b271f47ae2cp-2
7694=-0x1.a0911a36ea10bp-5
7699=0x1.09e6e435a45e9p-3
7700=-0x1.446a9c7770176p-3
7707=0x1.8139940c47f2ep-2
7710=0x1.9f7cfbdf76ab1p-5
7712=-0x1.10c0d4b17fb59p-5
7718=-0x1.9474427458da7p-1
7723=0x1.33b517266a4ap-6
7728=0x1.0b6212b3c1f8ap-2
7730=-0x1.58e160a92538p-2
7735=0x1.14dccc67c9bffp-2
7742=-0x1.831f0b338bb8bp-3
7747=0x1.74f9e98264cb6p-4
7759=0x1.0c3e8be5a6f5fp-1
7766=-0x1.12d41e96a90ddp-3
7776=0x1.b1dd8f40e2ff1p-6
7795=0x1.951b39a593247p+0
7800=0x1.e662d929914edp-2
7820=0x1.e624f0e4279f6p-4
7832=0x1.cde4413c37b24p-6
7844=0x1.4a6c93f0be788p-7
7850=0x1.3783e6f64b53dp-4
7862=-0x1.b12cf84590084p-6
7868=0x1.d728c7a1e9a47p-3
7880=0x1.45b1f7e0aea52p-5
7894=0x1.4d26ca43a1d19p+0
7906=0x1.4d26ca43a1d19p+0
7918=0x1.4d26ca43a1d19p+0
7930=0x1.9432aefb613bbp-2
7934=-0x1.0cfcb283d3475p-3
7951=0x1.54acdd779e516p-8
7957=0x1.d091bf7d568fep-8
7975=0x1.0cdc9b4e7dfe1p-6
7982=-0x1.8fb5a4814c407p-5
7987=0x1.6c2540516dfep-3
7994=0x1.bab51c70ae082p-15
8000=-0x1.940f8db081218p-5
8009=0x1.aa7ad848c739ap-2
8012=-0x1.fc3eb7b7106e1p-6
8018=0x1.ebcc16c6bebf4p-7
8024=-0x1.6ac86b38f6149p-11
8036=-0x1.d1de7d1f7cebp-7
8044=0x1.ae4a1ed1baedfp-1
8057=0x1.a65ce7d24b915p-9
8069=0x1.9009bc584099bp+0
8077=-0x1.85b9cd9d04562p-3
8078=0x1.c9a761948c299p-3
8090=-0x1.0c172bf98a03cp-6
8096=0x1.62ef8854e7508p-2
8102=-0x1.5ca3acf695444p-11
8108=0x1.6485d2e3f1bap-6
8120=0x1.fa6f1d74fd058p-12
8126=-0x1.32970089b982fp-4
8132=0x1.d07aa44b26365p-4
8138=-0x1.9663a22c39652p-7
8144=0x1.3a5cf9c06e6b3p-6
8150=-0x1.3c6ebb4e59eecp-6
8156=0x1.35a63d8944e4cp-5
8168=0x1.02ef3645efe84p-5
8179=0x1.1f290691a2dd1p-4
8192=0x1.d375f954f23afp-5
8203=0x1.130570264959dp-2
8204=-0x1.17fafa67d5d44p-5
8215=0x1.110e0cc571f2cp-3
8216=-0x1.7f6f75666e5p-22
8227=0x1.34a1e40edcb02p-3
8228=-0x1.be72f79fc79c7p-7
8239=0x1.3c90f4814b61dp-3
8240=-0x1.934c8574290d5p-7
8251=0x1.1294e6223321cp-4
8252=-0x1.68a41723226e2p-11
8263=0x1.500fc97fa3d95p-3
8275=0x1.2d994ed41ef04p-2
8287=0x1.1d0c19a45050ep-4
8288=-0x1.2405c201ccfdp-16
8294=-0x1.33022946fcc9ep-1
8299=0x1.a1a8a46677479p-3
8311=0x1.25d77329165dap-7
8318=0x1.86d42b62ab8c6p-14
8329=0x1.1bee1f7f7eaa1p-3
8336=-0x1.b10a57a1884dcp-5
8342=0x1.e37c20a7551ecp-8
8353=0x1.b800f7b1239a6p-9
8366=0x1.7fdb095d47bfap-8
8378=0x1.764a4608199a8p-3
8384=-0x1.b6bc9e43e05ddp-6
8390=0x1.afbbee7b2ca6fp-9
8396=-0x1.2ea281844cf24p-13
8402=0x1.09e55b8415dbfp-8
8414=0x1.15718f0855c7p-10
8426=0x1.ef1cc492b2aa6p-7
8432=-0x1.8e02d44330ddap-7
8436=0x1.11eb9202dd10bp-1
8438=-0x1.e693645bab82ep-4
8459=0x1.286a3987bfb2ep-5
8462=0x1.fc392bdde00dep-7
8474=0x1.3daff7b6d18c2p-4
8484=-0x1.576766206073cp-5
8485=0x1.1538bcce983cp-4
8486=0x1.20265eb2d57cp-11
8491=0x1.df0fac9d7a561p-8
8498=0x1.ac4210744225bp-7
8510=0x1.032fea5b3dc37p-4
8522=0x1.d25c53a03a7cep-6
8532=-0x1.d0dbaa4ca569p-16
8534=0x1.8e9d7a78abc27p-4
8546=0x1.4edc6f1921b66p-7
8564=0x1.4050245006539p-2
8569=-0x1.2248ff05bd79p-15
8570=0x1.cc417914c3e47p-14
8582=0x1.0af84c0adbd4p-21
8593=-0x1.75dba44fbea04p-5
8594=0x1.46e1a3c29bc28p-1
8606=-0x1.a09b51bcac6dep-14
8612=0x1.707342efa5e61p-4
8618=-0x1.373f4aae4899p-11
8630=-0x1.a3babf3c71b3ap-6
8636=0x1.8a37fccac893p-3
8641=-0x1.52e309c6c24acp-6
8642=-0x1.dc7f0af9a70e2p-1
8643=0x1.581ddec6e0f3fp-2
8648=0x1.3aa5806b66d65p-3
8658=-0x1.2c95a170d376ep-7
8661=0x1.61217a92496cfp-1
8666=-0x1.0040634b2a5d7p-1
8667=0x1.36f044b168cb1p-5
8672=0x1.87a954425102fp-6
8676=0x1.d7d0a0bc2bb85p-6
8689=-0x1.31f836460b775p-15
8690=0x1.3859414427c66p-13
8702=0x1.a6de4d7ed43cap-17
8716=0x1.040c1dd30906p-3
8724=0x1.5ee574d93b7dbp-6
8731=-0x1.1ffb136118a4bp-9
8738=0x1.77650f09d5006p-10
8744=0x1.79e7a715d9af1p-7
8750=0x1.0e13dbd8074fcp-3
8761=0x1.6d3081cb87bccp-3
8774=0x1.848d302772798p-4
8786=0x1.95cdbcabe6ddcp-1
8788=-0x1.46212a8b7cb91p-6
8798=-0x1.461f322bc236cp-11
8800=0x1.669183d641cd4p-4
8810=0x1.12ccaf7632408p-4
8812=-0x1.a2975d7e79b81p-7
8822=0x1.49eb76bda900ep-11
8832=-0x1.54f062c1db397p-5
8839=0x1.af2f0d32ede32p-1
8846=0x1.8ae44e552b0f8p-14
8858=0x1.b8f17e51b9551p-13
8870=0x1.b63fe01e708d6p-4
8876=-0x1.6b419aa81ee36p-12
8882=0x1.aa2553881dba8p-7
8888=-0x1.55fa6e3b188e3p-15
8893=0x1.0e77aa609c589p-9
8906=0x1.0f1e2dbbae4bdp-7
8918=0x1.466903fa8a25cp-7
8929=0x1.7157d9c1357fdp-6
8940=0x1.cc53ae304e976p-1
8942=-0x1.88a33e3535572p-5
8954=0x1.8cf6f7e61a392p-2
8968=0x1.19102aabb3015p-2
8980=0x1.8ae4bdb3dac33p-2
8992=0x1.134333b94e822p-6
9004=0x1.c982e29989c3ep-6
9016=0x1.a4fa0792e406cp-2
9032=0x1.8e5dc6cfe29aep-4
9037=0x1.661db1db60cb9p-6
9038=-0x1.f2268bbcd2729p-16
9055=0x1.08958a079a851p-5
9061=-0x1.86175f8fef0e4p-5
9065=0x1.13b099c2db88cp-4
9076=-0x1.eb0cb213f8513p-7
9080=0x1.698d6bb3e27bap-3
9092=0x1.eb7f7a0b0b202p-3
9097=0x1.31a6d962a823fp-4
9098=-0x1.81d4f1f049097p-7
9110=-0x1.212e47bdd3f16p-3
9122=-0x1.874736a6cb883p-4
9140=0x1.1e5bacae139c8p-4
9153=0x1.d07b6bf3ff9eap-4
9155=0x1.b07492c4a7024p-2
9160=0x1.0aadf30346d8p-5
9164=-0x1.4de56f30fae26p-8
9172=0x1.1a7962dfe66b4p-5
9184=0x1.1a7962dfe66b4p-5
9192=0x1.899a3af0b7346p-2
9194=-0x1.a7d0722c1fdabp-4
9204=0x1.a5482b8c960e5p-3
9206=-0x1.1635816675763p-6
9218=0x1.d5853df88bb88p-6
9235=0x1.50369e82075c6p-3
9240=0x1.39dc272fdcfccp-1
9242=-0x1.4cf34f2807f83p-4
9252=0x1.50d7d34d7c187p-5
9254=-0x1.8483947a2cb42p-10
9264=0x1.437b511028a9p-5
9266=-0x1.ae0140ae005dp-12
9276=0x1.3e27e6745cd8dp-5
9278=-0x1.1431273f66dfap-8
9288=0x1.b7d42195d18a4p-5
9290=-0x1.54465944f3c5dp-7
9300=0x1.50d7d34d7c187p-5
9302=-0x1.8483947a2cb42p-10
9312=0x1.437b511028a9p-5
9314=-0x1.ae0140ae005dp-12
9324=0x1.eb26a71209a0bp-6
9326=-0x1.2f2aa71b03c3cp-10
9336=0x1.41baf0b55c7f5p-5
9338=-0x1.67a29e6e22d19p-8
9351=0x1.8310aae81fc13p-2
9360=-0x1.1334173415f17p-7
9362=0x1.bd16a56cba7a9p-4
9374=0x1.6d06677d0dc2ep-9
9386=0x1.00e41d61ae792p-16
9398=0x1.5626f535fab98p-15
9409=0x1.eacf4be12a772p-5
9410=-0x1.86898ccbd2015p-8
9422=0x1.65d9252cddbcdp-9
9434=0x1.1546377d658d7p-9
9446=0x1.676b98f6ecca3p-9
9458=0x1.f04b7f18bfecp-10
9470=0x1.f04b7f18bfecp-10
9482=0x1.c5f670ae4c7c8p-7
9486=-0x1.6544ac0df91f5p-3
9488=-0x1.8cb923e31032ep-9
9491=0x1.7564b52d8fec6p-2
9492=-0x1.2a7a2513fedcbp-14
9499=0x1.98099fe40d148p-2
9504=0x1.31e4d3c51b3c7p-3
9505=-0x1.0f3acc99b754ep-4
9506=-0x1.c97cb7e176758p-4
9511=0x1.773c924ef7892p-3
9517=-0x1.253fba29b77b2p-5
9524=0x1.fe0752a71b659p-5
9532=0x1.195983e08e4b9p-3
9541=0x1.c9b27342c9de4p-5
9542=-0x1.a032aa928b2d7p-5
9548=0x1.2e7b800c0b32p-7
9554=0x1.6cc0f80e5382dp-2
9565=0x1.fd5c5ebda6711p-6
9571=-0x1.ba79ac825ba9fp-9
9585=0x1.29b326b55542ap-6
9593=0x1.c4a4acd92487bp-5
9609=0x1.3b916ff20c51p-6
9621=0x1.4e5a76ebdbeefp+0
9633=0x1.03a767c2bc458p-6
9645=0x1.80121ab4bcd79p-6
9657=0x1.8d58587f3dcb7p-6
9661=0x1.eca7dfb1b7411p-4
9662=0x1.5cc752798a80bp-6
9668=-0x1.e696ce936c398p-6
9681=0x1.8d58587f3dcb7p-6
9693=0x1.8d58587f3dcb7p-6
9698=0x1.2e47ec23c869ap-4
9703=-0x1.943bca07bd3e4p-2
9705=0x1.165c1c5c39a57p-6
9717=0x1.85644f1b98ae8p-6
9729=0x1.8d58587f3dcb7p-6
9732=0x1.d693aa3785445p-4
9744=0x1.630eefd6debebp-3
9751=-0x1.576de4bed9456p-13
9758=0x1.32cea6bdf4dcdp-3
9769=-0x1.8f2da648b176dp-5
9776=0x1.1efea35f403fap-4
9782=0x1.38555de8d55fap-8
9793=-0x1.954348b3b6709p-4
9806=0x1.2e3418008ad86p-7
9824=0x1.77f6b9fedfff1p-8
9836=0x1.77f6b9fedfff1p-8
9841=0x1.433a72dd1d594p-4
9842=0x1.3918647815de4p-13
9854=0x1.4547bb5a193cp-8
9872=0x1.13b40bdbc9b75p-5
9878=-0x1.10dcf6901a5b9p-8
9884=0x1.342e7bef77074p-5
9890=-0x1.3fe75fe3cfd08p-4
9896=0x1.6971b66f53ff1p-2
9901=0x1.21dcdcdee5931p-3
9902=-0x1.1ff26f555427ep-7
9914=0x1.e418793ccbcep-6
9920=-0x1.43e1a8d7c3ca2p-10
9928=-0x1.51a0857bb847fp-3
9929=0x1.182c067a5307fp-1
9943=0x1.3be4afcf5162bp-4
9955=0x1.2376c92c6e5f7p-2
9956=-0x1.c77f1fc8de6eep-12
9960=0x1.03f4b89ae5feap-2
9961=-0x1.8dd6f3cd8a3b5p-7
9967=0x1.5d95db14f8e75p-4
9974=0x1.53d7879ddaf15p-3
9992=0x1.bfba958121428p-10
10004=0x1.6637c806f3a72p-1
10016=0x1.f864c44b1d9e4p-5
10022=0x1.caac330b7300ap-9
10034=-0x1.9565bc4497c9cp-4
10040=0x1.22fc69ce3cc65p-1
10046=-0x1.079dba41d7cbfp-9
10064=0x1.1204730aae581p-9
10069=0x1.42c3b38f63f57p-3
10082=-0x1.b6ca39ef85de2p-11
10088=0x1.e577d941c31d8p-10
10092=-0x1.4d79b2335e667p-4
10094=0x1.7a3b11f30129ap-1
10106=0x1.e84a83eea6e73p-1
10117=0x1.df6d80df97638p-4
10118=-0x1.5301fa37a55b4p-4
10130=0x1.d5810d1199df8p-6
10141=0x1.ef56640508dd3p-6
10142=-0x1.dddaa75de573p-6
10154=-0x1.8679c01a1ef86p-4
10160=0x1.71a2877ca461ep-2
10172=0x1.0f1584cbfc1a7p-7
10178=-0x1.4a4681fcf473dp-8
10184=0x1.f62bf4fb5e939p-2
10190=-0x1.576ae5e58a0dcp-6
10196=0x1.7ce810938b36bp-3
10202=-0x1.88f4c95c02528p-7
10208=0x1.55c98cc73363p-3
10220=0x1.9e443036a985p-4
10232=0x1.086880de8002cp-3
10244=0x1.3175f59e9828fp-5
10256=0x1.8a56b2ece04a2p-4
10268=0x1.26ba5756dad2cp-2
10280=0x1.f094d33ca6402p-7
10293=0x1.4ab4b4e1a9588p-1
10295=-0x1.691feaf716d34p-9
10296=0x1.0744de74b06cp-3
10297=0x1.5a3a335a1d7c6p-4
10298=-0x1.54fba02d2a5dap-4
10303=-0x1.9ea5f56541281p-7
10309=0x1.99b2407205c46p-6
10310=-0x1.99487aaade379p-8
10320=0x1.ae29d8d5063a2p-15
10322=0x1.f398d22836df1p-9
10333=0x1.be7f8212356ffp-3
10334=-0x1.4800f166b9f5fp-4
10345=0x1.84597ea8570b7p-4
10356=-0x1.186e9af9b2f4ap-7
10357=0x1.9ab35470df8ccp-3
10358=-0x1.6144e3d3988d9p-6
10370=-0x1.5c3b11b9e5191p-11
10381=0x1.7801b451ab0fcp-5
10382=0x1.4e06d7c8c5342p-6
10393=0x1.7801b451ab0fcp-5
10394=0x1.4e06d7c8c5342p-6
10405=0x1.5e9293568c1d4p-6
10427=0x1.2e10f6943bb9ap-4
10439=0x1.5f870dc1e2cb8p-4
10441=0x1.46b432fa5c1d3p-3
10452=0x1.a9d9d7839f61ap-5
10465=0x1.115e17b23998ep-1
10466=-0x1.e82f557f2f2eap-5
10477=0x1.b006fbeaa99aep-9
10478=-0x1.17cfcfe107d9cp-7
10489=0x1.e85f628d4d837p-4
10501=0x1.d318afe2fea2cp-3
10513=0x1.e85f628d4d837p-4
10525=0x1.2dc116edf9e24p-5
10536=0x1.a06627a682d6bp-4
10549=0x1.937cc7f571bc6p-3
10550=-0x1.3d394e754e4a1p-6
10561=0x1.de6e3ea8d85fdp-7
10562=-0x1.04a8ce047af4fp-5
10573=0x1.21b0ec068fb95p-5
10585=0x1.158e2cf92281ap-5
10597=0x1.b62a89ff0262fp-6
10598=-0x1.2347f39fb74aap-8
10609=-0x1.4fcf593cd4264p+0
10613=0x1.e52715d20e2f8p-2
10625=0x1.eecd608df6b1bp-2
10637=0x1.eecd608df6b1bp-2
10651=0x1.9b9e824afa287p-2
10663=0x1.316dd1c47f138p-3
10675=0x1.c59f1b6743d92p-4
10681=0x1.dcedc99b256a7p-9
10682=-0x1.fb4559ce7f464p-4
10684=0x1.4838363a1f447p-1
10685=-0x1.3e8e13a9c4c2fp-2
10693=0x1.54a4770dfcd21p-8
10705=0x1.52c4cb423bcb5p-15
10706=-0x1.efe15cb348688p-8
10709=-0x1.457f8eca03426p-9
10717=0x1.2ec6da9157e64p-6
10735=0x1.f61080896f32ep-3
10741=0x1.8943bbe6ff30cp-8
10753=0x1.2831dc8c7a702p-3
10764=0x1.408601ad69407p-2
10765=-0x1.b61c82bbf651cp-7
10776=0x1.0ca08eb2bf6fdp+0
10777=-0x1.2ce5247bee893p-4
10788=0x1.82ea678f0445fp-5
10811=0x1.f4ef30bd152bp-9
10813=0x1.906863b146042p-4
10825=0x1.0edcfd5dd0da6p-3
10842=-0x1.028471c5fa90ap-5
10847=0x1.7802ecc8ee01bp-2
10849=0x1.0a789efc50feap-6
10861=0x1.d848c4a453112p-7
10873=0x1.d14718ede7a2cp-5
10884=0x1.5e14046dde375p-3
10896=0x1.7dea9b4ea04c8p-1
10897=-0x1.337b9e68ac466p-6
10898=-0x1.0cab98156ad49p-6
10908=0x1.812e09bb3334dp-6
10920=0x1.8642b54a4ffd3p-2
10922=-0x1.0e0c1f44d0bfap-6
10932=0x1.248bdfffa02a2p-3
10944=0x1.0d63c05f8ec34p-1
10946=-0x1.473170e8defd8p-4
10956=0x1.ceb4633f6f158p-3
10958=-0x1.412cfab90769dp-5
10968=0x1.2b2f8900fd4c7p-3
10970=-0x1.304e80e89abedp-5
10980=0x1.79e52217c5c28p-4
10993=0x1.3c079c741514ap-14
10994=-0x1.64b265f20b5ap-7
11005=0x1.8a42d45f89c3fp-6
11006=-0x1.9629dc64c0896p-15
11018=-0x1.9d289fa610497p-5
11023=0x1.89afe301f4718p-5
11030=-0x1.4e3d433a862cp-7
11040=0x1.c2710ee5da6cdp-5
11052=-0x1.233e420bb9e8ap-5
11053=0x1.b1908ac782d8p-3
11054=0x1.03537ba466bdp-9
11065=0x1.5bf3b353adf77p-6
11066=-0x1.955ed8194432p-9
11069=0x1.151df15818c92p-2
11071=0x1.3167cda80f15dp-6
11072=0x1.b2f0a5fe0f0f3p-4
11077=-0x1.3ddbe20afb881p-6
11078=0x1.197b7590ae646p-2
11090=-0x1.5f5913d797ebfp-6
11096=0x1.adfa7339caa9cp-9
11101=-0x1.0906c1565a49fp-12
11102=0x1.fc7051c86e2ap-3
11113=0x1.39acc4d5b2e63p-9
11125=0x1.e82418088bd5p-1
11128=0x1.004751074e237p-5
11137=0x1.3241843dbbaabp-3
11149=0x1.c349acc5de9a6p-3
11161=0x1.453a58f93a39fp-3
11173=0x1.b41cf510fbb1fp-3
11181=-0x1.b60f1e3bd1ce4p-5
11191=0x1.5aa2ea1390649p-8
11197=0x1.ed1485feef51p-10
11209=0x1.49f362991a009p-6
11221=-0x1.e8afb9e8ddfb8p-10
11233=0x1.37201fb743e22p-6
11245=0x1.2f15c9d5f3b3fp-3
11257=0x1.6ca56b7ca97aap-6
11269=0x1.6427e48d1117cp-6
11281=0x1.1bdcf4a6eb6cbp-1
11293=0x1.45b18c0eb9352p-6
11305=0x1.3055321d71db5p-1
11317=0x1.08cdd7ed6fce6p-2
11329=0x1.83f8c8cc11a41p-5
11330=-0x1.10a0e04736f04p-18
11341=0x1.969b7f71548e4p-3
11342=-0x1.d1427f58230bbp-5
11353=0x1.9a59c83ff975dp-5
11365=0x1.2412d5edb1cbap-4
11377=0x1.152448cd257c6p-4
11390=-0x1.8719d325a68p-9
11396=0x1.3b6584bd739c1p-3
11402=-0x1.7e975501bcd65p-6
11408=0x1.1dec22835feaap-3
11414=-0x1.2f9434d755743p-5
11420=0x1.4e5675453a677p-2
11426=-0x1.4e73416825f47p-2
11432=0x1.e306e04ce28b2p-3
11438=-0x1.9c1d8c8cb4c89p-7
11444=0x1.ca02ab8378a35p-5
11449=0x1.33ac061543efp-3
11450=-0x1.bdab194d9b783p-6
11465=0x1.d607571c1b13cp-1
11473=-0x1.3cb8d0d1c38cfp-11
11479=0x1.a8adfc1869721p-2
11485=-0x1.2b0b3c00789bep-8
11491=0x1.1a46f970974a4p-1
11497=-0x1.6d61c3c031bdp-20
11498=0x1.3600e469b273fp-18
11509=-0x1.017faf182989ep-16
11510=0x1.1e358437dfee9p-16
11521=-0x1.66e5be3bbb818p-20
11522=0x1.3dd5974927614p-18
11533=-0x1.36f9c923f9f3fp-12
11534=0x1.d83333a34cc1p-4
11552=0x1.54f152ac125b3p-4
11562=0x1.aceeb55169b72p-1
11575=0x1.5290ac5d678d8p-4
11580=-0x1.8a997829f0709p-4
11587=0x1.99d1720820514p-2
11599=0x1.f1eae202098fdp-4
11606=-0x1.0f380254d3fa1p-13
11611=0x1.29ba6ca1920f2p-4
11623=0x1.b6d09a60b1e48p-5
11629=0x1.7bdfab34628c2p-6
11630=-0x1.6b2888b429dd6p-13
11640=-0x1.a14e2b0fd9f89p-3
11641=0x1.5674bb8b0da14p-5
11642=-0x1.0606e6de97946p-4
11644=0x1.a5b5b8530b9f7p-4
11653=0x1.50de855897237p-6
11654=-0x1.11a17ded61116p-4
11666=-0x1.de8a234382f9ap-5
11678=-0x1.7243618e223ffp-5
11689=0x1.dc6f6daed1cb4p-3
11702=0x1.a7486f522f56cp-6
11714=0x1.57b839ba1f552p-6
11726=0x1.328f866d8736cp-7
11737=-0x1.0d93f1821a3d6p-6
11738=0x1.bee1687d44164p-6
11749=-0x1.dddba874b636ep-4
11750=0x1.1e6d9d1c0e2d8p-2
11762=0x1.e65497923ea27p-10
11774=-0x1.3fb887d41b75fp-7
11780=0x1.eb989fecd3dfdp-5
11786=-0x1.2bb70166bcea2p-9
11792=0x1.299663523e1aep-4
11797=-0x1.33b5b78220d2fp-6
11801=0x1.059f7c8c20745p+0
11809=0x1.21b49e25676ecp-4
11810=-0x1.1048b79d836d6p-6
11821=0x1.915e83607fdacp-9
11822=0x1.cff3305a0fdc2p-7
11833=0x1.854d113325ad4p-10
11840=-0x1.6ad7a872098fep-8
11846=0x1.64b084c01a6c3p-4
11852=-0x1.d4c9e1d18f4acp-4
11859=0x1.3ca554ee2a62cp-6
11865=-0x1.2c6729c6accedp-19
11870=0x1.15a8581a32dp-12
11883=0x1.5785bdc47adc1p-2
11889=-0x1.74059d3dd7298p-16
11893=0x1.cc1992b1e313p-4
11894=-0x1.2561066b160ap-9
11911=0x1.6febcafdeeb8fp-3
11923=0x1.6b53670e3a6cep-3
11935=0x1.ec376481063e2p-3
11947=0x1.6583da18ecdbfp-3
11959=0x1.e65dd3846154fp-3
11971=0x1.26ebc672840fdp-6
11977=-0x1.467622850f825p-8
11983=0x1.374ad537441a7p-2
11995=0x1.1e954fe72f246p-6
12001=0x1.2d79a8a7a261fp-5
12013=0x1.7577c1549d5e1p-5
12025=0x1.a2389bbcbedebp-3
12026=-0x1.6f9cad05fdef4p-6
12037=0x1.2d79a8a7a261fp-5
12049=0x1.6b7796ba3e05dp-5
12064=0x1.102a6f7ccb2cfp-2
12073=0x1.1938c6ec11484p-8
12085=0x1.c3f062dfd27d9p-6
12100=0x1.1c941b6444fcp-4
12112=0x1.d28a137dbca9p-2
12113=-0x1.2c0eea380d88dp-4
12121=0x1.56313f772b8a6p-5
12133=0x1.18df654078378p-4
12145=0x1.70932bd7381fbp-4
12157=0x1.56313f772b8a6p-5
12169=0x1.e7b2195a6eb57p-4
12181=0x1.21ca7ef69e71bp-4
12193=0x1.212ca5e20c25p-2
12205=0x1.42731dccb9f13p-3
12217=0x1.f96ec190c6ae6p-12
12229=0x1.bf61ff5f86a15p-16
12230=-0x1.710c22582346ap-16
12241=0x1.762f89f09ade7p-5
12242=-0x1.eab799237c7d7p-14
12254=-0x1.803a89f1a252cp-4
12264=-0x1.5c93e9a003d48p-5
12266=0x1.34b9bfa56e313p-3
12276=-0x1.2d16755fc3c26p-4
12288=-0x1.dd768ec8810a8p-6
12290=0x1.7a74f859182b7p-5
12300=-0x1.3e78262a70054p-5
12308=0x1.716d98abbbb74p-4
12312=-0x1.4c0591f642508p-6
12314=0x1.85bd80b5bddb4p-5
12324=-0x1.f9e32c822668dp-6
12336=-0x1.82204edc873b1p-6
12338=0x1.0f216eb235f66p-1
12348=-0x1.8113395b27be8p-5
12356=0x1.d215ecbe44928p-6
12368=0x1.edfbec8e7d72fp-4
12374=-0x1.e2f0e552a729fp-9
12380=0x1.93baca3ef1fa5p-3
12386=-0x1.0fbf1bb999911p-9
12392=0x1.bf1897b538a6cp-3
12398=-0x1.c2ee36c76c94cp-4
12404=0x1.64f6b90cb89f5p-2
12410=-0x1.a0d1eca72d26cp-6
12416=0x1.182cae2ebcdp-3
12422=-0x1.970ee3d1e75b7p-4
12428=0x1.726ced30797b5p-2
12433=0x1.d84c8cca82888p-8
12445=0x1.3e642afb9817ep-6
12457=0x1.2b7728ad5140ap-6
12469=0x1.60b5751b1cde4p-14
12481=0x1.8751e6f2f97f1p-7
12482=-0x1.4251bd085449p-13
12499=0x1.72026748d1a77p-10
12511=0x1.ab57e24cbaefdp-5
12523=0x1.4552b67bd3028p-5
12535=0x1.4ea6c416620d5p-5
12547=0x1.85d802029aa5p-7
12553=0x1.9a0eca466dc1p-6
12554=-0x1.990903a8c6549p-7
12565=0x1.bf598960ad761p-6
12566=-0x1.5792783354c41p-7
12578=-0x1.0e656f5d81c9dp-8
12590=-0x1.119086bd3dbd3p-3
12596=0x1.3e28f3e83e9eep-2
12601=0x1.e31a47721037p-13
12619=0x1.5d9849b719fc1p-5
12624=-0x1.e3da89e808555p-3
12625=0x1.95109902db448p-4
12626=0x1.488c17a1ebf67p-7
12636=-0x1.8f93ffb88dfdbp-3
12637=0x1.471f547a086cfp-4
12638=0x1.12e7e229d7f6fp-7
12649=0x1.4ad64e0a8b3e9p-6
12650=-0x1.f4d1a805d9fa6p-7
12660=0x1.fbd5a00d41dacp-4
12662=-0x1.87823e8d24be7p-6
12674=-0x1.83811c63fdca9p-6
12685=-0x1.e50a80855389p-7
12691=0x1.65eb1b8e1f15fp-3
12696=0x1.1993853680f34p-3
12698=-0x1.1cad4178f0326p-5
12708=-0x1.9083e2ddbd15p-6
12710=0x1.03967eb1c3c13p-4
12720=-0x1.183ac3cd0d205p-3
12722=0x1.a7d9984787c5ap-4
12733=0x1.ca31acea33478p-9
12744=0x1.f9e56ab7d8195p-3
12758=0x1.b416701565e22p-9
12770=-0x1.ac80180bab932p-2
12776=0x1.011cd96a1dcc4p-1
12781=0x1.ee401f833bf92p-5
12792=0x1.dbf2e792987b8p-7
12804=0x1.e56242bd47d07p-4
12806=-0x1.2e5515a6b779fp-5
12817=-0x1.deaef9a69e12p-5
12818=0x1.10e66de45c72cp-2
12829=-0x1.25190b43bd4abp-5
12830=0x1.7fbb600c74473p-5
12841=-0x1.279aefe6e4909p-5
12853=-0x1.fdcfa943433d3p-6
12866=0x1.b120451a6f055p-6
12884=0x1.3391a84d2ab6cp-4
12896=0x1.7c2f1d2537d82p-3
12908=0x1.3391a84d2ab6cp-4
12913=-0x1.e9336309c0481p-7
12914=0x1.e6bcfc37763e8p-15
12925=-0x1.2eee2f27daa38p-7
12926=0x1.236a9628055b3p-5
12938=0x1.65141132600e7p-8
12949=-0x1.98ad9df0fc6f2p-16
12950=0x1.6e2e07a48918dp-7
12962=0x1.d371ea612112fp-15
12974=0x1.93a65bb4c761fp-8
12985=-0x1.1079572c46934p-19
12998=-0x1.3d23bd2b5a6fep-18
13006=0x1.86a03829ab1cep-2
13007=0x1.19fe728b814b6p-2
13019=0x1.7b100823082dep-1
13022=0x1.5067aea6b56d8p-6
13028=-0x1.9054b8a050e45p-5
13036=0x1.c63a28fefe656p-5
13039=0x1.4cb508a25a909p-7
13051=0x1.4fc0d30913798p-5
13063=0x1.39b82db31db86p-3
13075=0x1.39b82db31db86p-3
13087=0x1.39b82db31db86p-3
13099=0x1.39b82db31db86p-3
13106=0x1.39749133699bep-2
13112=-0x1.e4f2dc84144b7p-4
13118=0x1.0ce99c07f7432p-6
13124=-0x1.99480678457e1p-8
13129=-0x1.08226fbba375fp-3
13135=0x1.8b7596d04e9f4p-7
13141=-0x1.b1a67762e61f2p-7
13142=0x1.711bc98ea9e7p-5
13153=-0x1.773a09bb78c17p-3
13159=0x1.8e9b072a721b6p-4
13165=-0x1.47f308cab67a4p-10
13171=0x1.9e1b5d2605b7cp-8
13177=-0x1.47f308cab67a4p-10
13183=0x1.9e1b5d2605b7cp-8
13189=-0x1.f651644081d6ap-7
13195=0x1.ba4e6e4b55cb9p-7
13201=-0x1.faf30d0aedf2cp-11
13202=0x1.594d0f1f95154p-6
13213=-0x1.84cb4ae3127e3p-5
13214=0x1.9e5026ff18924p-4
13225=-0x1.c3588aead1517p-5
13226=0x1.23505ec02575fp-3
13237=-0x1.308ecc20062b5p-5
13238=0x1.31ce89a247b16p-4
13249=0x1.0e4b0c48ae316p-7
13253=0x1.a987ef9481cb6p-6
13261=-0x1.eadef2bd7c866p-6
13262=0x1.90ee0a52effd4p-5
13273=-0x1.111c890faed55p-6
13274=0x1.8ea11a0ef769cp-8
13285=-0x1.dc1485f57d118p-6
13286=0x1.e362d9048b914p-6
13298=0x1.61e2267d171a7p-8
13315=0x1.9284520fb1e8fp-4
13327=0x1.2491b344d6f62p-3
13333=-0x1.1d51afaadf157p-6
13337=0x1.f0e1f6df2731cp-3
13349=0x1.93c56d635ecdp-2
13357=0x1.efc07f5cf8ca1p-14
13363=-0x1.40b7e11cf0f08p-2
13367=0x1.07989e3951475p-1
13373=0x1.119f85e9de183p-6
13381=-0x1.1621668a69fb2p-8
13382=-0x1.6f33708449b07p-4
13385=0x1.22cfe6459617ap-14
13387=0x1.edbf7236dd1dep-5
13391=0x1.93ce8b32db881p-4
13394=0x1.7864924098d72p-6
13404=0x1.197ae19ac7df6p-4
13411=-0x1.2db34c5f738p-7
13417=0x1.de654a40a00b2p-3
13429=0x1.1d551b01eb055p-2
13451=0x1.89f3719aa121dp-5
13453=0x1.62d0f654abb54p-6
13454=0x1.8bb301ca2ed1ap-11
13469=0x1.0971f17a3961fp-4
13481=0x1.265dc577f33b8p-4
13493=0x1.265dc577f33b8p-4
13505=0x1.265dc577f33b8p-4
13513=0x1.7a7705e5451ap-3
13514=-0x1.ce6dec0cd7706p-6
13516=0x1.37f6f613e4abdp-2
13517=-0x1.190c1e0b02aa8p-1
13525=0x1.308818a39329fp-2
13537=-0x1.e64f7e151915ap-7
13541=0x1.353ce2e357317p-3
13549=-0x1.0877fe292603dp-10
13550=0x1.1d5201b7a6efap-9
13553=0x1.c5763bd9996e8p-5
13561=0x1.1bc5a17366861p-6
13577=0x1.f0148e8800f2ap-4
13595=0x1.d17522af4aa7ap-4
13597=-0x1.97769d8b4d9e9p-8
13609=-0x1.a1fbf02fc6507p-8
13621=-0x1.09c70ca3699c1p-10
13625=0x1.a58e923ccc7dep-4
13633=-0x1.19b6f116cfd5ap-9
13645=-0x1.4732349f41bbep-5
13649=0x1.3d57f51bd6baap-3
13657=-0x1.c622fb933c6d2p-5
13661=0x1.291d4e570a6b3p-3
13669=-0x1.ecf0ef20405eep-3
13670=0x1.43c2c7b8555b4p-3
13681=-0x1.1921bf4224123p-3
13682=0x1.0a441a645a234p+1
13693=0x1.081bfa38bdbfcp-2
13694=-0x1.57d1b4fbb7b6bp-4
13705=0x1.62a2dfa1002a8p-8
13717=-0x1.120f823aeafd1p-3
13718=-0x1.044bcad91225cp-4
13721=0x1.d1e46285dde5p-3
13723=0x1.4b8169995dc8ep-3
13728=0x1.c085d9dfd7d3ep-4
13740=0x1.18203c6a2088cp-4
13756=0x1.6fa0b08ffb9b1p-2
13757=-0x1.0d883b11ec2dbp-1
13765=0x1.cabbe3cec613ep-3
13766=-0x1.2d645288c650ap-5
13768=0x1.3b8096bf5e033p-2
13769=-0x1.13c93641a7393p-1
13780=0x1.5574dd40d38b5p-1
13781=-0x1.7d64003c34f8ep-2
13789=0x1.89cd8ea16bfb8p-5
13790=-0x1.94359117d7e02p-7
13804=0x1.2a429864a5de6p-3
13805=-0x1.215988031498p-3
13813=0x1.a2e3d147999e4p-2
13816=0x1.a83c576eceadcp-1
13817=-0x1.281f3502857ffp+0
13828=0x1.3eabfb69ab36ep-3
13829=-0x1.e36ecb5c1c3dap-4
13840=0x1.86ed416246854p-3
13841=-0x1.afe8e68a5741bp-4
13850=0x1.313a06cfad64ap-3
13860=-0x1.16aaf8793d1cfp-1
13862=0x1.07f21be60fa7dp-7
13867=0x1.91f1ed0292b71p-7
13874=0x1.138291b905e22p-6
13886=0x1.26d7db4159368p-14
13898=0x1.e7dc4723ed1a7p-3
13904=-0x1.ebbf5e2d74d0ap-19
13910=0x1.bd1260955dcd8p-9
13922=-0x1.cf7112cb51c8ap-5
13928=0x1.91515e9708498p-1
13940=0x1.bc14245fa70e6p-6
13952=0x1.2f58bea8c6c86p-4
13964=0x1.3d39cfd6f84d8p-4
13976=0x1.538c6753176c8p-4
13986=0x1.77b2dba6f6f57p-5
13995=-0x1.d0d0c5efaf504p-10
13998=-0x1.438f9e97e71b6p-6
14001=0x1.74b0a41f322d3p-1
14004=0x1.9b522280b0b0ap-3
14016=0x1.7e26d81111d1dp-3
14028=0x1.c5a7f0a001321p-2
14029=-0x1.9ab12daad1ddep-1
14030=-0x1.9948378d179bap-4
14033=0x1.d88ba53835b03p-2
14034=0x1.2827af9c49c03p-1
14040=0x1.17d5afa48e5b2p-2
14052=0x1.9b522280b0b0ap-3
14064=0x1.2b1e6db16ad83p-5
14076=0x1.be687d59dc0c6p-3
14088=0x1.4871b7a928194p-4
14100=0x1.37ec3cfb05ff6p-5
14123=0x1.4510b6b4c228cp-4
14135=0x1.07c773eea414ap-6
14147=0x1.26cb8bdbc9de8p-9
14149=0x1.6800eb746a45p-2
14155=-0x1.8100b587ecc76p-6
14159=0x1.682f33c07e256p-5
14171=0x1.5ee668edafaccp-3
14183=0x1.2e06ffae058f2p-2
14195=0x1.e074380b95a65p-7
14197=0x1.a63d0e2ee34adp-11
14207=0x1.0000376ad7493p-5
14219=0x1.01793d5e06223p-2
14231=0x1.3541ddbf10e73p-5
14243=0x1.3541ddbf10e73p-5
14255=0x1.52f73bf34b05ep-1
14257=0x1.55ba1ae138f14p-5
14268=-0x1.b7c99cdac779bp-3
14275=0x1.b7f9236459a06p-2
14280=-0x1.a780da64c1447p-2
14281=0x1.6ba7632f7ccccp-3
14287=0x1.7e6564e380a94p-3
14293=0x1.ae6b38b8ee152p-3
14305=0x1.ae6b38b8ee152p-3
14317=0x1.ae6b38b8ee152p-3
14329=0x1.64ea0cc31cb74p-4
14347=0x1.a00b5b2f39c12p-3
14354=0x1.b7ba1bf6cf776p-3
14365=-0x1.eddca380ab4f8p-11
14377=-0x1.e1b25009e9337p-7
14383=0x1.3be06a03088bcp-3
14390=0x1.7b0b214fc7022p-6
14401=-0x1.3d0f78cc281c5p-4
14407=0x1.ba89c7adec729p-3
14413=-0x1.4216434ed21d2p-2
14419=0x1.caf7aad86e528p-3
14425=-0x1.878bb2752c208p-11
14431=0x1.c044964f8190cp-3
14443=0x1.bc1e209fc7dcdp-3
14449=-0x1.337330ded060dp-7
14455=0x1.6d271b6683ep-2
14467=0x1.5d9a7622a4c63p-2
14473=0x1.cd3fe1f9f2282p-5
14485=0x1.9d80103065fb8p-9
14507=0x1.cafdf76e0ce8dp-5
14513=0x1.8a1486ecbfa56p-4
14521=0x1.2a4ce555c60b3p-3
14532=0x1.b82ac4986a371p-3
14545=0x1.df25eb85fff4bp-4
14557=-0x1.72c11a2b35ed6p-11
14563=0x1.46094343a91f2p-7
14569=0x1.481a351342f4dp-10
14575=-0x1.04ac2ba2e7693p-10
14581=-0x1.2c58d3f7ae6d2p-11
14587=0x1.17d5a4768471fp-2
14593=0x1.0d8dcd074c4afp-5
14605=0x1.7ce1ad082ef66p-3
14617=0x1.0fc8f0cfc4a4p-2
14630=0x1.73f9037c1dfc1p-6
14648=0x1.1dbf320917015p-7
14660=0x1.c03f054567911p-5
14666=0x1.9e60433aef547p-1
14684=0x1.7f4c2ab1056ffp-5
14696=0x1.46e15c9c2a905p-2
14701=-0x1.70bc8c3ca8019p-12
14702=0x1.9f2eddc803063p-9
14718=0x1.31d8d3a8c7cd1p-3
14735=0x1.c4f26e104b507p-3
14736=-0x1.b638fda22403ap-3
14743=0x1.166f0c4a22f86p-3
14749=0x1.bbf104f3d72adp-8
14761=0x1.18c6de733d116p-3
14767=-0x1.3462ae06bcaf2p-6
14773=0x1.2ce74679daf32p-3
14779=-0x1.4640e8537abecp-6
14785=0x1.afa6c239e6e0cp-5
14797=0x1.4ae73eab160d4p-3
14803=-0x1.352b540d41975p-5
14809=0x1.b9bde3e766a1bp-4
14815=-0x1.8c1fe9695a05ep-6
14821=0x1.28a07614eaff5p-7
14833=0x1.ca918020b5cf6p-1
14839=-0x1.15b934a008d5fp-5
14845=0x1.326c9a50dea4cp-7
14857=0x1.eba70e2feb39p-4
14863=-0x1.28d6da46c3b3ap-6
14869=0x1.b8adf2fbd9378p-4
14875=-0x1.28787d6ea18acp-6
14881=0x1.f6e6960a11a4bp-4
14897=0x1.5b6586fe9ff34p-6
14909=0x1.f57376222ec99p-3
14924=0x1.7db6444fd73a3p-9
14936=0x1.110eb53ca0ba6p-7
14946=0x1.b9baccd4e829ep-12
14953=0x1.589a1ac9cdd38p-17
14954=-0x1.aadfc31c229bep-19
14965=0x1.0ba7f4fb7d3b2p-4
14978=0x1.bcacf65d5d9e9p-10
14988=0x1.bac19dbeb1647p-2
14989=-0x1.0972008a540fdp-4
15000=0x1.341aff0f6b75fp-3
15013=-0x1.510994b4622e4p-16
15014=0x1.d9e4a2c077ddfp-18
15024=0x1.ad9039bbb5c1cp-1
15026=-0x1.6cc4fb21dd4b5p-4
15044=0x1.86292ea8ad1d2p-9
15050=-0x1.b1e93a20e9647p-9
15056=0x1.28db770affd3ap-2
15066=0x1.dbf07f74b1784p-8
15083=0x1.1ccb4cce84364p-2
15095=0x1.35115298aed5ep-3
15107=0x1.f1abefe82801ep-4
15109=0x1.5bb49708c8185p-4
15120=-0x1.03d54ea3a503bp-2
15127=0x1.63875573487b5p-3
15132=-0x1.c8d8235d23573p-3
15139=0x1.513e0fac4934cp-2
15144=-0x1.fc5784ebc9f78p-3
15151=0x1.6813df892d9f9p-3
15157=0x1.6891f0d1e142bp-3
15170=0x1.1a738781f1898p-5
15182=0x1.8b6bf30fcb954p-3
15188=-0x1.4ace2c7aa0112p-6
15194=0x1.c06e4b72f5a44p-7
15200=-0x1.c321057542936p-11
15206=0x1.065c07229d108p-7
15212=-0x1.22d794d273849p-8
15218=-0x1.580f2099e0d77p-5
15224=0x1.24bef1526451dp-2
15236=0x1.874dd87522accp-6
15242=0x1.aab6db835ad92p-6
15254=0x1.dc3a4fba86379p-4
15272=0x1.a9176dd7cea91p-4
15278=-0x1.2c076c647c772p-5
15284=0x1.e28115a4a63e6p-4
15290=-0x1.3e4793125999cp-6
15296=0x1.1751aebf5ef65p-3
15302=0x1.8463157c9f6d2p-3
15306=-0x1.de26754aac84ep-2
15307=0x1.25290d61d0465p-3
15319=0x1.129f887b8b3cp-1
15325=0x1.1747be97f147fp+0
15331=-0x1.720cd906fcb5ap-6
15338=0x1.ffbbdd9dad15ep-7
15350=0x1.05250c9c51414p-6
15362=0x1.5502fc4b5c0adp-4
15374=0x1.aef40dd9419fp-7
15386=0x1.1e3eecac13c88p-6
15398=0x1.b4bfa5806e51cp-10
15409=-0x1.e34cd179903e9p-6
15410=0x1.720ff6069e27fp-3
15421=-0x1.fa8ac07ef2ff7p-9
15422=0x1.369720392e785p-5
15434=0x1.0393f32dd9173p-5
15445=-0x1.6483616af4e31p-3
15451=0x1.4bcdb549a5051p-3
15457=-0x1.c8e5fcbb89ebfp-16
15463=0x1.c8ecc73c9727ep-7
15475=0x1.87480ebe0110ep-7
15487=0x1.b607b3ad24a22p-7
15499=0x1.144bdb9030c5ep-5
15505=-0x1.5aa64988014e4p-11
15511=0x1.08368ea4d8b6bp-8
15516=-0x1.7086c0371595bp-4
15523=0x1.5db55f7293975p-4
15528=-0x1.1e853e44ddbf8p-4
15535=0x1.19afe3fd7322p-2
15540=-0x1.63558db350e0fp-4
15547=0x1.63798fecdd5fcp-4
15553=-0x1.097d39d0eb89ep-14
15554=0x1.73291b4352993p-14
15565=-0x1.156b6bfcec064p-19
15566=0x1.78982ab5955ecp-19
15577=-0x1.973bcafa7ec2bp-4
15589=-0x1.e9065a506fdb3p-10
15607=0x1.959ff13bead3dp-5
15619=0x1.dffcbe214657ep-1
15631=0x1.0c902f3a92305p-3
15643=0x1.959ff13bead3dp-5
15655=0x1.3f4a87ec236c1p-4
15667=0x1.4320e34441f21p-4
15672=-0x1.535d9fec631eep-15
15673=0x1.dd43dbc9e63ap-7
15679=0x1.d404f4771f987p-5
15691=0x1.099942344afap-12
15697=0x1.5de703058fc27p-5
15704=0x1.accb53b9978f5p-2
15709=0x1.2f8db7438f498p-5
15721=0x1.c0093e1cc594bp-4
15733=0x1.c0093e1cc594bp-4
15745=0x1.4a5514908465ap-6
15757=0x1.314e223272fafp-3
15758=-0x1.22d324b20c7b1p-5
15769=0x1.2129704ec70f4p-3
15770=-0x1.f2541e074998cp-5
15776=0x1.23affcfb206ap-4
15781=0x1.9cead89ff1195p-4
15782=-0x1.3f0dc211b44c6p-7
15794=0x1.8e03a338945e7p-4
15806=0x1.02efa2dda11acp-3
15817=-0x1.fa372145ef77dp-4
15818=0x1.33d7ad319f4e1p-3
15829=0x1.17435bd3bca99p-5
15830=0x1.19353d20e820ep-6
15836=-0x1.81c6d023889ap-3
15841=0x1.934994564f2f4p-5
15842=0x1.124d7cd17b7b8p-7
15848=-0x1.5bbee86093b6ap-2
15853=-0x1.52388eb2be6d8p-16
15854=0x1.97ed7f2bb582p-11
15865=0x1.6ce524dae0754p-10
15866=0x1.a9a30d12203f3p-12
15872=0x1.5541dae87b18bp-3
15877=-0x1.4a4b9385b033cp-10
15878=0x1.575ced421d27ep-7
15889=0x1.e00578a0dbd67p-4
15896=-0x1.ccd474190e0ebp-8
15901=0x1.0bdfb13216f25p-3
15902=-0x1.fde54770f76ffp-8
15903=0x1.6c6d01ebd54dap-5
15908=-0x1.775baf90a0529p-5
15913=0x1.52081e259964fp-4
15914=-0x1.af42565933f38p-1
15925=0x1.1b1bfe99096a1p-2
15926=0x1.161cd4988640ep-14
15932=-0x1.a02e744e5fc55p-5
15937=0x1.2c685d83670b4p-4
15944=-0x1.f8650825b0077p-7
15949=0x1.5b4add6bc918dp-4
15956=-0x1.2172e3ce260c6p-8
15961=-0x1.0b82d82789979p-7
15967=0x1.ba28e9024c3fcp-3
15973=0x1.4345a61b6c11ep-5
15985=0x1.4345a61b6c11ep-5
15996=-0x1.6813407bf7debp-3
15997=0x1.bae81aba471d3p-2
16008=-0x1.fc409cbebaeb5p-4
16009=0x1.f022a054a514p-3
16010=0x1.c08a138aded82p-4
16022=0x1.705ab93b78c43p-5
16034=0x1.705ab93b78c43p-5
16045=-0x1.26a40180bf46cp-14
16057=0x1.13642274ca1d8p-5
16069=0x1.1a23395ec96e2p-4
16081=0x1.6765987a468ep-3
16093=0x1.52d061ffd5dc1p-3
16094=-0x1.d2d8b5ab5879bp-6
16112=0x1.3ce87d7b1bd2cp-3
16116=0x1.a2e317bf1da45p-9
16128=0x1.c67320e9c9b8ep-13
16140=0x1.f88d9c165de75p-7
16154=0x1.87cbda3f834afp-5
16172=0x1.8e7420681ef3fp-7
16177=-0x1.7bfd720dd8902p-4
16184=0x1.216b9f874d36dp-4
16190=-0x1.67e8677fbf5acp+0
16191=0x1.9d19c463da0f7p-4
16196=0x1.3a58837a5488dp-3
16201=0x1.d257614b8c8e4p-16
16202=-0x1.288cc0d0f1b54p-16
16214=0x1.6e02fae3ad259p-3
16225=-0x1.d732a62a11896p-4
16226=0x1.220c1a6dbb4bdp-2
16238=0x1.0397f59b0969bp+0
16247=0x1.68831d42645fdp-3
16249=0x1.95f27b48c0abfp-5
16256=-0x1.2be47fdf47edcp-1
16268=-0x1.350f509ec948ep-5
16273=-0x1.02daab6b2aeb4p-6
16274=0x1.5fdeec4f02ef5p-4
16285=0x1.5d0083ac789d4p-4
16292=-0x1.49c0b2fa9027ep-5
16297=-0x1.09b0cb6256fbdp-6
16298=0x1.4b7c562afeda3p-4
16310=-0x1.071d75703e2b2p-4
16316=0x1.c98ce9569ebe4p-3
16328=0x1.4ec06ca9d2344p-7
16340=0x1.3886cfc96f0f8p-6
16352=0x1.4ec06ca9d2344p-7
16357=0x1.2705f1ccb78d3p-3
16358=-0x1.9141d789cf7ep-12
16368=0x1.78b6785862332p-6
16382=0x1.6059f273ad799p-5
16394=0x1.6059f273ad799p-5
16405=0x1.0d4a9049b2226p-4
16423=0x1.4300138b94ac3p-5
16435=0x1.d3f002d22c32bp-5
16447=0x1.c6611e43d32b3p-7
16459=0x1.295da506d9549p-5
16465=0x1.69da1ae0e082dp-6
16476=-0x1.74d62da8263c9p-6
16483=0x1.2140cfec670e3p-4
16495=0x1.3e7e68e6b46cbp-4
16501=0x1.9890392096135p-4
16517=0x1.28a14508dcfffp-1
16525=0x1.ebaf494a98aeep-5
16526=-0x1.eac71b5f11946p-7
16538=-0x1.09311e78eaf7cp-11
16549=0x1.6d98ebaff4434p-15
16568=0x1.6068ca1e8ff9cp-10
16572=0x1.2a725db6ef808p-3
16584=0x1.856a35085e599p-6
16596=0x1.830e9c4a73834p-4
16609=0x1.77f60a98da75ap-15
16610=-0x1.3aa95839f7d6ap-16
16621=0x1.3ed074583676p-17
16633=0x1.8452037a7ca7cp-20
16645=-0x1.549c2d680adb6p-9
16652=0x1.e2450b4b70055p-5
16657=-0x1.cbf29bf96ee4bp-5
16658=0x1.08d405ac0c708p-2
16669=0x1.3336319f869ddp-8
16670=-0x1.baf9306c54341p-10
16681=0x1.727386d4950cbp-3
16699=0x1.99965a356c02p-4
16711=0x1.ac373f248aa22p-4
16717=-0x1.bb05a64864c16p-7
16723=0x1.8bf0200629d5ep+0
16729=-0x1.0b33fc1a2ebcp-6
16735=0x1.30909693f0409p-3
16741=0x1.430dc25e5f269p-17
16753=0x1.3d5dbb2008777p-4
16754=-0x1.72b001e8b88cdp-6
16765=0x1.31dd03c276e61p-10
16766=-0x1.a91b434468bdcp-11
16777=0x1.a77f2d859efb2p-11
16778=-0x1.6362e5ef48448p-16
16799=0x1.7b3a0e83ef467p-3
16801=-0x1.4766fb9b9fdb5p-5
16802=0x1.76a3cef7aa895p-5
16813=-0x1.c76004ef75e6dp-7
16814=0x1.9648a5bfb55d1p-10
16824=0x1.58633bfc3db29p-4
16836=0x1.fa71f6e29958p-3
16848=0x1.76c7137ee92dfp-3
16860=0x1.2c5d804ce20e3p-3
16872=0x1.d5082a5d01059p-2
16874=-0x1.00b0ba85443bep-7
16885=0x1.644c68d504495p-3
16886=-0x1.46a498de11d16p-5
16897=0x1.480dc579a9243p-5
16910=-0x1.62b6f6f7dd6c8p-6
16931=0x1.8929de8d5d34p-4
16943=0x1.410f6b776be8bp-2
16955=0x1.9d2bb06cd7cccp-7
16967=0x1.043e54be2770cp-3
16979=0x1.ddcb1df912eb3p-3
16991=0x1.a46d81d0a0917p-5
16994=0x1.7086f602167dp-2
17012=0x1.449a98ca4985bp-7
17017=-0x1.a46df162f7508p-11
17018=0x1.49335139ace5ap-4
