#mdl#-1220253072#8611
#rdr#46/25/0
10:u:%x[-3,0],
10:u:%x[-2,0],
10:u:%x[-1,0],
9:u:%x[0,0],
9:u:%x[1,0],
9:u:%x[2,0],
9:u:%x[3,0],
18:u:%x[-1,0]/%x[0,0],
17:u:%x[0,0]/%x[1,0],
9:u:%x[0,1],
10:u:%x[-1,1],
9:u:%x[0,2],
9:u:%x[0,3],
9:u:%x[0,4],
9:u:%x[0,5],
9:u:%x[0,6],
9:u:%x[0,7],
9:u:%x[0,8],
9:u:%x[0,9],
11:u:%x[-2,10],
11:u:%x[-1,10],
10:u:%x[0,10],
10:u:%x[1,10],
10:u:%x[2,10],
10:u:%x[0,11],
11:u:%x[-1,12],
10:u:%x[0,12],
10:u:%x[1,12],
20:u:%x[-1,12]/%x[0,12],
19:u:%x[0,12]/%x[1,12],
10:u:%x[0,13],
10:u:%x[0,14],
10:u:%x[0,15],
10:u:%x[0,16],
10:u:%x[0,17],
10:u:%x[0,18],
10:u:%x[0,19],
10:u:%x[0,20],
10:u:%x[0,21],
10:u:%x[0,22],
10:u:%x[0,23],
29:u:%x[-1,23]/%x[0,24]/%x[0,21],
29:u:%x[-1,23]/%x[0,24]/%x[1,11],
10:u:%x[0,25],
19:u:%x[0,25]/%x[1,12],
1:b,
#qrk#26
6:author,
5:title,
6:editor,
9:booktitle,
4:date,
7:journal,
6:volume,
5:genre,
9:authority,
5:pages,
8:location,
9:publisher,
3:url,
4:note,
7:unknown,
7:edition,
6:source,
10:translator,
4:isbn,
3:doi,
8:accessed,
7:section,
8:director,
6:medium,
8:producer,
5:event,
#qrk#4061
6:u:_x-3,
6:u:_x-2,
6:u:_x-1,
4:u:A.,
4:u:R.,
3:u:.,
3:u:A,
3:u:a,
3:u:r,
8:u:single,
6:u:none,
11:u:_x-1/none,
11:u:none/none,
4:u:96,
9:u:no-male,
11:u:no-female,
12:u:no-surname,
10:u:no-month,
10:u:no-place,
11:u:publisher,
9:u:journal,
12:u:no-editors,
3:u:0,
10:u:terminal,
23:u:_x-1/other/no-editors,
20:u:_x-1/other/initial,
1:b,
5:u:and,
3:u:,,
3:u:C,
4:u:Ca,
9:u:initial,
14:u:no-publisher,
12:u:no-journal,
10:u:internal,
27:u:terminal/other/no-editors,
23:u:terminal/other/single,
3:u:R,
4:u:32,
3:u:1,
27:u:internal/other/no-editors,
24:u:internal/other/initial,
4:u:de,
3:u:K,
4:u:r,,
5:u:er,,
3:u:4,
9:u:surname,
22:u:terminal/other/other,
7:u:lower,
4:u:an,
3:u:d,
4:u:nd,
7:u:other,
8:u:others,
20:u:internal/other/all,
3:u:W,
4:u:W.,
4:u:P.,
5:u:all,
3:u:2,
25:u:others/other/no-editors,
20:u:others/other/other,
3:u:e,
6:u:male,
8:u:female,
7:u:place,
24:u:terminal/other/initial,
13:u:development,
4:u:Ro,
5:u:er.,
22:u:others/other/initial,
3:u:F,
3:u:g,
4:u:ng,
5:u:ing,
3:u:3,
3:u:D,
4:u:Di,
3:u:s,
3:u:t,
4:u:nt,
5:u:ent,
6:u:ment,
4:u:64,
3:u:y,
4:u:gy,
4:u:In,
3:u:w,
6:u:with,
3:u:n,
4:u:in,
4:u:C.,
3:u:S,
4:u:St,
5:u:Sta,
4:u:B.,
3:u:f,
5:u:for,
4:u:m.,
5:u:sm.,
6:u:ism.,
3:u:c,
8:u:Jones,,
3:u:I,
3:u:b,
4:u:84,
3:u:5,
21:u:others/other/single,
3:u:B,
3:u:J,
4:u:s,,
5:u:es,,
4:u:20,
3:u:6,
23:u:internal/other/single,
4:u:T.,
4:u:Sh,
4:u:21,
3:u:7,
10:u:editors,,
7:u:Proc.,
3:u:T,
9:u:editors,
4:u:De,
6:u:proc,
3:u:8,
4:u:ed,
5:u:edi,
6:u:edit,
3:u:P,
4:u:Pr,
5:u:Pro,
6:u:Proc,
4:u:c.,
5:u:oc.,
6:u:roc.,
9:u:ordinal,
14:u:none/ordinal,
22:u:internal/other/other,
14:u:ordinal/none,
20:u:terminal/other/all,
7:u:1992.,
7:u:upper,
4:u:CS,
10:u:workshop,
3:u:9,
8:u:hyphen,
6:u:_x+1,
4:u:Re,
5:u:Ref,
6:u:1992,
25:u:hyphen/other/no-editors,
22:u:hyphen/other/initial,
6:u:_x+2,
4:u:Wo,
5:u:Wor,
6:u:Work,
6:u:year,
11:u:none/year,
6:u:_x+3,
4:u:19,
5:u:199,
4:u:2.,
11:u:year/_x+1,
4:u:10,
11:u:none/_x+1,
4:u:M.,
4:u:H.,
3:u:M,
3:u:m,
3:u:h,
4:u:a,,
3:u:H,
4:u:Ta,
4:u:of,
4:u:Mo,
4:u:a.,
4:u:to,
4:u:Ap,
5:u:App,
6:u:Appl,
4:u:on,
5:u:ion,
6:u:tion,
6:u:data,
3:u:o,
5:u:112,
4:u:ha,
4:u:sh,
9:u:machine,
4:u:36,
5:u:its,
5:u:bas,
4:u:se,
4:u:ma,
4:u:ne,
5:u:ine,
6:u:hine,
5:u:New,
14:u:architecture,
3:u:i,
4:u:ts,
5:u:new,
12:u:Computing,,
4:u:ar,
4:u:e.,
3:u:N,
4:u:Ne,
4:u:ew,
11:u:computing,
5:u:100,
3:u:G,
4:u:Ge,
4:u:11,
4:u:Co,
5:u:Com,
6:u:Comp,
4:u:g,,
5:u:ng,,
6:u:ing,,
6:u:1983,
8:u:volume,
13:u:none/volume,
4:u:),,
5:u:1),,
6:u:(1),,
25:u:internal-closing-parens,
5:u:198,
4:u:3.,
42:u:internal-closing-parens/other/no-editors,
36:u:internal-closing-parens/other/_x+1,
10:u:language,
4:u:Al,
4:u:er,
5:u:der,
6:u:nder,
4:u:37,
3:u:V,
4:u:y.,
11:u:Technical,
5:u:Mod,
8:u:Report,
3:u:l,
4:u:la,
5:u:lan,
4:u:ge,
5:u:age,
6:u:uage,
11:u:technical,
4:u:TU,
4:u:n.,
5:u:on.,
6:u:ion.,
8:u:report,
6:u:Wien,
18:u:Technical/Report,
4:u:Te,
5:u:Tec,
6:u:Tech,
4:u:al,
5:u:cal,
6:u:ical,
5:u:Rep,
6:u:Repo,
4:u:rt,
5:u:ort,
6:u:port,
18:u:others/other/all,
9:u:version,
3:u:U,
4:u:Wi,
4:u:en,
6:u:page,
11:u:none/page,
4:u:2,,
11:u:page/none,
3:u:v,
4:u:ve,
9:u:numeric,
14:u:none/numeric,
11:u:Real-Time,
14:u:numeric/none,
10:u:Systems,,
5:u:Dep,
4:u:t.,
10:u:realtime,
4:u:or,
9:u:systems,
12:u:University,
5:u:Rea,
4:u:me,
6:u:Time,
4:u:Sy,
5:u:Sys,
6:u:Syst,
5:u:ms,,
12:u:university,
5:u:May,
15:u:University/of,
4:u:Un,
5:u:Uni,
6:u:Univ,
4:u:ty,
5:u:ity,
6:u:sity,
5:u:may,
4:u:Vi,
6:u:1993,
4:u:16,
4:u:Ma,
4:u:ay,
4:u:14,
7:u:month,
19:u:others/other/_x+1,
31:u:others/proceedings/no-editors,
26:u:others/proceedings/other,
6:u:Fast,
28:u:others/proceedings/initial,
4:u:Su,
4:u:Ho,
33:u:terminal/proceedings/no-editors,
28:u:terminal/proceedings/other,
4:u:te,
10:u:analysis,
13:u:Proceedings,
3:u:p,
4:u:po,
31:u:hyphen/proceedings/no-editors,
4:u:s.,
13:u:proceedings,
28:u:hyphen/proceedings/initial,
5:u:the,
16:u:In/Proceedings,
30:u:terminal/proceedings/initial,
16:u:Proceedings/of,
4:u:gs,
5:u:ngs,
6:u:ings,
8:u:Annual,
8:u:of/the,
5:u:ACM,
4:u:th,
4:u:he,
8:u:annual,
11:u:Symposium,
4:u:24,
5:u:4th,
5:u:acm,
4:u:An,
5:u:Ann,
11:u:symposium,
12:u:Principles,
4:u:um,
12:u:principles,
13:u:Programming,
12:u:Languages,,
4:u:es,
5:u:les,
13:u:programming,
9:u:January,
11:u:languages,
7:u:1997.,
6:u:Prog,
3:u:L,
4:u:La,
5:u:Lan,
6:u:Lang,
6:u:1997,
4:u:Ja,
5:u:Jan,
4:u:ry,
4:u:12,
33:u:internal/proceedings/no-editors,
28:u:internal/proceedings/other,
4:u:7.,
25:u:others/proceedings/_x+1,
4:u:G.,
4:u:di,
4:u:ut,
3:u::,
4:u:s:,
4:u:pr,
4:u:em,
10:u:Computer,
6:u:Aids,
4:u:Ce,
5:u:Cen,
6:u:Cent,
10:u:computer,
4:u:52,
13:u:University,,
11:u:September,
4:u:5,,
7:u:1990.,
4:u:Ru,
4:u:rs,
5:u:ers,
4:u:y,,
5:u:ty,,
6:u:1990,
4:u:Se,
19:u:_x-1/other/single,
3:u:E,
4:u:En,
4:u:Im,
5:u:Imp,
8:u:in/the,
8:u:Trans.,
6:u:ons.,
7:u:trans,
6:u:math,
4:u:Tr,
5:u:Tra,
6:u:Tran,
6:u:ans.,
5:u:Mat,
6:u:Math,
4:u:42,
4:u:68,
6:u:June,
4:u:So,
4:u:.,,
5:u:36,,
6:u:1978,
4:u:Ju,
5:u:197,
4:u:8.,
5:u:78.,
3:u:j,
4:u:E.,
5:u:H.,,
4:u:J.,
3:u:&,
4:u:e,,
7:u:EMPTY,
4:u:D.,
4:u:K.,
30:u:internal/proceedings/initial,
4:u:We,
3:u:k,
27:u:others/proceedings/single,
3:u:(,
4:u:(1,
5:u:(19,
6:u:(199,
4:u:).,
17:u:terminal-parens,
10:u:approach,
40:u:terminal-parens/proceedings/no-editors,
4:u:ic,
5:u:tic,
4:u:ap,
5:u:app,
6:u:appr,
4:u:co,
6:u:ting,
13:u:interaction,
15:u:International,
15:u:international,
12:u:Conference,
5:u:Int,
6:u:Inte,
5:u:nal,
12:u:conference,
12:u:Artificial,
15:u:Intelligence,,
5:u:Con,
6:u:Conf,
4:u:ce,
5:u:nce,
6:u:ence,
12:u:artificial,
5:u:pp.,
14:u:intelligence,
26:u:Artificial/Intelligence,,
4:u:Ar,
5:u:Art,
6:u:Arti,
6:u:cial,
4:u:pp,
9:u:Sydney,,
5:u:ce,,
6:u:nce,,
4:u:p.,
8:u:sydney,
11:u:page/page,
11:u:australia,
5:u:Syd,
6:u:Sydn,
5:u:ia.,
4:u:48,
27:u:internal/proceedings/_x+1,
4:u:S.,
4:u:Bo,
6:u:Book,
4:u:n,,
4:u:by,
8:u:serial,
6:u:ring,
4:u:wo,
5:u:nth,
6:u:enth,
10:u:Research,
4:u:SI,
5:u:SIG,
10:u:research,
13:u:Development,
13:u:Information,
13:u:information,
5:u:Inf,
6:u:Info,
7:u:1995.,
5:u:Ret,
6:u:Retr,
4:u:l,,
6:u:1995,
14:u:page/numeric,
4:u:31,
4:u:7,,
14:u:numeric/year,
4:u:5.,
4:u:U.,
3:u:u,
4:u:Da,
4:u:Ka,
4:u:o,,
3:u:-,
4:u:Th,
5:u:gen,
12:u:Management,
12:u:management,
7:u:pages,
13:u:Washington,,
5:u:Dat,
6:u:Data,
4:u:pa,
5:u:ges,
6:u:ages,
12:u:washington,
5:u:C.,,
4:u:Wa,
5:u:on,,
6:u:ton,,
5:u:117,
6:u:Qiao,
4:u:ao,
15:u:Communication,
4:u:Me,
4:u:m,,
5:u:em,,
15:u:communication,
3:u:",
7:u:quote,
6:u:Comm,
24:u:quote/other/no-editors,
21:u:quote/other/initial,
4:u:Pa,
4:u:Mu,
5:u:Mul,
6:u:Mult,
11:u:Systems",,
3:u:O,
16:u:multiprocessor,
5:u:ted,
4:u:",,
18:u:internal-unquote,
10:u:Proc./of,
35:u:internal-unquote/other/no-editors,
4:u:1,,
5:u:ge,,
5:u:The,
6:u:1989,
6:u:(198,
5:u:9).,
11:u:year/none,
10:u:Systems.,
5:u:Dis,
6:u:Disc,
5:u:ms.,
6:u:ems.,
4:u:77,
6:u:ieee,
4:u:IE,
5:u:IEE,
6:u:IEEE,
4:u:E,,
8:u:double,
13:u:none/double,
16:u:double/numeric,
14:u:numeric/page,
17:u:internal-parens,
5:u:98.,
11:u:page/_x+1,
40:u:internal-parens/proceedings/no-editors,
4:u:Sc,
5:u:Sch,
6:u:1994,
6:u:94).,
16:u:implementation,
34:u:terminal-parens/other/no-editors,
29:u:terminal-parens/other/other,
4:u:im,
5:u:imp,
10:u:learning,
4:u:le,
4:u:g.,
5:u:ng.,
6:u:ing.,
4:u:4,,
4:u:1.,
5:u:E.,,
4:u:No,
5:u:an,,
6:u:1987,
5:u:can,
7:u:guide,
4:u:ca,
4:u:ex,
7:u:logic,
20:u:hyphen/other/other,
10:u:programs,
4:u:lo,
10:u:bulletin,
13:u:none/single,
16:u:single/numeric,
4:u:33,
34:u:internal-parens/other/no-editors,
4:u:Ch,
10:u:Approach,
8:u:theory,
6:u:Theo,
5:u:nt.,
9:u:Machine,
11:u:Learning,,
19:u:Machine/Learning,,
5:u:Mac,
6:u:Mach,
7:u:1991.,
4:u:Le,
5:u:Lea,
6:u:Lear,
6:u:1991,
4:u:9,,
11:u:page/year,
4:u:Ex,
41:u:internal-unquote/proceedings/no-editors,
36:u:internal-unquote/proceedings/other,
4:u:El,
7:u:1992,,
11:u:year/page,
4:u:15,
27:u:terminal/proceedings/_x+1,
4:u:Pe,
6:u:1988,
4:u:22,
11:u:Reasoning,
11:u:reasoning,
13:u:Intelligent,
31:u:terminal-parens/other/initial,
6:u:Reas,
13:u:intelligent,
10:u:networks,
8:u:Morgan,
11:u:Kaufmann.,
5:u:ble,
6:u:ible,
8:u:morgan,
10:u:kaufmann,
5:u:Mor,
6:u:Morg,
4:u:un,
4:u:He,
4:u:li,
4:u:Li,
4:u:i.,
6:u:mass,
10:u:Parallel,
10:u:parallel,
12:u:processing,
5:u:Par,
6:u:Para,
4:u:el,
5:u:lel,
6:u:llel,
5:u:St.,
4:u:25,
9:u:charles,
8:u:August,
4:u:il,
8:u:august,
4:u:29,
21:u:terminal/other/_x+1,
12:u:Complexity,
4:u:re,
10:u:National,
10:u:national,
5:u:San,
5:u:CA.,
4:u:72,
4:u:4.,
6:u:AAAI,
4:u:Sa,
8:u:Press.,
6:u:aaai,
7:u:press,
26:u:internal/proceedings/all,
4:u:AA,
5:u:AAA,
4:u:AI,
5:u:Pre,
6:u:Pres,
8:u:editor,
8:u:Models,
4:u:d,,
8:u:models,
10:u:Advanced,
10:u:Database,
6:u:Mode,
10:u:advanced,
18:u:Morgan-Kaufmann,,
4:u:Ad,
5:u:Adv,
6:u:Adva,
14:u:applications,
16:u:morgankaufmann,
5:u:nn,,
6:u:ann,,
4:u:Bl,
5:u:Bla,
12:u:prediction,
3:u:Z,
4:u:Zi,
9:u:support,
9:u:Fortran,
9:u:fortran,
4:u:sy,
16:u:supercomputing,
6:u:July,
6:u:july,
4:u:is,
13:u:definitions,
5:u:sis,
7:u:Conf.,
6:u:conf,
3:u:',
9:u:unquote,
4:u:f.,
26:u:unquote/other/no-editors,
23:u:unquote/other/initial,
5:u:Rec,
10:u:Workshop,
11:u:Languages,
11:u:compilers,
4:u:Fl,
9:u:methods,
5:u:Pra,
6:u:John,
5:u:Met,
6:u:john,
7:u:wiley,
7:u:Sons,,
4:u:53,
6:u:Wile,
4:u:ey,
5:u:ns,,
5:u:L.,,
4:u:Cl,
4:u:as,
4:u:L.,
5:u:in:,
4:u:n:,
9:u:(eds.),,
7:u:Logic,
5:u:eds,
4:u:Mi,
5:u:Min,
4:u:(e,
5:u:(ed,
5:u:.),,
8:u:Bases,,
4:u:Lo,
29:u:internal-parens/other/other,
8:u:Plenum,
7:u:bases,
8:u:Press,,
13:u:Data/Bases,,
6:u:Base,
6:u:ses,,
7:u:York,,
6:u:york,
3:u:Y,
4:u:Yo,
5:u:Yor,
6:u:York,
4:u:I.,
4:u:t,,
5:u:nt,,
10:u:problems,
6:u:hard,
4:u:d.,
5:u:os.,
5:u:lin,
4:u:ti,
6:u:plan,
6:u:IROS,
5:u:'91,
5:u:pol,
6:u:poly,
4:u:91,
16:u:opening-parens,
33:u:opening-parens/other/no-editors,
5:u:D.,,
4:u:mi,
5:u:ins,
10:u:In/Proc.,
8:u:berlin,
14:u:numeric/_x+1,
5:u:ang,
8:u:design,
4:u:rn,
5:u:ern,
4:u:gn,
5:u:ign,
8:u:VLSI,",
6:u:vlsi,
6:u:Vol.,
5:u:vol,
5:u:No.,
4:u:Vo,
5:u:Vol,
4:u:l.,
5:u:ol.,
4:u:no,
4:u:o.,
4:u:73,
7:u:gupta,
8:u:memory,
5:u:6th,
8:u:Memory,
11:u:Computing,
13:u:Conference,,
5:u:OR,,
7:u:April,
4:u:Po,
5:u:nd,,
6:u:and,,
7:u:april,
7:u:David,
4:u:Ha,
7:u:david,
8:u:markov,
6:u:SAC-,
4:u:EE,
5:u:EEE,
6:u:1986,
4:u:6.,
4:u:i,,
16:u:specifications,
9:u:Journal,
9:u:Systems,
12:u:Journal/of,
5:u:Jou,
6:u:Jour,
6:u:rnal,
10:u:software,
4:u:3,,
5:u:en,,
11:u:knowledge,
6:u:into,
5:u:dge,
6:u:edge,
11:u:Learning.,
4:u:Bi,
5:u:B.,,
4:u:O.,
10:u:physical,
5:u:3).,
6:u:from,
5:u:des,
4:u:om,
18:u:terminal-unquote,
35:u:terminal-unquote/other/no-editors,
32:u:terminal-unquote/other/initial,
4:u:43,
4:u:9.,
4:u:Do,
5:u:ral,
7:u:J.-S.,
4:u:js,
6:u:pang,
12:u:inequality,
6:u:Pang,
9:u:theory,,
12:u:algorithms,
15:u:applications.,
6:u:ory,,
14:u:Mathematical,
14:u:mathematical,
8:u:48(2),,
6:u:appl,
10:u:161-220,,
27:u:Mathematical/Programming,,
5:u:482,
5:u:A.,,
13:u:polynomials,
5:u:als,
6:u:347,,
4:u:Am,
5:u:Ame,
6:u:Amer,
5:u:Soc,
12:u:year-range,
17:u:none/year-range,
4:u:Fe,
10:u:Symbolic,
10:u:symbolic,
4:u:27,
19:u:hyphen/other/_x+1,
11:u:Hennessy.,
10:u:hennessy,
4:u:17,
3:u:),
8:u:parens,
25:u:parens/other/no-editors,
22:u:parens/other/initial,
10:u:internet,
6:u:comm,
6:u:ACM,,
4:u:M,,
5:u:CM,,
10:u:Kennedy,,
9:u:kennedy,
8:u:kremer,
9:u:system.,
8:u:system,
10:u:Science,,
9:u:science,
5:u:Sci,
6:u:Scie,
5:u:ne,,
6:u:ine,,
12:u:Scheduling,
12:u:scheduling,
6:u:Page,
5:u:Ros,
6:u:ural,
11:u:Operating,
11:u:operating,
5:u:CA,,
4:u:(A,
7:u:1994.,
9:u:october,
4:u:TR,
9:u:editor,,
8:u:Neural,
4:u:To,
8:u:neural,
12:u:Processing,
5:u:ll,,
10:u:planning,
4:u:Si,
7:u:tokyo,
5:u:Tok,
6:u:Toky,
5:u:Cal,
5:u:es.,
9:u:SIGPLAN,
9:u:sigplan,
4:u:90,
9:u:Program,
10:u:Language,
9:u:program,
8:u:Design,
17:u:Implementation,,
7:u:White,
5:u:Des,
9:u:Plains,,
7:u:white,
5:u:NY,,
6:u:ion,,
8:u:plains,
15:u:White/Plains,,
4:u:ny,
16:u:Implementation,
11:u:Execution,
11:u:execution,
6:u:Case,
4:u:Ti,
5:u:Tim,
10:u:Software,
13:u:Engineering,
7:u:Ltd.,,
15:u:York/Software,
4:u:rk,
5:u:ork,
13:u:engineering,
5:u:ltd,
5:u:Eng,
7:u:York:,
18:u:Ltd.,/University,
6:u:Task,
10:u:of/York:,
6:u:task,
8:u:Volume,
13:u:single/none,
5:u:ume,
6:u:lume,
7:u:ESTEC,
10:u:contract,
7:u:estec,
15:u:9198/90/NL/SF,
5:u:act,
4:u:Va,
9:u:Lecture,
7:u:Notes,
7:u:notes,
15:u:Lecture/Notes,
5:u:ure,
6:u:ture,
9:u:Science,
10:u:Notes/in,
5:u:Not,
13:u:in/Computer,
10:u:Springer,
4:u:Sp,
5:u:Spr,
6:u:Spri,
5:u:ag,,
6:u:lag,,
9:u:DirecPC,
5:u:hes,
6:u:Home,
6:u:work,
7:u:1996.,
4:u:ht,
5:u:htt,
6:u:http,
5:u:url,
11:u:Anderson,,
10:u:anderson,
4:u:N.,
4:u:Be,
4:u:F.,
4:u:k.,
5:u:ok.,
14:u:Transactions,
14:u:transactions,
14:u:Engineering,,
4:u:Cr,
14:u:Introduction,
14:u:introduction,
7:u:Modal,
5:u:Co.,
6:u:gic.,
13:u:Methuen/and,
10:u:temporal,
9:u:Series,,
32:u:internal-unquote/other/initial,
8:u:series,
9:u:england,
6:u:Engl,
6:u:less,
4:u:ss,
8:u:Tokyo,,
9:u:(1990).,
11:u:discovery,
15:u:understanding,
6:u:1971,
5:u:16,,
6:u:12th,
5:u:163,
15:u:Computational,
5:u:11,,
8:u:Murray,
7:u:Hill,,
8:u:murray,
5:u:NJ:,
6:u:hill,
6:u:AT&T,
14:u:Murray/Hill,,
4:u:nj,
5:u:att,
12:u:Statistics,
4:u:AT,
14:u:laboratories,
12:u:statistics,
5:u:Lab,
12:u:department,
4:u:cs,
5:u:ics,
6:u:tics,
6:u:Depa,
4:u:V.,
6:u:13th,
4:u:13,
14:u:Intelligence,
6:u:tech,
4:u:at,
5:u:via,
4:u:ia,
6:u:(pp.,
5:u:5).,
30:u:opening-parens/other/initial,
15:u:Subrahmanian.,
13:u:Maintaining,
7:u:views,
13:u:maintaining,
16:u:incrementally.,
5:u:Sub,
15:u:incrementally,
5:u:inc,
4:u:93,
6:u:166,,
5:u:Die,
9:u:(1995).,
11:u:Research,,
9:u:Witkin.,
13:u:Scale-space,
8:u:witkin,
12:u:filtering.,
12:u:scalespace,
5:u:in.,
11:u:filtering,
24:u:Scale-space/filtering.,
5:u:art,
4:u:69,
17:u:year-range/year,
5:u:Vel,
5:u:CMU,
6:u:ley,,
7:u:simon,
5:u:Sim,
14:u:Applications,
16:u:Communications,
16:u:communications,
19:u:Communications/of,
4:u:55,
14:u:Optimization,
5:u:220,
13:u:none/triple,
12:u:dependence,
7:u:Ph.D.,
9:u:thesis,,
5:u:phd,
8:u:thesis,
4:u:Ph,
5:u:.D.,
21:u:unquote/other/other,
7:u:March,
5:u:is,,
6:u:sis,,
7:u:march,
4:u:28,
5:u:Mic,
5:u:ogy,
6:u:logy,
4:u:ik,
8:u:Philip,
4:u:Go,
8:u:philip,
5:u:che,
7:u:First,
7:u:first,
12:u:experience,
5:u:red,
4:u:8,,
5:u:18,,
4:u:be,
10:u:modeling,
5:u:rep,
12:u:california,
6:u:Cali,
4:u:(I,
5:u:(IJ,
6:u:(IJC,
4:u:v.,
5:u:ans,
5:u:ses,
13:u:foundations,
12:u:Symposium,,
19:u:Computer/Science,,
5:u:ia,,
8:u:Robert,
8:u:robert,
6:u:Robe,
5:u:van,
5:u:Box,
16:u:in/Proceedings,
5:u:20.,
7:u:Barry,
12:u:Wilkinson,,
9:u:Digital,
8:u:System,
11:u:wilkinson,
9:u:digital,
10:u:Prentice,
16:u:Digital/System,
6:u:Hall,
15:u:System/Design,
6:u:Pren,
5:u:Hal,
4:u:Er,
5:u:jan,
5:u:Der,
12:u:Department,
15:u:Department/of,
21:u:Systems,/University,
11:u:submitted,
6:u:Subm,
10:u:february,
4:u:Eu,
5:u:Eur,
6:u:Euro,
9:u:(1986).,
5:u:rn,,
6:u:orn,,
5:u:MIT,
5:u:6).,
6:u:86).,
8:u:vision,
5:u:mit,
6:u:Dong,
10:u:Stewart.,
9:u:LINPACK,
9:u:linpack,
5:u:Ste,
7:u:users,
6:u:SIAM,
15:u:Publications,,
5:u:Use,
14:u:publications,
20:u:SIAM/Publications,,
5:u:SIA,
4:u:AM,
5:u:IAM,
7:u:1979.,
4:u:Pu,
5:u:Pub,
6:u:1977,
4:u:EM,
7:u:Royal,
9:u:Society,
5:u:Roy,
9:u:society,
6:u:Soci,
5:u:1-3,
10:u:Puschner,
7:u:Anton,
9:u:Schedl.,
7:u:anton,
8:u:schedl,
6:u:tool,
13:u:computation,
6:u:case,
7:u:times,
10:u:automata,
5:u:Chi,
9:u:Applied,
9:u:applied,
9:u:appear.,
5:u:cs,,
6:u:ics,,
8:u:appear,
12:u:to/appear.,
6:u:appe,
6:u:ear.,
12:u:multimedia,
5:u:dia,
3:u:/,
5:u:95,,
4:u:54,
9:u:Thesis,,
13:u:netherlands,
5:u:ds.,
8:u:Gupta.,
18:u:Characterization,
5:u:2nd,
12:u:Equations.,
15:u:Prentice-Hall,
8:u:Series,
14:u:prenticehall,
22:u:Prentice-Hall/Series,
14:u:Mathematics.,
16:u:Prentice-Hall,,
13:u:mathematics,
6:u:Inc,,
28:u:Computational/Mathematics.,
11:u:Englewood,
9:u:Cliffs,,
21:u:Prentice-Hall,/Inc,,
11:u:englewood,
8:u:cliffs,
9:u:Jersey,,
19:u:Englewood/Cliffs,,
10:u:obstacle,
7:u:1988.,
5:u:88.,
6:u:988.,
4:u:On,
11:u:semantics,
7:u:about,
9:u:Actions,
9:u:actions,
8:u:Plans:,
4:u:ab,
7:u:plans,
6:u:Plan,
4:u:86,
11:u:Reprinted,
11:u:reprinted,
10:u:Readings,
14:u:Reprinted/in,
6:u:Repr,
10:u:readings,
11:u:Planning,,
6:u:Read,
14:u:in/Planning,,
7:u:allen,
6:u:Tate,
7:u:1990,,
10:u:523-530.,
26:u:(eds.),/Morgan-Kaufmann,,
24:u:Morgan-Kaufmann,/1990,,
8:u:523530,
35:u:internal-parens/proceedings/other,
8:u:convex,
13:u:Statistics,,
5:u:Old,
4:u:ld,
4:u:VA,
5:u:Nor,
7:u:23529,
5:u:29,,
17:u:lambda-calculus,
16:u:lambdacalculus,
9:u:monads.,
5:u:lam,
8:u:monads,
11:u:amsterdam,
5:u:Ams,
6:u:Amst,
4:u:ra,
5:u:Kar,
4:u:et,
5:u:41,,
9:u:and/the,
5:u:4),,
16:u:representation,
7:u:keane,
5:u:al.,
6:u:[4],,
8:u:et/al.,
3:u:[,
8:u:braces,
4:u:Ab,
17:u:Logic/Programs,,
18:u:Springer-Verlag,,
16:u:springerverlag,
6:u:Berl,
4:u:Br,
5:u:Bri,
6:u:Ling,
10:u:Personal,
3:u:X,
10:u:personal,
25:u:Personal/communication.,
5:u:Per,
6:u:Pers,
7:u:Meyer,
7:u:meyer,
5:u:Mey,
6:u:Meye,
5:u:yer,
6:u:eyer,
8:u:lambda,
9:u:calculi,
9:u:summary,
8:u:Logics,
8:u:logics,
6:u:1985,
13:u:Negotiation,
13:u:negotiation,
6:u:Man,,
9:u:Special,
13:u:cybernetics,
7:u:Issue,
9:u:special,
7:u:issue,
15:u:Special/Issue,
10:u:Issue/on,
4:u:Is,
5:u:sue,
19:u:volume/year-range,
17:u:year-range/none,
8:u:./_x+1,
12:u:asymptotic,
8:u:Annals,
6:u:Anna,
8:u:Random,
11:u:Automata,,
5:u:auf,
6:u:vol.,
4:u:Ed,
6:u:23rd,
7:u:ICALP,
7:u:icalp,
12:u:Paderborn,,
5:u:3rd,
11:u:paderborn,
24:u:Conference,/Paderborn,,
17:u:Paderborn,/July,
5:u:Pad,
6:u:Pade,
10:u:Analysis,
11:u:Language.,
5:u:PhD,
13:u:improvement,
7:u:study,
10:u:European,
10:u:european,
5:u:989,
4:u:98,
5:u:no.,
7:u:1977.,
4:u:30,
9:u:history,
16:u:Massachusetts,,
15:u:massachusetts,
19:u:of/Massachusetts,,
5:u:Mas,
6:u:Mass,
5:u:ts,,
6:u:tts,,
10:u:Learning,
6:u:text,
4:u:ok,
5:u:ook,
6:u:book,
4:u:e:,
10:u:queueing,
5:u:son,
16:u:numeric/single,
13:u:single/year,
8:u:Weber,,
6:u:Lind,
9:u:(1993).,
7:u:drive,
4:u:(E,
5:u:(Ed,
12:u:Cambridge,,
5:u:MA.,
11:u:cambridge,
19:u:Press,/Cambridge,,
5:u:116,
4:u:MA,
9:u:detroit,
4:u:18,
5:u:415,
5:u:hen,
7:u:their,
4:u:ir,
5:u:25-,
5:u:32,,
12:u:collection,
4:u:94,
6:u:Lisp,
6:u:lisp,
10:u:Lisp/and,
4:u:ie,
4:u:u.,
6:u:sche,
9:u:between,
13:u:California,,
11:u:Berkeley,,
10:u:berkeley,
23:u:California,/Berkeley,,
6:u:1984,
11:u:published,
6:u:PARC,
11:u:CSL-84-5.,
14:u:Proceedings,,
11:u:Knowledge,
9:u:The/MIT,
13:u:acquisition,
9:u:(Eds.).,
6:u:(Eds,
8:u:Social,
5:u:Age,
13:u:University.,
4:u:US,
13:u:publication,
11:u:graphical,
3:u:z,
9:u:physics,
12:u:Technology,
12:u:technology,
18:u:"Aggregate-Query,
16:u:Environments",,
13:u:warehousing,
14:u:environments,
5:u:Env,
6:u:Envi,
5:u:Zur,
6:u:chen,
7:u:Doron,
8:u:Rotem,,
6:u:Arie,
7:u:rotem,
11:u:Shoshani,,
6:u:arie,
10:u:shoshani,
14:u:organization,
16:u:Arie/Shoshani,,
11:u:Grammars:,
14:u:Definitions,,
19:u:and/Bibliography,,
6:u:Mohr,
6:u:Lazy,
6:u:lazy,
9:u:Richter,
9:u:(Eds.),,
8:u:Topics,
8:u:topics,
12:u:Case-Based,
12:u:Reasoning.,
5:u:Top,
6:u:Topi,
11:u:casebased,
9:u:Berlin:,
8:u:across,
6:u:ross,
3:u:;,
4:u:Cu,
9:u:natural,
10:u:Academic,
11:u:New/York:,
10:u:academic,
4:u:47,
12:u:techniques,
17:u:multiprocessor.,
10:u:Modeling,
11:u:Sciences,,
10:u:sciences,
10:u:Hardware,
13:u:Description,
13:u:description,
6:u:Hard,
8:u:Kluwer,
17:u:numeric/numeric,
4:u:Mc,
10:u:Compiler,
6:u:Also,
6:u:also,
8:u:(Allen,
9:u:Also/in,
6:u:al.,,
8:u:1990).,
11:u:(Allen/et,
10:u:Planning,
16:u:Contingencies:,
16:u:Decision-based,
15:u:decisionbased,
5:u:www,
10:u:url/_x+1,
6:u:ness,
8:u:patent,
6:u:0054,
5:u:881,
4:u:Ji,
5:u:und,
10:u:Temporal,
4:u:S,,
12:u:Analysis",,
11:u:Software.,
16:u:IEEE/Software.,
5:u:Van,
6:u:Colo,
11:u:To/appear,
11:u:appear/in,
8:u:coding,
5:u:30,,
6:u:Talk,
11:u:discourse,
5:u:le:,
6:u:Logo,
14:u:instruction.,
11:u:Discourse,
13:u:instruction,
12:u:Processes,,
11:u:processes,
10:u:183-201.,
22:u:Discourse/Processes,,
8:u:Record,
8:u:record,
12:u:Francisco,,
4:u:Fr,
10:u:Selected,
7:u:Areas,
10:u:selected,
7:u:areas,
16:u:Communication,,
5:u:Are,
5:u:134,
13:u:volume/none,
10:u:preprint,
6:u:Prep,
6:u:int,,
10:u:machines,
5:u:ue,,
4:u:yu,
4:u:Yu,
5:u:28,,
12:u:firstorder,
6:u:273,,
11:u:processor,
6:u:1982,
8:u:london,
5:u:Lon,
6:u:Lond,
9:u:Borman,,
9:u:Editor,,
10:u:``Telnet,
8:u:borman,
8:u:telnet,
5:u:Edi,
6:u:Edit,
10:u:Internet,
8:u:Force,,
8:u:Telnet,
7:u:force,
9:u:Working,
7:u:Group,
9:u:working,
7:u:group,
10:u:practice,
10:u:Interval,
10:u:December,
5:u:Bro,
11:u:detection,
10:u:lectures,
9:u:SemStat,
6:u:ited,
12:u:(Seminaire,
10:u:Europeen,
10:u:Denmark,,
7:u:25-30,
21:u:Sandbjerg,/Denmark,,
6:u:2530,
8:u:1992).,
4:u:Pi,
6:u:Paul,
6:u:paul,
20:u:Waterloo,/Ontario.,
7:u:state,
6:u:(3),,
6:u:Carl,
6:u:diss,
9:u:pattern,
9:u:Pattern,
11:u:generated,
16:u:Preprint./_x+1,
6:u:int.,
8:u:Livny.,
8:u:Condor,
8:u:condor,
10:u:Summary.,
18:u:Condor/Technical,
6:u:Wisc,
8:u:forces,
11:u:Institute,
11:u:institute,
4:u:a:,
15:u:Institute/for,
10:u:American,
13:u:Association,
10:u:american,
6:u:ican,
8:u:aaai93,
5:u:See,
6:u:9603,
12:u:(Submitted,
15:u:publication),,
16:u:(Submitted/for,
19:u:for/publication),,
11:u:Functions,
8:u:Having,
8:u:having,
10:u:Support,,
9:u:Approx.,
17:u:Global/Support,,
7:u:Rees,,
10:u:Rees,/J.,
6:u:rees,
9:u:Clinger,
9:u:clinger,
9:u:revised,
8:u:Thomas,
5:u:Tho,
24:u:Nearest-Hyperrectangle,
13:u:Algorithms.,
5:u:19,,
10:u:williams,
10:u:Toronto,,
9:u:toronto,
5:u:hat,
7:u:1982.,
19:u:Cambridge,/Mass.,,
12:u:1982./_x+1,
5:u:82.,
6:u:982.,
6:u:Hull,
7:u:Anoop,
7:u:anoop,
5:u:rew,
4:u:Ur,
5:u:120,
5:u:Mus,
7:u:order,
12:u:imperative,
5:u:Pol,
5:u:K.,,
13:u:Visualizer,,
7:u:Human,
12:u:Publishing,
10:u:Company,,
9:u:company,
14:u:Implications,
6:u:ered,
7:u:child,
6:u:102.,
13:u:double/none,
9:u:william,
7:u:Inc.,,
10:u:edition,,
9:u:edition,
12:u:3/edition,,
8:u:effect,
6:u:Karl,
4:u:Ot,
4:u:we,
5:u:dem,
6:u:hang,
3:u:],
9:u:dynamic,
11:u:Concepts,,
5:u:Ed.,
13:u:E./Neuhold,,
6:u:Co.,,
6:u:Nort,
4:u:(P,
10:u:985-987.,
8:u:985987,
18:u:985-987./Special,
11:u:Discovery,
14:u:construction,
5:u:40,,
5:u:Two,
6:u:ches,
12:u:networking,
5:u:se.,
6:u:Thou,
8:u:77-84.,
10:u:Physical,
13:u:Laboratory.,
12:u:laboratory,
7:u:(ed.),
10:u:Semantic,
16:u:Minsky`s/(ed.),
6:u:Mins,
4:u:`s,
5:u:y`s,
6:u:ky`s,
10:u:semantic,
4:u:.),
6:u:ed.),
7:u:Press,
17:u:Representation,,
9:u:english,
5:u:Sun,
10:u:Patnaik.,
16:u:communication,,
9:u:patnaik,
25:u:Personal/communication,,
9:u:Quantum,
5:u:aut,
11:u:Graphical,
6:u:Mark,
6:u:Redo,
7:u:after,
9:u:Ullman.,
12:u:Compilers:,
13:u:Principles,,
13:u:Techniques,,
8:u:Tools.,
17:u:Addison-Wesley,,
7:u:tools,
12:u:and/Tools.,
8:u:second,
17:u:second/edition,,
5:u:sec,
11:u:approach.,
10:u:graphics,
4:u:OC,
7:u:Paris,
7:u:paris,
6:u:Refo,
14:u:Association,,
8:u:Review,
8:u:review,
5:u:Rev,
9:u:Jeffrey,
5:u:Jef,
10:u:Stanford,
7:u:FLASH,
10:u:stanford,
7:u:flash,
6:u:Unit,
5:u:Stu,
9:u:project,
10:u:Wagener.,
11:u:Handbook.,
14:u:McGraw-Hill,,
10:u:handbook,
5:u:McG,
6:u:McGr,
6:u:Ruth,
6:u:ruth,
7:u:Bruce,
10:u:Jean-Luc,
9:u:jeanluc,
4:u:na,
4:u:50,
10:u:Germany.,
9:u:germany,
6:u:Worl,
3:u:?,
15:u:connectionist,
6:u:Hans,
12:u:(NIPS*92),,
8:u:nips92,
10:u:855-862,,
14:u:5/(NIPS*92),,
18:u:(NIPS*92),/pages,
5:u:(NI,
6:u:(NIP,
6:u:92),,
8:u:Hudak,,
7:u:Simon,
8:u:Peyton,
7:u:hudak,
8:u:peyton,
8:u:Wadler,
12:u:(Editors).,
8:u:wadler,
10:u:Haskell,,
9:u:haskell,
6:u:1.2.,
5:u:1.2,
9:u:Change.,
8:u:change,
5:u:MA:,
20:u:Change./Cambridge,,
16:u:Cambridge,/MA:,
4:u:A:,
10:u:Benthem,,
9:u:benthem,
11:u:parallels,
10:u:Roberts,,
9:u:roberts,
11:u:presented,
4:u:97,
16:u:(International,
18:u:Thermomechanical,
14:u:Processing),,
18:u:thermomechanical,
31:u:Thermomechanical/Processing),,
5:u:Rol,
11:u:available,
5:u:WWW,
4:u:Av,
5:u:Ava,
6:u:Avai,
9:u:Gaudiot,
10:u:November,
10:u:november,
8:u:versus,
4:u:95,
13:u:Scheduling,,
4:u:ck,
10:u:Triggers,
8:u:Clara,,
7:u:8-11,,
7:u:1991,,
5:u:811,
13:u:April/8-11,,
13:u:8-11,/1991,,
6:u:131.,
5:u:Wei,
4:u:d:,
9:u:Lincoln,
9:u:lincoln,
6:u:labs,
6:u:SPIE,
4:u:ii,
4:u:II,
9:u:masters,
17:u:Masters/Thesis,,
6:u:Mast,
11:u:Byzantine,
5:u:Bad,
4:u:ad,
9:u:service,
16:u:transformation,
11:u:November,,
5:u:da,,
7:u:Utah,,
6:u:utah,
9:u:Medical,
6:u:Utah,
12:u:Biophysics,
12:u:biophysics,
6:u:Salt,
6:u:Lake,
16:u:and/Computing,,
6:u:salt,
7:u:City,,
6:u:lake,
6:u:city,
18:u:specifications",,
7:u:Draft,
8:u:Paper,,
7:u:draft,
7:u:paper,
14:u:Draft/Paper,,
5:u:Pap,
6:u:Pape,
6:u:B39,,
10:u:Progress,
14:u:Recognition,,
12:u:Annotation,
9:u:Virtual,
8:u:norris,
8:u:Kernel,
26:u:Internetworking:Research,
25:u:internetworkingresearch,
13:u:Experience,,
6:u:hart,
7:u:zhang,
4:u:Z.,
4:u:3D,
9:u:Dynamic,
8:u:Issues,
4:u:du,
9:u:effect.,
10:u:AAAI-91.,
7:u:AAAI.,
8:u:aaai91,
16:u:AAAI-91./AAAI.,
12:u:AAAI./_x+1,
5:u:AI.,
6:u:AAI.,
8:u:Speech,
8:u:speech,
13:u:Processing.,
11:u:Networked,
5:u:r).,
5:u:29.,
6:u:talk,
15:u:closing-brace,
32:u:opening-brace/other/no-editors,
29:u:opening-brace/other/initial,
32:u:closing-brace/other/no-editors,
14:u:quantitative,
5:u:STA,
6:u:1980,
5:u:87,,
4:u:Ir,
6:u:Map.,
8:u:9,/pp.,
9:u:Cytron,,
9:u:SPLASH:,
14:u:Anoop/Gupta.,
8:u:splash,
14:u:Architecture,
5:u:201,
7:u:Jade.,
8:u:Bonnie,
6:u:Lynn,
8:u:bonnie,
6:u:Eric,
12:u:Mays,/Eric,
14:u:Eric/(1983).,
5:u:Eri,
5:u:ric,
11:u:varieties,
5:u:he.,
11:u:Analysis,,
10:u:Collins,,
9:u:collins,
6:u:Coll,
14:u:Northwestern,
14:u:northwestern,
10:u:managing,
4:u:(2,
9:u:Michael,
9:u:michael,
6:u:Goh,,
8:u:Spyros,
13:u:Potamianos.,
8:u:spyros,
12:u:potamianos,
8:u:rules,,
20:u:Spyros/Potamianos.,
11:u:Katherine,
11:u:katherine,
11:u:Structure,
14:u:Seventh/IEEE,
11:u:structure,
8:u:murphy,
5:u:Fre,
6:u:Micr,
5:u:Bre,
6:u:Stud,
5:u:Nic,
11:u:universal,
12:u:hypermedia,
13:u:Educational,
12:u:Multimedia,
13:u:educational,
16:u:of/Educational,
13:u:Hypermedia,,
24:u:Educational/Multimedia,
6:u:2(1),
16:u:Multimedia/and,
8:u:39-66,,
17:u:and/Hypermedia,,
5:u:Ron,
4:u:MS,
6:u:mary,
5:u:om.,
5:u:33,,
5:u:Los,
5:u:416,
6:u:429,,
5:u:429,
7:u:Study,
11:u:Volume/E,,
6:u:Ltd,,
5:u:VI,,
4:u:60,
7:u:james,
17:u:STACS,/163-174.,
6:u:STAC,
5:u:CS,,
6:u:ACS,,
7:u:games,
10:u:Economic,
10:u:economic,
4:u:82,
8:u:Markov,
5:u:ved,
8:u:search,
14:u:dissertation,
18:u:STAN-CS-92-1462,,
14:u:stancs921462,
7:u:moses,
6:u:Mose,
14:u:Multivariate,
13:u:Statistics.,
13:u:Chichester:,
8:u:Wiley.,
12:u:chichester,
20:u:Chichester:/Wiley.,
6:u:Chic,
5:u:ish,
6:u:lish,
6:u:1953,
5:u:ACA,
15:u:ACA/Monograph,
14:u:Quantitative,
11:u:Approach,,
10:u:Variable,
7:u:North,
7:u:north,
8:u:Signal,
5:u:um.,
6:u:aum.,
12:u:Biomedical,
6:u:1808,
13:u:SPIE,/1808,,
16:u:1808,/259-273.,
6:u:808,,
9:u:theory.,
8:u:McGraw,
8:u:mcgraw,
14:u:McGraw/Hill,,
10:u:New/York,
15:u:Massachusetts,
8:u:Keane,,
9:u:Padraig,
13:u:Cunningham,,
9:u:padraig,
6:u:Mike,
12:u:cunningham,
8:u:Brady,,
4:u:ig,
6:u:mike,
7:u:brady,
19:u:University/Press,,
13:u:enumeration,
10:u:methods.,
10:u:Handbook,
16:u:Combinatorics,,
13:u:In/Handbook,
13:u:Handbook/of,
15:u:combinatorics,
9:u:Graham,,
19:u:of/Combinatorics,,
8:u:Family,
8:u:family,
8:u:Ferris,
8:u:ferris,
9:u:through,
6:u:35th,
9:u:meeting,
7:u:lewis,
8:u:Steven,
8:u:steven,
14:u:nonmonotonic,
8:u:images,
12:u:scientific,
10:u:schwartz,
11:u:Williams,,
5:u:PDP,
5:u:pdp,
15:u:WorldWideWeb:,
13:u:Networking:,
9:u:Policy,,
8:u:policy,
8:u:52-58,,
8:u:Spring,
6:u:Poli,
6:u:5258,
8:u:spring,
15:u:52-58,/Spring,
14:u:Spring/1992.,
7:u:About,
8:u:Plans,,
11:u:analyses,,
10:u:interact,
13:u:INTERACT/90,
6:u:1-5,,
6:u:T3D.,
16:u:SRC-TR-95-141,,
5:u:try,
6:u:etry,
6:u:Wang,
10:u:evidence,
5:u:(G.,
5:u:ed.,
11:u:factoring,
6:u:1970,
7:u:world,
13:u:Perception,,
12:u:perception,
8:u:making,
6:u:east,
6:u:Meta,
6:u:649,,
8:u:Summer,
8:u:summer,
4:u:1:,
5:u:rer,
5:u:19.,
5:u:von,
5:u:Cul,
6:u:19th,
9:u:LaPorta,
8:u:Mischa,
11:u:Schwartz.,
8:u:mischa,
4:u:6),
25:u:Nonmonotonic/Reasoning.,
8:u:Vision,
11:u:Graphics:,
11:u:Practice,,
7:u:1998.,
5:u:oth,
6:u:1998,
6:u:998.,
9:u:chapter,
5:u:ong,
6:u:Palo,
10:u:135-150,,
5:u:135,
15:u:Microsystems.,
6:u:Java,
7:u:(tm):,
10:u:_x-1/Sun,
19:u:Sun/Microsystems.,
5:u:sun,
14:u:microsystems,
6:u:java,
11:u:Internet.,
22:u:http://java.sun.com.,
16:u:httpjavasuncom,
32:u:Internet./http://java.sun.com.,
27:u:http://java.sun.com./_x+1,
6:u:com.,
6:u:1965,
12:u:Hillsdale,,
11:u:hillsdale,
10:u:Erlbaum.,
9:u:erlbaum,
15:u:Erlbaum./_x+1,
5:u:Erl,
6:u:Erlb,
7:u:Bled,,
11:u:Slovenia.,
6:u:bled,
10:u:slovenia,
17:u:Bled,/Slovenia.,
6:u:cell,
9:u:Baldwin,
9:u:baldwin,
8:u:verbal,
5:u:Law,
5:u:Irw,
6:u:Irwi,
10:u:131-138.,
10:u:Society,,
7:u:eines,
5:u:zum,
6:u:eine,
4:u:zu,
29:u:Universitat/Kaiserslautern.,
6:u:Text,
14:u:Segmentation,
14:u:segmentation,
8:u:Topic,,
5:u:Tex,
12:u:Fourteenth,
12:u:fourteenth,
8:u:Math.,,
8:u:CONVEX,
14:u:Corporation,,
11:u:"Exemplar,
13:u:corporation,
23:u:Computer/Corporation,,
16:u:Technology/and,
8:u:Simple,
8:u:simple,
19:u:Simple/imperative,
26:u:imperative/polymorphism.,
13:u:Computation,
14:u:and/Symbolic,
22:u:Symbolic/Computation,
4:u:pi,
9:u:Review,,
15:u:Connectionist,
9:u:School,,
11:u:Davidson,,
10:u:davidson,
4:u:Ox,
7:u:Pages,
10:u:160-168,,
14:u:Computing/9,,
8:u:160168,
8:u:Papers,
8:u:papers,
10:u:Regional,
9:u:Meeting,
9:u:Chicago,
5:u:Mee,
6:u:Meet,
9:u:chicago,
9:u:Fields:,
6:u:Ming,
13:u:the/special,
15:u:special/issue,
9:u:Review.,
5:u:273,
6:u:Last,
5:u:5q.,
5:u:Am.,
5:u:269,
9:u:Revised,
9:u:Studies,
9:u:studies,
6:u:From,
5:u:353,
7:u:union,
5:u:566,
10:u:Detroit,,
5:u:MI.,
5:u:den,
8:u:82(1),,
19:u:IEEE/Proceedings,,
5:u:821,
16:u:Colloquium'87,,
10:u:Granada,,
14:u:colloquium87,
9:u:granada,
10:u:331-375.,
25:u:Colloquium'87,/Granada,,
12:u:Australian,
12:u:australian,
12:u:Melbourne,,
11:u:melbourne,
6:u:2001,
5:u:(20,
6:u:(200,
14:u:relationship,
9:u:therapy,
5:u:DC:,
6:u:2002,
6:u:AIDS,
6:u:care,
6:u:2005,
17:u:Person-Centered,
16:u:personcentered,
6:u:2004,
15:u:personcentred,
8:u:(Eds.),
16:u:Person-Centred,
6:u:Ross,
6:u:auth,
8:u:Rogers,
8:u:rogers,
6:u:2000,
14:u:experiential,
15:u:psychotherapy,
8:u:Velha:,
6:u:Vale,
7:u:velha,
10:u:a/Velha:,
6:u:vale,
6:u:Velh,
5:u:ha:,
6:u:lha:,
16:u:psychotherapy.,
11:u:research.,
9:u:London:,
6:u:Sage,
10:u:emotions,
19:u:Lawrence/Erlbaum.,
6:u:2003,
9:u:89-98).,
6:u:lind,
8:u:Berlin,
5:u:US:,
4:u:Es,
5:u:cia,
14:u:Dissertation,
11:u:Abstracts,
16:u:International:,
11:u:abstracts,
9:u:Section,
24:u:Dissertation/Abstracts,
6:u:Diss,
14:u:Experiential,
8:u:Tribes,
9:u:Nation:,
8:u:nation,
7:u:Guide,
9:u:Schools,
9:u:schools,
9:u:Therapy,
10:u:Counsels,
10:u:counsels,
6:u:Blac,
6:u:Cult,
6:u:(2nd,
7:u:ed.).,
12:u:(2nd/ed.).,
5:u:(2n,
10:u:focusing,
8:u:Warner,
8:u:warner,
9:u:century,
6:u:2006,
13:u:therapeutic,
11:u:approach:,
8:u:agenda,
11:u:political,
10:u:feminist,
10:u:feminism,
5:u:Fem,
6:u:Femi,
10:u:politics,
9:u:Barker,,
8:u:barker,
8:u:mental,
5:u:men,
8:u:Health,
5:u:AA.,
13:u:reflections,
4:u:tt,
13:u:conditions:,
12:u:Evolution,,
12:u:conditions,
18:u:Psychotherapies,,
5:u:144,
9:u:(2003).,
5:u:UK:,
8:u:at/the,
5:u:re:,
5:u:ia:,
9:u:Chinese,
9:u:chinese,
6:u:Chin,
10:u:cultural,
10:u:64(6-A),,
6:u:646a,
12:u:philosophy,
9:u:(Eugene,
8:u:eugene,
7:u:adult,
11:u:childhood,
7:u:edge:,
5:u:NP.,
11:u:hawthorne,
8:u:Edited,
8:u:edited,
11:u:Edited/by,
5:u:roy,
10:u:America,,
9:u:america,
13:u:of/America,,
12:u:Abjection.,
10:u:Columbia,
10:u:columbia,
21:u:Columbia/University,
14:u:Press,/1982.,
9:u:George,,
8:u:george,
12:u:afterword.,
10:u:Chicago:,
7:u:2003.,
16:u:Chicago/Press,,
14:u:Press,/2003.,
5:u:200,
12:u:Rethinking,
15:u:Architecture:,
8:u:Reader,
26:u:Rethinking/Architecture:,
10:u:Cultural,
12:u:Routledge,,
12:u:translated,
8:u:Donald,
18:u:Nicholson-Smith.,
8:u:donald,
9:u:Oxford:,
8:u:oxford,
5:u:Oxf,
6:u:Oxfo,
6:u:1960,
5:u:Gut,
12:u:Genealogie,
5:u:zur,
12:u:genealogie,
7:u:Colli,
11:u:Montinari,
10:u:Mazzino.,
11:u:montinari,
9:u:mazzino,
11:u:Kritische,
17:u:Studienausgabe.,
11:u:kritische,
16:u:studienausgabe,
27:u:Kritische/Studienausgabe.,
6:u:1999,
9:u:Deborah,
7:u:women,
9:u:Milton,,
16:u:Paradise/Lost.,
10:u:Leonard.,
5:u:Leo,
8:u:Keith,,
8:u:tester,
11:u:Flâneur.,
15:u:The/Flâneur.,
10:u:William.,
6:u:four,
8:u:(1798,,
7:u:1799,,
7:u:1805,,
6:u:1799,
8:u:1850).,
6:u:1805,
6:u:1850,
5:u:Poe,
12:u:Literature,
12:u:literature,
5:u:194,
8:u:Kurtz.,
9:u:‘Mary,
9:u:Rogers,,
14:u:Rogers,/John,
12:u:Others’.,
16:u:John/Anderson,,
5:u:Oth,
6:u:Othe,
8:u:Modern,
8:u:modern,
10:u:religion,
5:u:3/4,
10:u:Reprint,,
14:u:illustrated.,
9:u:reprint,
14:u:Bloomington:,
13:u:illustrated,
8:u:Idiana,
23:u:Reprint,/illustrated.,
13:u:bloomington,
5:u:Blo,
7:u:iliad,
6:u:4th.,
5:u:don,
6:u:ndon,
10:u:Hermann.,
13:u:Labyrinthe:,
20:u:Erscheinungsformen,
12:u:labyrinthe,
20:u:erscheinungsformen,
12:u:Deutungen.,
11:u:deutungen,
11:u:expanded.,
11:u:München:,
13:u:Revised/and,
10:u:expanded,
10:u:Prestel,,
15:u:and/expanded.,
10:u:münchen,
7:u:Ovid.,
23:u:Ovid./Metamorphoseon.,
6:u:ovid,
16:u:metamorphoseon,
24:u:Metamorphoseon./Edited,
6:u:eon.,
6:u:2010,
12:u:Chronotope,
12:u:chronotope,
7:u:novel,
10:u:dialogic,
14:u:imagination:,
13:u:imagination,
8:u:essays,
10:u:holquist,
9:u:Emerson,
15:u:interpolating,
10:u:splines,,
6:u:R.E.,
10:u:Barnhill,
9:u:in/R.E.,
10:u:barnhill,
7:u:Aided,
7:u:aided,
11:u:geometric,
6:u:ed.,,
11:u:Macmillan,
11:u:macmillan,
7:u:1872.,
6:u:1872,
5:u:187,
7:u:dover,
4:u:].,
6:u:ISBN,
6:u:isbn,
5:u:-3.,
5:u:doi,
6:u:doi:,
10:u:doi/_x+1,
6:u:idge,
5:u:978,
6:u:978-,
6:u:(2).,
8:u:Green,,
9:u:(2009).,
5:u:"We,
7:u:green,
6:u:2009,
6:u:Need,
12:u:T./(2009).,
13:u:(2009)./"We,
6:u:09).,
6:u:need,
11:u:Standards,
11:u:Retrieved,
11:u:retrieved,
23:u:Retrieved/2010-08-07.,
6:u:eved,
8:u:2/ed.,,
11:u:Cambridge,
4:u:BP,
6:u:2007,
17:u:Interpolation",,
10:u:Recipes:,
9:u:recipes,
20:u:Numerical/Recipes:,
14:u:Recipes:/The,
12:u:Scientific,
6:u:(3rd,
9:u:(1999).,
12:u:Foundation,
7:u:Upper,
8:u:Saddle,
8:u:River,,
8:u:saddle,
14:u:Upper/Saddle,
6:u:Uppe,
6:u:pper,
7:u:river,
14:u:"Intelligent,
10:u:Security,
10:u:Markets.,
9:u:markets,
16:u:1-55738-811-3.,
17:u:Chicago:/Irwin.,
13:u:Irwin./ISBN,
6:u:win.,
12:u:1557388113,
10:u:Kellert,,
6:u:Wake,
8:u:In/the,
6:u:wake,
8:u:Chaos:,
15:u:Unpredictable,
7:u:chaos,
7:u:Order,
15:u:unpredictable,
11:u:Dynamical,
11:u:dynamical,
10:u:Kyrtsou,,
16:u:macroeconomics,
11:u:approach,,
8:u:Trends,
8:u:in/New,
8:u:trends,
17:u:Macroeconomics,,
12:u:New/Trends,
10:u:Diebolt,,
20:u:in/Macroeconomics,,
14:u:Diebolt,/C.,,
9:u:College,
9:u:college,
10:u:Imperial,
5:u:pic,
9:u:viscous,
6:u:Nauk,
6:u:SSSR,
9:u:Abraham,
9:u:abraham,
11:u:Yoshisuke,
7:u:Ueda,,
11:u:yoshisuke,
7:u:World,
10:u:Chapters,
10:u:chapters,
18:u:_x-1/other/other,
9:u:History,
6:u:Fred,
6:u:Town,
10:u:Hanover,,
9:u:hanover,
12:u:Hampshire.,
10:u:Concord,,
14:u:Hanover,/New,
11:u:hampshire,
9:u:concord,
12:u:Hampshire:,
5:u:Ham,
13:u:The/Rumford,
9:u:(1961).,
6:u:1961,
7:u:walks,
8:u:Market,
8:u:market,
8:u:George,
5:u:law,
5:u:546,
5:u:272,
5:u:368,
12:u:Heinz-Otto,
9:u:Peitgen,
9:u:Dietmar,
11:u:heinzotto,
9:u:peitgen,
7:u:Saupe,
9:u:dietmar,
7:u:saupe,
9:u:Fractal,
9:u:Images,,
9:u:fractal,
5:u:312,
6:u:Euel,
6:u:2013,
7:u:Henry,
8:u:Essays,
9:u:English,
9:u:writers,
6:u:(New,
6:u:427,,
6:u:426.,
16:u:The/Europeans,,
13:u:1871–1880,
8:u:novels,
12:u:in/Novels,,
10:u:18711880,
21:u:Novels,/1871–1880,
6:u:1871,
10:u:Lincoln,,
10:u:Speeches,
18:u:Abraham/Lincoln,,
10:u:speeches,
11:u:Writings,,
14:u:1832–1858,,
10:u:writings,
10:u:18321858,
24:u:Writings,/1832–1858,,
8:u:Urban,,
5:u:Urb,
6:u:Urba,
6:u:ban,,
10:u:Fenner/M,
12:u:Available:,
6:u:ble:,
12:u:Quarterly.,
11:u:quarterly,
46:u:http://dx.doi.org/10.3789/isqv25no2.2013.01.,
35:u:httpdxdoiorg103789isqv25no2201301,
57:u:Available:/http://dx.doi.org/10.3789/isqv25no2.2013.01.,
6:u:2008,
10:u:"Charles,
8:u:Hise.",
6:u:hise,
12:u:Wikipedia.,
11:u:wikipedia,
10:u:modified,
15:u:In/Wikipedia.,
6:u:last,
5:u:Wik,
6:u:Wiki,
6:u:dia.,
15:u:Last/modified,
7:u:2013.,
5:u:CIA,
11:u:Factbook.,
11:u:CIA/World,
10:u:factbook,
17:u:World/Factbook.,
9:u:Agency,,
7:u:2009.,
8:u:agency,
5:u:Why,
5:u:Bus,
6:u:Busi,
10:u:Business,
10:u:business,
5:u:ina,
11:u:Scranton.,
19:u:Houghton-Mifflin,,
7:u:2006.,
17:u:houghtonmifflin,
10:u:257-263.,
25:u:York:/Houghton-Mifflin,,
25:u:Houghton-Mifflin,/2006.,
5:u:Hou,
6:u:Houg,
8:u:257263,
6:u:read,
8:u:Times,,
8:u:Gender,
8:u:gender,
7:u:2008.,
11:u:Marshall,,
10:u:marshall,
5:u:Vic,
6:u:Vict,
10:u:Critical,
10:u:critical,
12:u:Cambridge:,
22:u:Cambridge:/Cambridge,
7:u:1985,,
6:u:sec.,
5:u:1A,,
4:u:1a,
10:u:sec./1A,,
12:u:Provincial,
12:u:provincial,
11:u:950-1100.,
9:u:9501100,
20:u:Society,/950-1100.,
14:u:Press,/2008.,
14:u:Shakespeare,,
10:u:Othello.,
11:u:Milwaukee,
13:u:shakespeare,
9:u:othello,
11:u:Repertory,
19:u:William./Othello.,
11:u:milwaukee,
10:u:Theater,,
20:u:Othello./Milwaukee,
5:u:lo.,
6:u:llo.,
11:u:repertory,
12:u:Milwaukee,,
21:u:Milwaukee/Repertory,
5:u:kee,
6:u:ukee,
9:u:theater,
6:u:2012,
13:u:Soderbergh,,
9:u:Steven,,
11:u:director.,
6:u:Che.,
21:u:Soderbergh,/Steven,,
12:u:soderbergh,
10:u:director,
6:u:DVD.,
19:u:Steven,/director.,
16:u:director./Che.,
5:u:dvd,
11:u:Che./DVD.,
11:u:Criterion,
13:u:Collection,,
11:u:criterion,
8:u:United,
8:u:united,
10:u:Accessed,
8:u:rights,
12:u:"Sincerity,
19:u:Objectification.",
8:u:Poetry,
17:u:objectification,
8:u:poetry,
11:u:(February,
26:u:Objectification."/Poetry,
8:u:1931):,
11:u:Poetry/37,
6:u:Poet,
6:u:269.,
14:u:37/(February,
11:u:Costello,,
10:u:Marianne,
10:u:costello,
8:u:Moore:,
10:u:marianne,
11:u:Imaginary,
7:u:moore,
13:u:Possessions,
13:u:(Director).,
14:u:Davidson,/J.,
6:u:or).,
10:u:Skinner:,
9:u:skinner,
7:u:fresh,
11:u:appraisal,
9:u:[Motion,
11:u:picture].,
8:u:motion,
9:u:picture,
9:u:States:,
19:u:[Motion/picture].,
18:u:picture]./United,
6:u:pict,
8:u:states,
16:u:United/States:,
29:u:closing-brace/other/initial,
8:u:studio,
18:u:Davidson/Studio.,
10:u:producer,
5:u:(Pr,
6:u:(Pro,
10:u:Chaffin,,
14:u:Chaffin,/C.,,
9:u:chaffin,
14:u:(Producers),,
11:u:producers,
7:u:Bros.,
10:u:pictures,
9:u:Barron,,
9:u:Heyman,,
8:u:barron,
8:u:heyman,
8:u:prince,
8:u:Moore,,
20:u:(Writer/Director).,
11:u:Moore,/M.,
16:u:writerdirector,
9:u:Bowling,
23:u:M./(Writer/Director).,
5:u:vic,
6:u:Gale,
14:u:encyclopedia,
11:u:disorders,
6:u:28).,
10:u:England:,
6:u:Aged,
7:u:Care.,
6:u:aged,
13:u:depression,,
12:u:depression,
11:u:Canberra,,
6:u:ACT:,
19:u:depression,/1998.,
10:u:canberra,
7:u:AGPS.,
17:u:1998./Canberra,,
12:u:psychology,
8:u:harlow,
4:u:FT,
11:u:Sociology,
11:u:sociology,
12:u:millennium,
14:u:Sociological,
14:u:sociological,
6:u:held,
27:u:Sociological/Association,,
6:u:7-10,
5:u:710,
15:u:7-10/December,
10:u:victoria,
8:u:(2006,,
7:u:25-26,
9:u:March).,
6:u:2526,
7:u:Paper,
12:u:Integrated,
10:u:Vehicles,
10:u:Bickman,,
8:u:Ellis,,
7:u:ellis,
13:u:Utah,/1988.,
18:u:1988./Hillsdale,,
16:u:Retrieved/from,
6:u:194.,
5:u:AU.,
7:u:care:,
9:u:1/April,
12:u:April/2004,
7:u:2005.,
17:u:September/2005.,
12:u:Australia,,
7:u:Child,
12:u:Protection,
10:u:website:,
12:u:protection,
125:u:http://www.community.wa.gov.au/NR/rdonlyres/851183A4-A822-4592-AB66-C410E453AEEC/0/DCDRPTGwennMurrayreportwithcover2006.pdf,
18:u:Child/Protection,
9:u:website,
21:u:Protection/website:,
108:u:httpwwwcommunitywagovaunrrdonlyres851183a4a8224592ab66c410e453aeec0dcdrptgwennmurrayreportwithcover2006pdf,
8:u:kills?,
6:u:Age:,
8:u:Extra,,
7:u:extra,
14:u:breakthrough,
12:u:parkinsons,
8:u:Times.,
12:u:The/Times.,
6:u:29).,
8:u:Theses,
10:u:Program.,
8:u:theses,
16:u:(WU2006.0058).,
13:u:(Producer),,
6:u:DRD2,
4:u:A1,
12:u:depressive,
7:u:Jenny,
8:u:Holzer,
7:u:2011,,
13:u:About/Jenny,
7:u:jenny,
8:u:holzer,
14:u:Jenny/Holzer,
6:u:2011,
13:u:Microcinema,
16:u:International,,
6:u:011,,
3:u:+,
12:u:television,
10:u:program,,
14:u:Broadcasting,
14:u:broadcasting,
12:u:4/October.,
3:u:=,
17:u:Cantene/Titanus,
10:u:picture,,
9:u:British,
6:u:Film,
17:u:motion/picture,,
9:u:british,
12:u:exhibition,
9:u:fashion,
12:u:catalogue,,
11:u:catalogue,
10:u:March-27,
23:u:exhibition/catalogue,,
5:u:exh,
6:u:exhi,
9:u:march27,
13:u:11/March-27,
9:u:Gallery,
9:u:gallery,
11:u:Victoria,,
18:u:National/Gallery,
6:u:Vic.,
14:u:of/Victoria,,
22:u:Victoria,/Melbourne,,
6:u:ria,,
5:u:edn,
11:u:Brisbane.,
10:u:brisbane,
17:u:Sons,/Brisbane.,
16:u:Brisbane./_x+1,
6:u:Bris,
5:u:ne.,
6:u:ane.,
9:u:matters,
16:u:Rowley,/Mass.:,
16:u:Newbury/House.,
6:u:J.A.,
8:u:Buches,
7:u:Ezra>,
14:u:Buches/Ezra>,
13:u:Vandenhoeck,
14:u:Ezra>/FRLANT,
3:u:>,
4:u:Ez,
5:u:Ezr,
6:u:Ezra,
4:u:a>,
5:u:ra>,
6:u:zra>,
13:u:closing-tag,
11:u:FRLANT/31,
4:u:FR,
5:u:FRL,
6:u:FRLA,
4:u:NT,
5:u:ANT,
6:u:LANT,
13:u:vandenhoeck,
30:u:closing-tag/other/no-editors,
25:u:closing-tag/other/other,
10:u:Ruprecht,
12:u:Göttingen,
6:u:1922,
12:u:&/Ruprecht,
5:u:Gö,
6:u:Göt,
7:u:Gött,
6:u:ngen,
3:u:*,
5:u:2.4,
6:u:1935,
23:u:Cambridge:/University,
9:u:Hanhart,
8:u:Esdrae,
7:u:liber,
12:u:R./Hanhart,
6:u:Hanh,
14:u:(Septuaginta,
7:u:Vetus,
13:u:septuaginta,
13:u:Testamentum,
7:u:vetus,
5:u:8.2,
16:u:Textgeschichte,
16:u:textgeschichte,
5:u:MSU,
15:u:2./Esrabuches,
16:u:Esrabuches/MSU,
5:u:Esr,
6:u:Esra,
8:u:MSU/25,
4:u:SU,
6:u:Janz,
11:u:Deuxième,
7:u:Livre,
6:u:janz,
11:u:deuxième,
13:u:d’Esdras:,
4:u:nz,
7:u:livre,
12:u:Traduction,
17:u:Deuxième/Livre,
9:u:desdras,
19:u:Livre/d’Esdras:,
12:u:traduction,
7:u:texte,
24:u:d’Esdras:/Traduction,
6:u:grec,
11:u:Septante:,
10:u:septante,
8:u:titles,
8:u:*Bible,
16:u:d’Alexandrie,
11:u:et/titles,
7:u:bible,
6:u:11.2,
5:u:tit,
6:u:titl,
6:u:tles,
13:u:dalexandrie,
6:u:Cerf,
23:u:*Bible/d’Alexandrie,
4:u:*B,
5:u:*Bi,
6:u:*Bib,
21:u:d’Alexandrie/11.2,
7:u:d’A,
8:u:d’Al,
6:u:drie,
6:u:cerf,
9:u:Rudolph,
6:u:esra,
9:u:Nehemia,
6:u:samt,
10:u:Esra/und,
5:u:sra,
9:u:nehemia,
5:u:HAT,
9:u:samt/3.,
6:u:1.20,
9:u:3./Esra,
11:u:Tübingen,
10:u:Esra/HAT,
10:u:HAT/1.20,
4:u:HA,
11:u:tübingen,
9:u:Talshir,
9:u:Esdras:,
12:u:Z./Talshir,
9:u:talshir,
6:u:Tals,
5:u:hir,
6:u:shir,
8:u:Origin,
8:u:origin,
13:u:translation,
16:u:to/Translation,
11:u:B./Taylor,
8:u:sblscs,
15:u:Taylor/SBLSCS,
11:u:SBLSCS/47,
4:u:SB,
5:u:SBL,
6:u:SBLS,
5:u:SCS,
6:u:LSCS,
12:u:Redactions,
9:u:Yahwism,
9:u:yahwism,
8:u:Exile:,
15:u:Yahwism/after,
14:u:Perspectives,
7:u:exile,
11:u:Israelite,
10:u:Religion,
11:u:israelite,
9:u:Persian,
6:u:Era:,
9:u:persian,
5:u:era,
10:u:Studies,,
10:u:Utrecht,,
7:u:6–9,
10:u:AlberzB.,
13:u:August/2000,
9:u:Becking,
9:u:alberzb,
9:u:becking,
18:u:AlberzB./Becking,
10:u:Theology,
10:u:theology,
16:u:199–218/_x+1,
8:u:199–,
5:u:218,
8:u:–218,
7:u:China,
6:u:hina,
7:u:china,
13:u:Engagement.,
9:u:Abbott,,
8:u:abbott,
8:u:MChina,
5:u:Abb,
8:u:mchina,
7:u:Hague,
7:u:et.al,
7:u:hague,
6:u:etal,
13:u:Hague/et.al,
7:u:Cass,,
15:u:Cass,/Deborah,
6:u:cass,
7:u:Brett,
7:u:brett,
16:u:Cambridge/_x+1,
8:u:China:,
9:u:economy,
7:u:Trade,
7:u:trade,
8:u:Treaty,
8:u:Ports,,
8:u:treaty,
11:u:1842-1854,
7:u:ports,
10:u:18421854,
18:u:Ports,/1842-1854,
8:u:Chinas,
21:u:Wirtschaftsstruktur,
8:u:chinas,
10:u:Reformen,
10:u:reformen,
9:u:Binnen-,
8:u:binnen,
18:u:Außenwirtschaft,
18:u:außenwirtschaft,
9:u:Hamburg,
22:u:und/Außenwirtschaft,
9:u:hamburg,
8:u:Bilanz,
14:u:Perspektiven,
14:u:perspektiven,
15:u:Reformpolitik,
15:u:reformpolitik,
9:u:Economy,
6:u:bank,
6:u:Bank,
14:u:Development.,
6:u:Idem,
10:u:Longterm,
10:u:longterm,
17:u:China./Longterm,
9:u:Policy:,
8:u:London,
11:u:Retailers,
7:u:&amp;,
5:u:amp,
17:u:Discourse/&amp;,
15:u:crosscultural,
12:u:Pragmatics,
12:u:pragmatics,
6:u:Prag,
6:u:Hong,
6:u:Kong,
6:u:hong,
6:u:kong,
11:u:Hong/Kong,
15:u:Intercultural,
15:u:intercultural,
19:u:Business/Meetings,
10:u:speakers,
18:u:Chinese/Speakers,
6:u:East,
7:u:West:,
11:u:Different,
11:u:167–188,
11:u:Trosborg,,
8:u:167188,
10:u:trosborg,
6:u:anna,
16:u:Trosborg,/Anna,
10:u:Cultures,
10:u:cultures,
7:u:2003a,
11:u:Amsterdam,
16:u:John/Benjamins,
7:u:2003b,
8:u:“The,
16:u:Vague/Language,
10:u:81–104,
20:u:English/World-Wide,
5:u:221,
5:u:Tao,
7:u:Helen,
15:u:Spencer-Oatey,
7:u:helen,
14:u:spenceroatey,
21:u:Helen/Spencer-Oatey,
6:u:Hele,
6:u:elen,
6:u:Spen,
9:u:Warwick,
18:u:of/Intercultural,
12:u:Occasional,
12:u:occasional,
20:u:Warwick/Occasional,
11:u:224–238,
20:u:Language/Awareness,
11:u:Phenomena,
7:u:Mody,,
10:u:Thousand,
6:u:Oaks,
29:u:Intercultural/Communication,
24:u:Communication/Thousand,
15:u:Thousand/Oaks,
6:u:sand,
10:u:Gumperz,,
7:u:Celia,
18:u:“Understanding,
7:u:celia,
16:u:Roberts,/Celia,
15:u:Encounters”,
12:u:encounters,
16:u:The/Pragmatics,
11:u:Bloomaert,
11:u:bloomaert,
13:u:Verschueren,
5:u:jef,
9:u:51–90,
13:u:verschueren,
17:u:Jef/Verschueren,
11:u:Pragmatic,
4:u:Xi,
7:u:Korea,
9:u:Nuclear,
7:u:korea,
8:u:Crisis,
9:u:nuclear,
16:u:Nuclear/Crisis,
4:u:Xu,
7:u:norms,
8:u:Style,,
7:u:style,
15:u:Accommodation,
20:u:Negotiation/Style,,
11:u:behaviour,
16:u:chineseenglish,
6:u:Loh,,
13:u:Comparative,
12:u:of/English,
6:u:Mao,,
5:u:mao,
6:u:Xing,
17:u:Chinese-British,
16:u:chinesebritish,
7:u:31–,
10:u:Clevedon,
14:u:Multilingual,
10:u:clevedon,
9:u:Matters,
14:u:multilingual,
22:u:Multilingual/Matters,
9:u:Rapport,
8:u:House,,
9:u:Juliane,
10:u:Rehbein,,
9:u:juliane,
8:u:Jochen,
9:u:rehbein,
28:u:Multilingual/Communication,
14:u:Multilingua:,
13:u:multilingua,
22:u:Multilingua:/Journal,
12:u:Britain”,
9:u:britain,
12:u:Culturally,
11:u:Speaking:,
12:u:culturally,
22:u:Culturally/Speaking:,
4:u:Ng,
14:u:Sino-British,
13:u:Interaction,
14:u:Professional,
10:u:Contexts,
14:u:professional,
6:u:19/3,
8:u:Realm:,
10:u:Archives,
7:u:(TNA),
10:u:archives,
37:u:http://www.nationalarchives.gov.uk/,
5:u:tna,
15:u:Given-Wilson,,
13:u:givenwilson,
7:u:Rolls,
7:u:rolls,
10:u:Medieval,
9:u:England,
6:u:Roll,
5:u:lls,
6:u:olls,
10:u:medieval,
6:u:vols,
8:u:passim,
6:u:Lead,
7:u:Cloth,
7:u:cloth,
8:u:Museum,
8:u:museum,
10:u:Coventry,
6:u:Blue,
10:u:coventry,
11:u:Yorkshire,
9:u:Woollen,
11:u:yorkshire,
10:u:ulnagers,
16:u:Archaeological,
17:u:Ulnagers'/Rolls,
16:u:archaeological,
26:u:Yorkshire/Archaeological,
9:u:Lister,,
11:u:Series/64,
8:u:lister,
6:u:1924,
12:u:Lister,/J.,
13:u:Unpublished,
7:u:MPhil,
8:u:Thesis,
7:u:mphil,
13:u:Southampton,
13:u:southampton,
16:u:of/Southampton,
18:u:Southampton/_x+1,
7:u:Devon,
7:u:devon,
17:u:Transactions/of,
10:u:Industry,
10:u:industry,
7:u:Later,
8:u:Middle,
7:u:later,
6:u:Ages,
8:u:middle,
10:u:Clothing,
10:u:clothing,
9:u:Europe:,
8:u:europe,
7:u:Prof.,
6:u:E.M.,
11:u:Memory/of,
6:u:prof,
15:u:Carus-Wilson,,
10:u:of/Prof.,
7:u:Pasol,
12:u:Prof./E.M.,
13:u:caruswilson,
7:u:pasol,
9:u:Textile,
15:u:Pasol/Studies,
9:u:textile,
12:u:in/Textile,
17:u:Textile/History,
13:u:Chinesische,
14:u:Architektur.,
13:u:chinesische,
13:u:architektur,
6:u:1925,
13:u:Berlin/_x+1,
8:u:Ernest,
12:u:Feng-Shui:,
10:u:fengshui,
8:u:Sacred,
11:u:Landscape,
8:u:sacred,
10:u:Zhongguo,
9:u:zhuzhai,
10:u:gaishuo.,
10:u:Beijing:,
9:u:gaishuo,
9:u:Jianzhu,
9:u:beijing,
11:u:gongcheng,
9:u:jianzhu,
10:u:Wien/New,
21:u:Palace/Architecture,
9:u:Schinz,,
8:u:Alfred,
8:u:schinz,
8:u:alfred,
9:u:Square:,
8:u:Cities,
8:u:square,
12:u:Klassische,
11:u:Baukunst:,
20:u:Strukturprinzipien,
10:u:baukunst,
9:u:soziale,
5:u:zig,
6:u:pzig,
15:u:Chen,Congzhou,
7:u:Zhang,
19:u:Chen,Congzhou/and,
14:u:chencongzhou,
10:u:Shanghai,
8:u:jindai,
8:u:shigao,
9:u:Murphy:,
10:u:Henry/K.,
6:u:Deke,
6:u:Erh.,
6:u:look,
7:u:toshi,
10:u:kenchiku,
7:u:Tokyo,
8:u:(1986),
14:u:Tokyo/(1986),
13:u:(1986)/_x+1,
5:u:86),
6:u:986),
6:u:Asia,
15:u:Tokyo/(1986).,
14:u:(1986)./_x+1,
16:u:ShanghaiCities,
16:u:shanghaicities,
23:u:Urban,/ShanghaiCities,
18:u:Society/Shanghai,
9:u:Honghai,
17:u:societyshanghai,
9:u:honghai,
9:u:Company,
18:u:Honghai/Cultural,
22:u:Cultural/Development,
21:u:Development/Company,
15:u:Trans-Century,
14:u:transcentury,
10:u:Deutsche,
10:u:deutsche,
5:u:die,
11:u:deutschen,
12:u:Historical,
13:u:Demography,,
6:u:A.D.,
12:u:demography,
10:u:2–1982,
7:u:21982,
8:u:Taiwan,
8:u:taiwan,
12:u:Population,
12:u:population,
8:u:Policy,
13:u:Demographic,
13:u:demographic,
14:u:Anthropology,
19:u:Chinese/Sociology,
7:u:Tien,,
9:u:China's,
7:u:hyuan,
11:u:Strategic,
11:u:strategic,
12:u:Initiative,
9:u:Terence,
6:u:1886,
10:u:wolseley,
9:u:grammar,
9:u:lexicon,
8:u:Hebrew,
8:u:hebrew,
10:u:entitled,
7:u:Sefer,
6:u:brew,
12:u:haśśoham,
5:u:ben,
6:u:1882,
7:u:Moses,
5:u:Yom,
7:u:Ṭov,
6:u:oses,
11:u:427–428,
23:u:Encyclopaedia/Judaica,
6:u:Ilan,
13:u:grammatical,
20:u:“The/grammatical,
24:u:grammatical/literature,
11:u:Ashkenazi,
10:u:Jewry”,
11:u:ashkenazi,
5:u:(in,
7:u:jewry,
10:u:Massorot,
5:u:5-6,
13:u:(in/Hebrew),
10:u:massorot,
11:u:Jewry”.,
13:u:of/medieval,
20:u:medieval/Ashkenazi,
21:u:Ashkenazi/Jewry”.,
11:u:Ashkenaz:,
10:u:ashkenaz,
7:u:Lewis,
10:u:Glinert,,
10:u:in/exile,
9:u:26–45,
9:u:glinert,
6:u:2645,
18:u:Glinert,/26–45,
8:u:Sepher,
11:u:ha-Shoham,
6:u:(The,
8:u:sepher,
10:u:hashoham,
6:u:Onyx,
7:u:Book),
6:u:onyx,
7:u:Isaac,
11:u:Hanessiah,
7:u:isaac,
6:u:1947,
8:u:Jewish,
8:u:jewish,
9:u:punctis,
12:u:accentibus,
6:u:quae,
7:u:Moyse,
12:u:Punctatore,
7:u:moyse,
9:u:scripta,
12:u:punctatore,
9:u:dicitur,
6:u:1929,
6:u:Kohn,
6:u:Mór,
10:u:Dayyaqut,
11:u:MeRabbenu,
9:u:Shemuel,
11:u:merabbenu,
6:u:[Ben,
9:u:shemuel,
6:u:Meir,
13:u:(Rashbam)]:,
6:u:meir,
9:u:rashbam,
10:u:detailed,
7:u:table,
10:u:contents,
11:u:Jerusalem,
11:u:Wilensky,,
7:u:Moše,
10:u:wilensky,
9:u:al-Roti,
12:u:Michael/R.,
7:u:moše,
10:u:R./Moše,
8:u:alroti,
7:u:Union,
14:u:Hebrew/Union,
14:u:_x-1/Science,
8:u:Nathan,
7:u:Sivin,
8:u:nathan,
7:u:sivin,
14:u:Contemporary,
14:u:contemporary,
10:u:Orleans,,
10:u:Post-Mao,
9:u:postmao,
21:u:Science,/Technology,
7:u:Drive,
15:u:Modernization,
15:u:modernization,
6:u:Eine,
6:u:Jahr,
9:u:15-year,
8:u:15year,
17:u:China's/15-year,
9:u:Physics,
7:u:Today,
17:u:Technology/Plan,
9:u:38–43,
7:u:today,
9:u:2006-12,
15:u:Physics/Today,
6:u:3843,
10:u:Movement,
10:u:movement,
12:u:Scientists,
8:u:States,
12:u:States/and,
9:u:2006-10,
50:u:http://www.law.gmu.edu/nctl/stpp/pubs/Levine.pdf,
7:u:(last,
39:u:httpwwwlawgmuedunctlstpppubslevinepdf,
9:u:visited,
6:u:16th,
15:u:(last/visited,
15:u:_x-1/Science,,
9:u:Outlook,
9:u:outlook,
10:u:O.E.C.D.,
6:u:oecd,
15:u:2006/O.E.C.D.,
6:u:OECD,
15:u:O.E.C.D./2006,
5:u:O.E,
6:u:O.E.,
6:u:C.D.,
13:u:Derrida,/J.,
7:u:über,
5:u:das,
11:u:differenz,
11:u:Frankfurt,
11:u:frankfurt,
12:u:Grundlagen,
5:u:hg.,
6:u:v.A.,
4:u:hg,
12:u:Gesammelte,
12:u:gesammelte,
5:u:Bd.,
4:u:2:,
5:u:–,
4:u:Bd,
11:u:Freiheit.,
9:u:levinas,
9:u:Versuch,
9:u:versuch,
6:u:Frei,
10:u:Judentum,
6:u:Jude,
13:u:single/_x+1,
15:u:Exteriorität,
19:u:Freiburg/München,
15:u:exteriorität,
18:u:freiburgmünchen,
33:u:Exteriorität/Freiburg/München,
24:u:Freiburg/München/2002,
13:u:Rosenzweig,,
16:u:Rosenzweig,/F.,
14:u:atheistische,
24:u:Atheistische/Theologie,
6:u:sein,
10:u:A./Meyer,
12:u:Meyer/_x+1,
13:u:Discovering,
9:u:Levinas,
16:u:2007/Cambridge,
9:u:Origins,
9:u:origins,
8:u:Other.,
11:u:Gegenwart,
11:u:gegenwart,
13:u:1965/Berlin,
16:u:Umgangssprache,
7:u:Juden,
16:u:umgangssprache,
7:u:juden,
13:u:Österreich,
13:u:Zeitschrift,
6:u:für,
16:u:in/Österreich,
13:u:zeitschrift,
13:u:Demographie,
6:u:1905,
13:u:Bibliothek,,
6:u:1777,
12:u:bibliothek,
12:u:allgemeine,
21:u:Allgemeine/Deutsche,
9:u:Nicolai,
8:u:Anhang,
9:u:nicolai,
6:u:Bde.,
8:u:anhang,
10:u:13–24,,
13:u:Anhang/Bde.,
5:u:Anh,
6:u:Anha,
6:u:1324,
13:u:Ausländer,,
9:u:Blinder,
8:u:Sommer,
9:u:blinder,
8:u:sommer,
16:u:Blinder/Sommer,
11:u:Jüdische,
11:u:jüdische,
5:u:Jü,
6:u:Jüd,
7:u:Jüdi,
10:u:Gedichte,
7:u:einem,
13:u:pohlnischen,
6:u:1772,
7:u:bloch,
12:u:zerstörte,
9:u:sprache,
11:u:Deutscher,
16:u:Schriftsteller,
16:u:schriftsteller,
7:u:Bloch,
15:u:Gesamtausgabe,
10:u:E./Bloch,
15:u:gesamtausgabe,
10:u:Bänden,,
6:u:1881,
9:u:Kinder.,
5:u:Zum,
8:u:kinder,
12:u:jüdischen,
6:u:1786,
8:u:Werke,,
7:u:kafka,
7:u:Brod,,
7:u:v./M.,
6:u:brod,
6:u:Brod,
6:u:LTI.,
6:u:neue,
17:u:Hamburg/1819/20,
14:u:1819/20/_x+1,
6:u:1819,
5:u:/20,
6:u:9/20,
19:u:Der/Nationalismus,
21:u:Zion./Monatsschrift,
5:u:Zio,
6:u:Zion,
12:u:nationalen,
6:u:1895,
8:u:1–8;,
10:u:Sprachen,
18:u:jüdischdeutsche,
10:u:begonnen,
10:u:Elbogen,,
9:u:elbogen,
11:u:Guttmann,,
10:u:guttmann,
11:u:Mittwoch.,
13:u:Fortgesetzt,
10:u:mittwoch,
13:u:fortgesetzt,
10:u:Altmann,,
9:u:altmann,
8:u:Engel,,
7:u:engel,
9:u:Brocke,,
8:u:brocke,
13:u:Krochmalnik,
15:u:Stuttgart-Bad,
13:u:krochmalnik,
11:u:Cannstatt,
16:u:D./Krochmalnik,
14:u:stuttgartbad,
11:u:cannstatt,
25:u:Stuttgart-Bad/Cannstatt,
6:u:-Bad,
16:u:Cannstatt/1971,
6:u:Cann,
6:u:tatt,
10:u:heutigen,
14:u:Im/deutschen,
7:u:reich,
6:u:1897,
6:u:Wege,
8:u:Wagner,
5:u:[K.,
13:u:Freigedank],
8:u:wagner,
12:u:freigedank,
6:u:Neue,
11:u:der/Musik,
5:u:Nr.,
5:u:19:,
4:u:nr,
12:u:101–107;,
5:u:20:,
6:u:Mein,
14:u:europäische,
10:u:Sprache.,
14:u:Sprachkultur,
10:u:Brenner,,
13:u:Brenner,/M.,
9:u:brenner,
11:u:Freimark,,
11:u:Behaviour,
15:u:Assimilation.,
20:u:Language/Behaviour,
14:u:19th/Century,
6:u:Year,
9:u:Gilman,,
6:u:S.L.,
12:u:Jüdischer,
13:u:Selbsthaß.,
4:u:sl,
12:u:jüdischer,
16:u:Antisemitismus,
12:u:selbsthaß,
24:u:Jüdischer/Selbsthaß.,
16:u:antisemitismus,
10:u:Kilcher,,
6:u:A.B.,
9:u:kilcher,
13:u:historische,
11:u:Beiträge,
10:u:weimarer,
11:u:beiträge,
11:u:485–517,
20:u:Weimarer/Beiträge,
6:u:1900,
8:u:Nekula,
8:u:nekula,
11:u:M./Nekula,
11:u:Nekula/u.,
7:u:Kafka,
7:u:u./a.,
18:u:sprachnationalen,
13:u:böhmischen,
10:u:»Jewish,
14:u:Literature«,
9:u:»World,
23:u:»Jewish/Literature«,
4:u:»,
13:u:Gotzmann/C.,
7:u:Wiese,
11:u:gotzmannc,
7:u:wiese,
19:u:Gotzmann/C./Wiese,
8:u:Kremer,
11:u:A./Kremer,
9:u:Al-Ali,,
7:u:Nadje,
8:u:Nicola,
7:u:nadje,
7:u:Pratt,
8:u:nicola,
7:u:Women,
7:u:pratt,
14:u:Nicola/Pratt,
11:u:Women/and,
5:u:Wom,
6:u:Wome,
6:u:omen,
8:u:Muslim,
8:u:muslim,
14:u:postcolonial,
6:u:War,,
11:u:resisting,
11:u:women’s,
8:u:womens,
7:u:labor,
6:u:Arab,
16:u:exceptionalism,
10:u:Politics,
5:u:8:1,
14:u:Politics/and,
12:u:and/Gender,
7:u:Islam,
7:u:islam,
9:u:liberal,
12:u:democracy.,
5:u:Isl,
6:u:Isla,
11:u:democracy,
9:u:Badran,,
8:u:Margot,
12:u:Feminists,,
8:u:margot,
11:u:feminists,
9:u:nation.,
18:u:Feminists,/Islam,
6:u:sts,,
12:u:Gender/and,
16:u:fundamentalist,
16:u:World/Politics,
8:u:Laurie,
8:u:state,,
16:u:liberalization,
10:u:economy,,
5:u:5:4,
9:u:Mounira,
9:u:rights.,
10:u:Tunisia,,
6:u:oil.,
10:u:Culprits,
5:u:oil,
13:u:inequality?,
20:u:gender/inequality?,
22:u:inequality?/Politics,
10:u:546–53,
7:u:54653,
9:u:parties,
11:u:293–312,
22:u:Comparative/Politics,
11:u:enchanted,
7:u:piety,
9:u:Russet,,
8:u:Islam,,
19:u:authoritarianism,,
18:u:authoritarianism,
26:u:Islam,/authoritarianism,,
6:u:Ill.,
10:u:Doumato,,
9:u:Eleanor,
9:u:doumato,
9:u:eleanor,
6:u:Gulf,
11:u:Posusney,,
8:u:Marsha,
10:u:posusney,
8:u:marsha,
15:u:globalization,
9:u:Muslims,
14:u:distinctive?,
13:u:distinctive,
9:u:Islamic,
9:u:islamic,
9:u:Kuwait.,
8:u:kuwait,
11:u:paradoxes,
9:u:Norris,,
7:u:Pippa,
7:u:pippa,
6:u:tide,
10:u:equality,
15:u:civilizations,
8:u:Amaney,
8:u:Vickie,
12:u:Democratic,
9:u:deficit,
12:u:attitudes.,
11:u:attitudes,
14:u:institutions,
10:u:mattered,
11:u:governing,
13:u:authorities,
12:u:Governance,
12:u:governance,
15:u:Governance/in,
9:u:Africa.,
8:u:africa,
10:u:133–54,
9:u:kandhim,
15:u:Abbas/Kandhim,
6:u:Abba,
6:u:bbas,
7:u:13354,
6:u:Saba,
8:u:piety.,
13:u:Politics/of,
11:u:of/piety.,
9:u:revival,
9:u:subject,
6:u:edn.,
9:u:nonarab,
11:u:societies,
6:u:41:6,
16:u:Sociology/41:6,
8:u:115170,
7:u:Ross,,
6:u:Oil,,
11:u:Political,
10:u:107–23,
10:u:Michael.,
9:u:Islam:1,
16:u:Ross,/Michael.,
7:u:Elora,
11:u:Reshaping,
11:u:reshaping,
7:u:holy.,
12:u:Democracy,,
6:u:holy,
7:u:2008a,
6:u:Gao,,
9:u:publics,
0=0x1.08a808a49b41fp-11
1=0x1.ea3b6dd714bb1p-7
2=0x1.a560609c66dc8p-6
26=0x1.5b569acf7ec3fp-1
27=-0x1.2773d5d4b5fbp-3
28=0x1.8c00d3f9a835p-4
29=-0x1.e36818c705f5ep-1
34=0x1.fb67238e0013cp-4
48=0x1.265de430be787p-4
50=0x1.e9d214673d41ap-4
52=0x1.3c295ba77a17dp-1
53=-0x1.aeedce0da2783p-3
54=0x1.f0f53332e86ep-3
55=0x1.a05a7be14a1eap-4
56=-0x1.59c50221e8199p-5
57=-0x1.70a3df48b38bap-1
59=-0x1.4d46b71bce4b7p-2
60=0x1.6adab2f10616p-3
62=-0x1.480c76a0ca17ap-2
63=-0x1.2bf9426270bap-1
65=-0x1.7c1b218b2f74ep-4
66=-0x1.066fa12f16708p-4
74=0x1.cdf3d47d0f4c6p-2
76=0x1.2d6ff7552c2e1p-1
78=0x1.d9d700ac0622ep-4
79=-0x1.59962a3f970bep-3
80=0x1.f2fdd5f05d2d1p-2
81=0x1.239178432c198p-6
83=-0x1.d0b0b554996d5p-3
92=0x1.70db3a31e42eap-2
104=0x1.620b2dc4c7065p-4
105=0x1.0b15a2bcfb17p-3
106=0x1.c71cf0c684c74p-3
107=-0x1.4ed050514cc75p-5
109=-0x1.f4f2c03693b81p-5
115=-0x1.11462444cb069p-7
118=0x1.8db5ea3d38507p-4
130=0x1.474c07a580898p-2
131=-0x1.eaa3f7ea6cd19p-5
132=0x1.630cb2d971d3ap-3
133=-0x1.362b98d7f4a1p-3
134=-0x1.56b1a20db4911p-8
135=-0x1.925e12690c2fap-3
136=0x1.7f5d6a8667267p-5
137=-0x1.251e9177490c7p-3
138=0x1.f4a8911169914p-6
139=-0x1.f80e33fb1ba39p-8
140=-0x1.40b51f00cb20dp-3
141=-0x1.7f943e21ecd62p-5
142=-0x1.7c8c27ee4ce33p-3
143=-0x1.0498870e046d7p-2
144=0x1.7c2198b2a1435p-1
145=0x1.4dd2a5576c514p-4
146=-0x1.290b3b7390932p-3
150=-0x1.b228c5a507496p-4
151=0x1.39962ac7cb86cp-6
152=-0x1.f13420e06d7bap-5
153=0x1.158bf37e7f26ap-6
154=0x1.8e9b3f5c8af83p-15
155=-0x1.89a9e7016271fp-3
156=-0x1.e6308b03dce7cp-4
157=0x1.fcbf51c02f2a3p-3
158=-0x1.bed8e6ee2c89fp-3
159=0x1.1e1789da8b024p-3
160=-0x1.9193d2743501ep-5
161=0x1.aabcb08c65c79p-6
163=-0x1.7bca1160136c3p-5
164=-0x1.83abadb2aae22p-4
165=-0x1.406026608b658p-4
166=-0x1.3c0baa3b4b488p-2
167=0x1.4079574b50c33p-5
168=0x1.0dc8902ebde32p-4
169=-0x1.a09cd122834a3p-2
182=0x1.41ed23d3f581ep-1
183=0x1.303b624fda81cp-3
184=0x1.216b1d7f2a2d4p-6
185=-0x1.4e896bd0d4c1cp-7
187=0x1.6894a22e9c2ebp-7
190=-0x1.3f639976fa806p-3
192=0x1.81062800da9a8p-2
193=-0x1.0d55a93e3aad5p-1
205=-0x1.98cf769515d0ap-6
208=0x1.35e456e289673p-6
209=-0x1.818bc422de442p-8
210=0x1.9599c8cd769fep-3
211=0x1.27273d4e7bc8cp-7
213=0x1.57a0f2c3bd38dp-10
216=-0x1.46800a5a88334p-7
217=-0x1.1ea14e913e82ap-2
218=-0x1.43d098b55070ep-3
221=0x1.c8ab8e595a506p-1
234=0x1.04d094ea45cf8p-2
235=-0x1.4fba32db833bap-2
236=0x1.39e7fb9205032p-2
237=0x1.42104a07d93a9p-2
238=-0x1.5b93b1a7338b9p-2
240=-0x1.002f84aba9149p-15
242=-0x1.5d7555df0f624p-1
243=-0x1.c8dbff4a31035p-1
244=0x1.94b013a867331p-5
245=-0x1.0da47723328b9p+1
258=0x1.34242339a05fbp-18
260=0x1.35130775cb1b1p-2
261=0x1.3fc4380c6bda2p-1
262=0x1.c99226eaf7da7p-2
263=0x1.0d956d1b5bc12p-1
264=0x1.6a24de6fc7d2bp-3
265=0x1.f67320cf8f7aap-2
266=0x1.6e8f869c08ff4p-2
267=0x1.e0231641bae0cp-3
268=0x1.59bea19289d34p-2
269=-0x1.21ad7e79ef209p-1
270=0x1.cf088a8d1f8cep-2
271=0x1.b928f2cbef9afp-3
272=-0x1.2c911f355767p-2
273=0x1.88cf030cff243p-3
274=0x1.277dc374247ep-5
275=0x1.9a0e0bb806677p-3
276=-0x1.57aa611e2aa42p-3
277=-0x1.00e077fb01fb7p-6
278=-0x1.6ea8ca9751ee1p-3
279=-0x1.1dbf354f7f635p-2
280=0x1.66c81353a8297p-4
281=-0x1.11c9738715d23p-2
282=0x1.a53138af59a79p-3
283=0x1.de21d93083d8p-6
284=0x1.6d1e81d82c31fp-8
285=-0x1.c6c17dbb1d62bp-4
286=-0x1.efc89fbdfd582p-13
287=0x1.d6de036ea6498p-7
288=0x1.abcbdecdcaa93p-6
312=0x1.0c700002cd4f8p-2
313=0x1.2de6c5822759ap-1
314=0x1.9c05b58e534fbp-2
315=0x1.485859aa3bb64p-2
316=-0x1.0f452fe6ed3b4p-1
317=0x1.5679bb8a1bdedp-2
318=-0x1.34a694258a298p+0
319=0x1.099e0f4e26b27p-3
320=0x1.198ac620dba9cp-2
321=-0x1.26e89edd485ap-3
322=0x1.c9608e210cf78p-3
323=0x1.1f7232dd783e9p-2
324=-0x1.61367796b04acp-3
325=0x1.061c1fe2436b5p-3
326=0x1.ed347807fa61fp-7
327=0x1.0fbce820afb6cp-3
328=-0x1.02c07bdee9d6cp-7
330=-0x1.8d1fe6cac4de3p-1
331=-0x1.4f89f816c18d4p-2
332=-0x1.bf0ac7ad6e381p-5
333=-0x1.0fce1ce006d92p-1
334=0x1.e7395a04f6f26p-5
335=0x1.9e1282b9abc0dp-2
336=0x1.1a28eb12c2173p-7
337=0x1.b7716adddc068p-7
338=-0x1.b44921e6693a4p-5
339=0x1.e9cff8faaacbep-12
340=-0x1.50e63b737a656p-8
341=0x1.0793ae93f1137p-4
343=0x1.03b62a6ed7783p-3
346=0x1.a272e9159d1b1p-3
349=0x1.f298d8be8ad2p-7
351=-0x1.f6d4b1429de22p-4
364=-0x1.512199d69e1b8p-4
365=0x1.b84d0cc2358aep-3
366=-0x1.327a45e24c5e5p-4
367=0x1.568fee55f1754p-3
368=0x1.036f5c6f1a739p-3
369=0x1.9dae6f7f76b2dp-4
370=0x1.3933240b2308bp-6
371=0x1.ce8c3398dfd44p-6
372=0x1.b6dfb3d694905p-5
373=0x1.97e8a0d15067cp-4
374=0x1.e649fc299f5cdp-4
375=-0x1.7033a6979651cp-7
377=0x1.dfb02702d8bf3p-5
378=-0x1.509cafae223f1p-2
379=-0x1.08271489a0c4fp-4
381=-0x1.5665ef8d7324cp-4
384=-0x1.c55bce48b4327p-6
386=-0x1.af73685066d2bp-4
388=-0x1.eb817d2b95374p-3
390=-0x1.82ec987789355p-8
391=0x1.661896746775dp-3
392=-0x1.131c570b26a51p-6
393=0x1.75205a6577094p-3
394=0x1.b1a4a31e0bdap-4
395=0x1.01d87512777a6p-4
396=0x1.294a3d56a70aap-6
397=-0x1.72ff68116dbeep-7
398=0x1.1787e973d0226p-4
399=0x1.95dda253aa485p-4
400=0x1.2a46bd003dd65p-3
401=0x1.a4921470b357ep-6
403=0x1.fab622d06edbcp-7
404=0x1.dbcc6e000f535p-5
405=0x1.f6110faffcc39p-7
407=-0x1.1089f307cd614p-3
410=-0x1.4e58307d9fa61p-7
412=-0x1.0c69e2ab74c09p-4
413=-0x1.1a63f4a088a1fp-7
414=-0x1.20669dd80961ap-9
415=-0x1.85250bc6f90b5p-5
416=-0x1.bd62e43cdd04bp-2
417=0x1.bae0f7e240bc9p-3
418=-0x1.c584e025e0b27p-4
419=0x1.b9aa11f5dd0b2p-3
420=0x1.649d1b449657bp-5
421=0x1.36ccc7ecb61dp-3
422=0x1.042937381f82ap-4
423=0x1.24f3b1b700f6ap-5
424=0x1.8eb15064b94c1p-5
425=0x1.889d942bdc91fp-4
426=0x1.0d22ffd85d652p-6
427=-0x1.439dad179c5b4p-6
429=-0x1.7f46e8494dd94p-7
430=-0x1.6d95c2c9b15c9p-5
431=0x1.728add46d5d6ap-4
432=0x1.7ba7ed0bb9e0ap-10
433=-0x1.de14023b2d828p-4
436=-0x1.ee678aa42983cp-6
438=-0x1.f43f02e82c2b8p-5
440=0x1.07c895210a451p-9
441=-0x1.41bafd87ea7e6p-3
442=0x1.0dd4fec89b083p-5
443=0x1.43061c1e4f0a6p-6
444=-0x1.13e194bfeef89p-10
445=0x1.6948adf7dfddp-3
446=-0x1.f69d8d674ef93p-5
447=0x1.dc12a219b8d11p-5
448=0x1.afd681ab93a7dp-6
449=-0x1.79236883848a2p-7
450=0x1.79d33f30a08cfp-4
451=0x1.3bfc0414cac5bp-3
452=0x1.3134731d4f6d4p-3
453=0x1.52aa5aab9e291p-5
455=0x1.713f3bb70837ep-6
456=0x1.8fb9641e2a9eep-5
457=0x1.a73f6d4dbd62cp-10
459=-0x1.2b904341c5ecfp-4
462=-0x1.30e0d0b32608fp-4
464=-0x1.0c1736b309112p-4
465=-0x1.1d4bc67f37ce9p-7
466=-0x1.c9ef0b54f94dep-7
468=0x1.112a8d507efcdp-5
469=0x1.cbda33f89efe4p-3
471=0x1.5ae5577f8c793p-3
472=0x1.d995dfcbc24a1p-4
473=0x1.24986f6df8a8fp-3
474=0x1.19918724892c9p-4
475=0x1.1927bd1b1db72p-3
476=-0x1.4cb55d2d8fabdp-5
477=0x1.49d051e2d8408p-3
478=-0x1.e90760737e01cp-1
479=0x1.2898bd92d2dcdp-4
481=-0x1.853763cef5913p-9
482=0x1.d6b0c657921d2p-5
483=0x1.9e71041bcdfd7p-8
484=-0x1.e15c4531610acp-7
488=-0x1.fbf6c9c90030ep-6
490=-0x1.492a7d4a325c7p-3
492=-0x1.d3f539b044b72p-9
493=-0x1.8cd18a2b2b8c2p-5
494=-0x1.5b40fd61088cbp-9
495=-0x1.a83af6330ed73p-4
496=0x1.57fbd38b466afp-4
497=-0x1.473eb9783a7fap-5
499=0x1.24f58bf18c459p-2
500=-0x1.80a5dbd2cbac5p-3
501=-0x1.1f2e362e2d90dp-1
502=0x1.6cc532ab1eba2p-3
503=-0x1.ad3b05428f328p-4
504=0x1.677be5c3a8dfcp-10
505=0x1.61630d9f6fe4fp+0
507=0x1.3c4e61529a57ap-5
509=-0x1.fce56a2b76154p-5
514=-0x1.d0339e76174fbp-4
519=-0x1.50f105d7c5058p-7
520=-0x1.e9566afc449a9p-1
521=-0x1.27545e9e02f81p-4
522=-0x1.2357e7b2c57cep-2
523=0x1.09506c96520a4p-2
524=-0x1.2e32e7e31e0d6p-3
525=0x1.ed2651960aa3dp-2
526=-0x1.082961515ac46p-1
527=-0x1.45aa9fb43e283p+0
528=0x1.84a646d351c19p-3
530=0x1.c139456457265p-3
531=-0x1.eb7d10db36cb3p-5
533=-0x1.581aed308fe7ep-11
534=-0x1.eb544ee43290ap-3
535=-0x1.79b6cd10417ecp-2
536=0x1.5b79e73ba55e6p-17
540=-0x1.15d0944771ceap-6
546=0x1.8119237884e3ep-6
547=0x1.025b1d30d28e2p-4
548=-0x1.4d60e1566ab4cp-10
549=0x1.271f5447c9f67p-3
550=0x1.e4eddf845a3d2p-4
551=0x1.b06599ee3eb81p-5
552=0x1.fa81f2b947856p-7
553=-0x1.50e5f6c43ebp-8
554=0x1.6742c729790a1p-4
555=0x1.f974998cbd2a1p-4
556=0x1.f63f244892c76p-4
557=0x1.73f4b8bba6e87p-7
559=0x1.01e2dcfa103a5p-6
560=0x1.084ca8072445ep-4
561=0x1.6c958bec3f72p-7
563=-0x1.e7f51c011b2b3p-4
566=-0x1.06ec48276f53ep-7
568=-0x1.12eddf241fe7ep-4
569=-0x1.462921251a965p-7
570=-0x1.c66254058dcbdp-7
572=-0x1.a1fc7312188bep-5
573=0x1.888334edbbd76p-3
574=-0x1.35cf8bc0c69cp-3
575=0x1.a78d6c5113a88p-4
576=0x1.94d0780b4a15p-5
577=-0x1.0b2ade0e7add8p-5
578=0x1.df0ea13b7c23p-3
579=0x1.4c01ea252b2cp-2
580=-0x1.538b028662dc7p-2
581=0x1.9ba45a52e01a9p-3
582=-0x1.640bb3463f3a7p-1
583=-0x1.8b468437da8a8p-5
584=0x1.33f5e8e90e953p-3
585=-0x1.3cdd5563a8abep-14
587=0x1.896bc75bb1e55p-4
590=0x1.54ef70cc8f13cp-3
592=-0x1.6db5bfae4e86ep-5
594=-0x1.91fe293ef3cfcp-7
595=0x1.c161854fa70d3p-4
596=0x1.76dd252d2f149p-16
597=-0x1.480e76903ddcfp-12
598=0x1.74553d0c4cf6ap+1
599=0x1.2081546311c0ep-1
600=0x1.f4883392c0d41p-5
601=-0x1.8337037f77ebfp-4
602=-0x1.e8e0e1df36b1p-2
603=-0x1.9641e6aefa508p-2
604=-0x1.1e122916dcbe3p-2
605=-0x1.1e4573fd47ecdp-2
606=0x1.1ab2d64daa0a6p-3
607=0x1.acd2026ab092dp-2
608=-0x1.88f94c3f984c4p-2
609=-0x1.5a7dbebd55aa9p-2
610=-0x1.df36d3a52a026p-6
611=-0x1.8fe6197f003efp-3
612=-0x1.d96d5d2d1d718p-2
613=0x1.b1ac987a2a0f8p-6
618=-0x1.9cbe33f025b36p-5
625=0x1.c5ce489b0ef28p-7
626=0x1.abb70e9665f34p-6
627=-0x1.9b9945550df0ap-15
650=0x1.6c69046c1b457p-3
652=0x1.3531b1cda90fdp-6
653=-0x1.6cf3bc299c1b8p-10
676=0x1.d31ad46f55969p+1
677=0x1.c9c6a827ae7a4p-2
678=-0x1.3a0ab890ff70fp+2
679=-0x1.cbc2dd468484cp-3
680=0x1.7aa1ea758ee93p+0
681=-0x1.acb77b1d25022p+1
683=-0x1.254e002eda089p-2
684=-0x1.4fb944c7bfb1p+0
686=-0x1.5b20c2a24c952p+0
687=-0x1.14de7120f6abbp+1
689=-0x1.0ec94551063fdp-1
690=-0x1.929004028f5e4p-2
698=-0x1.542de3567e176p-1
699=-0x1.208ac3ba0bb8ap-5
700=-0x1.10dcd6fc1ac58p-4
702=-0x1.75b4b2b7516bap+1
703=0x1.59e7ce7fdcdb5p+1
704=-0x1.1ee9f19c851ddp-1
705=-0x1.dfadcfd6f416cp+0
706=-0x1.3abdfbf1aa05bp-1
707=0x1.be24f98db7865p-3
708=0x1.cbc27bb6fdfbcp-4
709=0x1.cbfe954f38d23p-4
710=-0x1.ffba6b3a7380ap+0
712=-0x1.5b607ef395733p-1
713=-0x1.78d1b7e2910c2p-4
715=-0x1.3ba127ca618dcp-1
716=-0x1.4b46e9a107f29p+0
717=0x1.31d5c1d1500b7p+0
718=0x1.7dbbb7eed4881p-16
722=-0x1.47b61b5ca5ab4p-4
728=-0x1.43b77d7546224p+1
729=-0x1.115dec08c25c9p+0
730=0x1.b40bc4f66deb4p+1
731=-0x1.fc48210621381p-1
732=0x1.2826de73b0188p-3
733=-0x1.2c5e0966aecc2p+0
736=-0x1.0994e20d886b8p-4
737=0x1.e0b69230e7b4p-15
738=-0x1.7722fdcac2c35p-2
739=-0x1.a284b36d12143p-1
754=-0x1.b87404f41045bp+1
755=-0x1.175014f880ffdp+2
756=-0x1.2e6b94f013b55p+0
757=0x1.ec8db0322772bp+0
758=-0x1.65d3a00cd54e3p-2
759=-0x1.c60ac83035b34p+1
760=-0x1.a2c7b10ae4d18p-11
761=-0x1.3b6b9b280ab11p+0
762=-0x1.22c6c9f0aedb4p+1
763=0x1.b581d7e89c112p-3
764=-0x1.0be71c0afac28p-6
765=-0x1.724fc4c4c3ebbp-2
766=-0x1.fcd6bdf2d31eep-3
767=-0x1.19ee16ba75ddep+1
768=-0x1.c7ba8c7bda3p+0
769=-0x1.6575166f19571p-1
770=-0x1.6aecce42ff1b2p-1
774=-0x1.648148a96fe5ep-1
777=-0x1.4dff6c094403ep-2
779=-0x1.db6d7247f4f24p-7
780=-0x1.6ef93d834bc19p-2
781=0x1.f5313b2a937f9p-1
782=-0x1.6ed6f6a0b2d01p+0
783=-0x1.c0a504ebf81c2p+0
784=0x1.efcae6514e0fep-5
786=-0x1.a81c5c8ad8a82p-1
789=0x1.a9012d27f7cbap-1
790=0x1.57df443bdab1ep-1
791=-0x1.e37c54c15dd81p-4
792=0x1.f00cd030b311ap-7
793=0x1.5afbeba6c1b63p-2
800=-0x1.90ef722db0ec8p-2
803=0x1.358b210f996e1p+0
806=-0x1.9d4ca47088031p-8
807=-0x1.6d212cbf3c8f4p+1
808=-0x1.996ed5da8c5f5p-4
809=-0x1.198c0ff56fb82p+2
810=-0x1.2441916ce901p+0
811=0x1.c2f6c487c2f37p+1
812=0x1.9a80ca559a636p+1
813=-0x1.6a655ebdd9152p-4
814=-0x1.8fc52fb733ee9p-1
815=0x1.151dc49a352cep-4
816=-0x1.0d555ad34955cp+0
817=-0x1.7d3c8ec6e26dfp-1
819=-0x1.41a86a9c4ec17p+0
820=-0x1.57437ba83e8dep-11
833=-0x1.8c09d08d41597p-2
835=-0x1.e72a66332894bp-1
836=0x1.3b31a3873afdp-6
838=0x1.a0413079b65bp+0
839=-0x1.db25ee1ac6fb4p-4
841=0x1.02a14696ce628p+1
842=0x1.9200bd297430ap-1
843=0x1.88fed50ca752bp-6
846=-0x1.336f360497695p+0
859=-0x1.12e84f85b25ep+0
861=-0x1.9652be2f47c6fp+0
865=0x1.2de8a5dc967abp+2
866=0x1.56faf446b8c6cp+1
869=-0x1.e3a6f7a0a44a7p-2
884=-0x1.d7e6742cd1984p-1
885=-0x1.ece58da85368bp-1
886=-0x1.36957e2553fa6p-1
887=-0x1.2c11cdedfad99p+1
888=0x1.a51a1f6c42355p-3
889=-0x1.4bea6899ddd3dp-3
892=0x1.3032bb373051ap+2
894=-0x1.d2ef46323f54p-7
895=-0x1.3086be7b264aap+0
912=0x1.971b41b6f0619p+0
913=-0x1.5350e62fbc615p-1
914=0x1.6d68cfb241bd2p-1
919=-0x1.59f9e6cae3d08p-3
920=0x1.e8dbef037681dp-1
923=0x1.228019e39da7bp+0
930=0x1.9919a661914e7p-8
936=-0x1.b95d230706a6dp-2
937=-0x1.8795376b0dc7bp+1
938=-0x1.05638d97e78a1p-2
939=-0x1.293524b66834fp+1
940=0x1.a69912d135ea4p-3
941=-0x1.d929579205dccp-1
942=-0x1.245b8081ea107p+0
944=-0x1.990faec65579dp-5
945=-0x1.e94162416e836p-3
946=0x1.5644f0719975cp+1
947=0x1.37b428997ea29p+1
950=0x1.7ba6bcffea841p-4
951=-0x1.210a2b05879e1p-7
962=-0x1.05faea0d77304p-1
963=-0x1.85ffea84dafdep+1
964=-0x1.66e476474d37ep-2
965=-0x1.79f75e1c205b1p+1
966=0x1.aca1bea4851a6p-7
967=-0x1.d0912d0c6af66p-2
970=-0x1.8ce5c243f8551p+0
971=0x1.13ddeab8a598p-16
972=0x1.68c8bc0d59fd3p-2
973=0x1.a009bc0b931efp+1
975=-0x1.3570eec6e3886p+0
976=-0x1.5a430012f9acdp-1
982=-0x1.4c0396e893635p-3
1000=0x1.5d123937aba5cp-2
1015=-0x1.9d6e80ecd53f4p+0
1017=-0x1.2ecda808c7e6ep+1
1018=-0x1.b4f9ad654684p-3
1024=-0x1.9a6d9b9730f83p-2
1027=0x1.3d0815f3c045ep+2
1041=-0x1.56af49c7c0404p-2
1044=-0x1.25b1650b2584dp-1
1049=-0x1.6a6b7b08098adp-4
1050=-0x1.b2f6895873bb3p-4
1051=-0x1.0324d61faa35bp-4
1054=0x1.5636704b1e9e6p+1
1067=-0x1.0571d76332799p+0
1069=-0x1.b20415c15b2ccp-1
1076=0x1.0a7e0cad69789p-1
1081=0x1.b79d866f1984fp+1
1095=-0x1.e54ae11ac7bafp-3
1096=-0x1.85e6508e6d50bp-3
1101=-0x1.0137b4e6116d3p-4
1108=0x1.4c7d294d403d9p+2
1112=0x1.5728c835acf88p-18
1135=0x1.ab275ab73e941p+0
1153=-0x1.826de19d845fbp-4
1162=0x1.d78b51e2921b3p-2
1197=-0x1.f2cf8826d49b3p-2
1199=-0x1.9ea8389fe24c1p-2
1200=-0x1.35e4bb6e6fbe2p-1
1208=0x1.c4b24e79000ffp+0
1216=0x1.61a6d27a908b3p+2
1252=0x1.6b13102b95dd9p-18
1270=0x1.1b255390e179ep+2
1275=-0x1.94294080e2253p-3
1277=-0x1.fe9a59cc74bcbp-2
1284=0x1.d5ab43cec1164p-1
1285=0x1.293f39ed4f936p+0
1297=0x1.8f97c8861abf1p-1
1300=-0x1.0e7380bb657a2p-5
1324=0x1.82cee784a9c61p+2
1351=0x1.75ea4ef6cc99cp+0
1352=0x1.21661055c6461p-1
1353=-0x1.24d25e1d93eeap-7
1354=0x1.789619ad4358p-2
1355=0x1.5cdf475e6e75dp-4
1356=-0x1.224f43aef1d81p-3
1357=0x1.6b7ba1693c37ap-5
1358=-0x1.38aa27074523ep-4
1359=-0x1.76686efe39c82p-2
1360=0x1.962c625429337p-4
1361=-0x1.24c050a4813c2p-3
1362=0x1.7515e85bc242dp-17
1363=-0x1.95cd26356fa0dp-6
1365=-0x1.247c454879127p-4
1366=-0x1.ef70e6481e27bp-3
1367=0x1.865e6dbfb3327p-4
1368=0x1.054c0c1aa1ep-2
1369=0x1.12fb88a71c392p-2
1372=-0x1.647bdfac48a56p-3
1374=-0x1.11ecbee50c4b2p-4
1375=-0x1.ae022e9b72c8fp-5
1378=0x1.2f97e9002c8f8p-1
1379=-0x1.25a4c833d16a7p-2
1380=0x1.e9b7f9f80a395p-3
1381=-0x1.786e25701438ep-7
1382=0x1.284efd65f151bp-7
1383=-0x1.8bbe522abf989p-3
1384=0x1.dc88bfb79253bp-7
1385=0x1.7e74ae5b5101ep-4
1386=-0x1.d3ef6b8ee0c79p-5
1387=-0x1.23778ca21336dp-5
1388=0x1.914059e025cf2p-2
1389=-0x1.181297965a6e8p-3
1390=-0x1.0776807a10406p-6
1391=-0x1.f591c295365c3p-6
1392=-0x1.acc28a0677ea8p-3
1393=-0x1.0f8b92892585fp-6
1395=-0x1.1cf06cec2fd92p-2
1396=-0x1.6e5b52da81e94p-2
1398=-0x1.a0e8e52720066p-2
1400=0x1.84e1b9ef33796p-4
1401=0x1.457310e421d6p-5
1402=0x1.694809c09e3aap-5
1404=0x1.9ff299d63f88dp-8
1405=0x1.3e952d44a340cp-3
1406=-0x1.2fa18f2cda996p+0
1407=0x1.4ee1cb8e07905p-6
1409=-0x1.6160ccebda941p-13
1412=0x1.2384c97ebb528p-3
1415=0x1.f3cf78da001c3p-8
1426=-0x1.3a429899ef37ap-6
1431=0x1.831e3bd43a2d6p-9
1433=-0x1.203c711b1de6p-3
1440=0x1.5fb3b77b32c95p-2
1441=-0x1.3f608a98987abp-6
1456=0x1.0de4a7b840045p-4
1457=-0x1.83af00a7235c8p-3
1458=-0x1.06d1de3c43a13p-8
1459=0x1.e3b7cada8d4d2p-3
1460=-0x1.31215d5ab2c5fp-1
1461=0x1.53e3f0978d621p-2
1462=-0x1.0e4bb4fd7f86bp+1
1463=-0x1.57695b9d5c0edp-4
1464=0x1.4fce4bb037835p-2
1465=-0x1.12e32cc9d0856p+1
1466=0x1.9753d740b93d4p-3
1467=0x1.87423d8ec0718p-1
1469=-0x1.60df5b4fa28d3p-8
1471=-0x1.ce66fa065684fp-3
1476=0x1.572c7c2e7776ap-8
1479=-0x1.06cecdfc3cd88p+0
1480=0x1.85fdfda69135ap-16
1482=0x1.495c93446226cp-4
1483=0x1.73ab4f103462p-3
1484=-0x1.50baab59396a9p-6
1485=0x1.7aff35d6165eep-3
1486=0x1.3bb3c700c023ap-3
1487=-0x1.9e4487d197d5dp-6
1488=0x1.0a4c8d25a3128p-4
1489=0x1.46eae52809303p-3
1490=-0x1.9443128b74594p-5
1491=0x1.9669b7a10178ap-3
1492=0x1.1793855dcc98fp-5
1493=-0x1.1d1a1d8b89681p-1
1495=-0x1.2671a7b560209p-7
1497=-0x1.6174a97e92408p-15
1502=0x1.97448a95e9ae2p-14
1504=-0x1.ce6433be6a39fp-9
1506=0x1.c81ac79594c4p-10
1508=0x1.fd275fc238366p-4
1509=0x1.b7ee0cb7bcd88p-4
1510=0x1.3e886cc62870fp-3
1511=0x1.482c87a4fa03ep-7
1512=0x1.3aa22b7f5eadap-3
1513=-0x1.1c10a03ced12ap-3
1514=0x1.56033ff7db01p-4
1515=0x1.2fd3729a0c3abp-3
1516=-0x1.ba634e582a998p-5
1517=0x1.9ccbb4ddf0b92p-3
1518=0x1.0a8bbd0ccd5c9p-7
1519=0x1.4009dbad25839p-4
1521=0x1.0a59c7f90149fp-5
1522=0x1.51d98e84c5fe9p-4
1523=0x1.cfa85d5e92b51p-4
1524=-0x1.dfee26a9af92ap-5
1528=-0x1.003aa32fffa1dp-5
1530=-0x1.eec6fdd909edep-8
1532=0x1.0fb27b75d6c01p-15
1533=-0x1.3a523025f1838p-16
1534=0x1.58d40b301049ap-3
1535=-0x1.0bb74a155124dp-4
1536=0x1.926bf6e8ce785p-7
1537=0x1.a12da8dd69ca9p-5
1538=-0x1.fd64bcf183627p-2
1539=-0x1.749796b0ae8e4p-8
1540=-0x1.1a0d32957d56cp-4
1541=0x1.d8ae3f5da5049p-3
1542=-0x1.5aa5ed9ba670dp-4
1544=0x1.89318fc0c65f1p-2
1545=-0x1.a596d205a1535p-5
1546=0x1.031e030b006c5p-3
1547=-0x1.d490434004412p-4
1549=-0x1.40ba8f5674eccp-6
1554=-0x1.324abac3e07f3p-10
1558=0x1.409dfb81c6e58p-16
1560=-0x1.73699b78c069fp-2
1561=-0x1.15dc413036eep+0
1562=0x1.77b63bdad64fp-3
1563=0x1.3c46506e9b503p-3
1565=0x1.5b4ab46091e02p+0
1566=0x1.2478a1cf56b0ap-5
1567=0x1.ae341d350cefp-1
1568=-0x1.93d2fbf31e007p-2
1569=-0x1.c2c5336bf90bfp-3
1570=0x1.5710136c76651p-2
1571=0x1.793691d31830ap-2
1572=0x1.b24fec50d0ddcp-9
1573=0x1.99ef82d59fe1ap-4
1575=0x1.aef5773641198p-5
1576=-0x1.6227342bd5f5p-8
1579=0x1.b269862bbd71ap-7
1580=0x1.eaca3748b752bp-12
1582=-0x1.a39d88e5a4611p-10
1586=0x1.1a1ca0bd05b98p-6
1588=0x1.e46e85a6f62fp-4
1589=-0x1.184d732cd422fp-9
1612=-0x1.cc8f710c1988cp-10
1613=0x1.1e63a624bcdcfp-6
1615=-0x1.f7501e2b40e17p-19
1617=-0x1.07d2ac45632e6p+0
1619=0x1.eb79e1f97eb9cp-18
1620=-0x1.aa8bbf8ceaf0bp-18
1622=-0x1.d763c12ca1b17p-6
1625=0x1.dc720f44afc8dp-8
1626=0x1.2020194b732cfp+0
1627=0x1.622060962085cp-5
1632=0x1.14d57601438f8p-4
1638=0x1.61408054415a6p-5
1639=-0x1.c7d35e8b81a93p-5
1640=0x1.a224dc4cf646ep-3
1641=-0x1.982b534e45c46p-8
1643=0x1.4cbb24b67de8bp-14
1648=-0x1.d43f2b5669443p-1
1649=0x1.5939c84dfb107p+0
1664=0x1.57fe1d15dc34bp-2
1665=0x1.e541314e1d5p-6
1666=-0x1.8dc5c1df65e87p-7
1667=-0x1.a7a276f818584p-3
1668=0x1.2243e5dff28e8p-2
1669=-0x1.c1a21429c7c6dp-4
1670=0x1.715acfbd163dbp-2
1671=-0x1.c719904df8614p-5
1673=0x1.8375ec3a9ab4ap-5
1674=-0x1.531cd45361263p+0
1675=-0x1.286a55199c7c4p-1
1677=-0x1.3bedd1745bba9p-1
1679=-0x1.5678afc7e74fap-1
1688=0x1.b8d657fbd0832p-3
1690=0x1.8d9e112ae2352p-3
1691=-0x1.e775d87d0e9f8p-3
1692=0x1.6b16044448bb9p-5
1693=-0x1.71ba5336b940fp-3
1694=0x1.92c3b662563acp-2
1695=-0x1.fe7b2c99a9435p-3
1696=0x1.5f80f6b9664abp-5
1697=-0x1.f8432271f5b2fp+0
1698=-0x1.8b64a93cef0dcp-3
1699=-0x1.0061b3fbf6b31p-17
1700=0x1.9b7ae9ec1d762p-6
1701=0x1.0ba4d066440ccp-1
1703=0x1.00c107c17fe1ap-14
1704=-0x1.dbf9e4df41c5ap-5
1710=-0x1.3ee1c1ca59b71p-7
1712=0x1.74bdda4939367p-6
1716=0x1.789e194f91bfp-1
1717=-0x1.ecdc8804cfb3p-2
1718=-0x1.44f71a3d1c7fep-7
1719=-0x1.863673608d713p-5
1720=0x1.16b1e29b88908p-4
1721=0x1.480661482e962p-9
1722=-0x1.509595a9931dfp-11
1723=-0x1.9cccbbba6e797p-3
1724=0x1.03fada46c87e1p-1
1727=0x1.57790f6228be7p-1
1729=-0x1.4e9fbbbe1e332p-4
1738=0x1.98ecf3c4626b5p-3
1740=0x1.2295a5a5fd36dp-5
1742=0x1.d0da0bc4bd439p-17
1743=0x1.d583223069216p-11
1745=0x1.30d939c8ceb66p-6
1749=0x1.d17f2750221a8p-3
1750=-0x1.cfd7a90bce218p-6
1752=-0x1.f4f0de145f40bp-5
1753=0x1.8f07f2cf99fe3p-3
1757=0x1.4818494c8ec8ap-2
1768=0x1.fd929f1efbc66p-4
1769=-0x1.c60499147b187p-4
1770=0x1.b5c596fb605d1p-1
1771=-0x1.5b29bde8e9168p-1
1779=0x1.9ab7b19e79a7ep-13
1794=0x1.81a6cd2ff622bp-5
1796=0x1.88f38232bd9a4p-1
1804=-0x1.77333f377f46fp-6
1820=0x1.5204eaaa57405p-4
1821=-0x1.12064aeac9b09p-7
1822=0x1.6f931ed7b9fc2p-12
1846=0x1.b36ccc308bce3p-3
1847=0x1.3975cad93a2e2p-3
1848=0x1.09fe0d5e83055p-2
1849=-0x1.89a819ee4a2ccp-5
1850=-0x1.25c297811781dp-2
1851=-0x1.e38cd588f5e2p-2
1852=0x1.fb495e2cc6fbfp-2
1853=0x1.ed4e240cb7e3ep-5
1855=0x1.1c79397703d66p-3
1856=0x1.b3a333d0ba012p-5
1857=-0x1.263dbcca2352ap-3
1859=-0x1.71e9f3cfb6ae5p-3
1861=-0x1.7a48f41c2ab06p-7
1866=0x1.3ad383ce44cedp-1
1872=0x1.04ee33545b041p-1
1873=-0x1.743d5b9efc427p-3
1874=0x1.59fa18d5d3a2cp-1
1875=-0x1.4eec77795824p-5
1876=-0x1.7b11cf7952e1ap-11
1877=-0x1.ca62c120fdca6p-4
1880=-0x1.c1c24a06ba14p-12
1882=0x1.be46ffe8ccae3p-2
1883=0x1.cb217fff0361fp-4
1885=0x1.c6eb260e443ep-6
1886=0x1.9aa086d401f7fp-2
1887=-0x1.3e5d96fde9e34p+0
1896=0x1.d382254f7cc65p-5
1898=-0x1.1a5f11acbf69bp+1
1899=-0x1.6131a990dcc02p-5
1901=0x1.ef524c0b50408p-4
1902=-0x1.33a75b5014984p+0
1903=0x1.f4f297016ee63p-2
1904=0x1.46bbeb66346a5p-1
1905=0x1.39e5eaddb4c34p-2
1907=-0x1.76a2fb44bf224p-1
1909=0x1.e0e9abe884a9p-9
1910=0x1.f55c1072d2c5cp-4
1911=0x1.374514c87bed5p+0
1913=0x1.9615652605eb8p-3
1918=0x1.1f9564cbf398fp-17
1924=0x1.115d61b769e49p-4
1925=0x1.6760e11d90d17p-2
1926=-0x1.a6082742a52ccp-8
1927=0x1.3ad649c2a6cd5p-1
1928=-0x1.aeaee710449c6p-7
1929=0x1.431e29d30405ap-2
1930=-0x1.5f4b665a430a5p-4
1931=-0x1.dc3d38d5b7564p-3
1932=0x1.5b1364bda3fc2p-3
1933=-0x1.09bee8ce8c5e1p-2
1934=-0x1.bfd83193cc334p-2
1935=0x1.3d9c8e92891f1p-4
1936=-0x1.702bf0349bda3p-4
1937=0x1.ae8f5d98b6c77p-3
1938=0x1.20b0b81c6b81bp-4
1939=-0x1.7ea138cd28361p-3
1940=0x1.89d11744d1023p-14
1942=-0x1.0de108bf064fep-4
1944=0x1.48f8cd2f6876ep-5
1946=-0x1.274ba0da0efabp+0
1948=-0x1.e140e47d97ca6p-1
1950=0x1.76b5944ca996cp-7
1951=0x1.6eb8f099d8b0dp-5
1952=-0x1.fd2f45c383567p-13
1953=0x1.30446738fa2d7p-7
1955=0x1.c529f87753ec4p-12
1961=0x1.75d8a67fb20eap-3
1976=0x1.7abfef6654e6cp-6
1977=-0x1.f51e9f6b3495ep-5
1978=-0x1.115874c72430cp-7
1979=-0x1.92d6c52c490fbp-8
1981=0x1.c640e562028dap-12
1984=-0x1.f16d2bbcb3bf6p-8
1986=0x1.c61259957e85ep-4
1987=0x1.5ab068744d522p-4
1989=0x1.62ee99b2d855ap-1
1991=0x1.b583a0625b2e1p-2
1996=0x1.2051282c7dc2fp-1
1998=0x1.641e6cc881b4bp-3
2000=0x1.a6c763736ac07p-5
2002=0x1.64b99d743385ap-7
2003=-0x1.dd26ae507b53fp-6
2004=-0x1.e568e7386085ap-11
2005=0x1.b15e81c2274bbp-11
2007=0x1.7975777eb506p-20
2012=0x1.042c1f8e03643p-7
2013=0x1.1e9fc0cb3d7a5p-7
2017=0x1.1aa4c4141a2cap-4
2028=-0x1.3a8a7d4ded2adp-1
2029=0x1.7c21bbb3a77e6p-2
2030=-0x1.b529d66d2c7dap-2
2031=0x1.9fe9f2dbba601p-6
2032=0x1.bba54482eb456p-1
2033=-0x1.5853f416dd98cp+0
2034=0x1.79d13a1f60508p-1
2035=0x1.3432b04ab10cbp-2
2036=-0x1.6bc49970ec4e9p+1
2037=0x1.1c265374b1012p+0
2038=-0x1.e7163757c8242p-1
2039=-0x1.05e9a2893798cp+1
2041=0x1.d92ce08ba2dcap-3
2042=0x1.391f7e1789c65p-4
2043=0x1.964f2c891c31cp-2
2048=-0x1.011ebce3a6c86p-5
2051=0x1.0ea028bffa55dp-2
2054=-0x1.2c4293aac5d66p-3
2055=-0x1.a9844f875f4efp-4
2056=-0x1.dbea759f71c93p-6
2057=0x1.a717fac27ecep-2
2058=-0x1.0da595d2fc89bp-13
2059=0x1.634fcf52dc3f2p-2
2060=0x1.388befca821b6p-3
2061=0x1.a3a870450050dp-5
2062=0x1.154232093f073p-4
2063=0x1.550bb5e6b1ae8p-1
2064=0x1.aabb4be7bb3ep-7
2065=0x1.91c58e253b586p-1
2067=0x1.cfa6935338b43p-4
2069=-0x1.efae1eb373bf9p-5
2070=0x1.ac04d2dfb5f4dp-15
2074=0x1.c0d9491ce7ccep-5
2076=-0x1.cee86304ea2dfp-6
2077=-0x1.f3e285381562ep-2
2081=-0x1.675a686381676p-5
2090=0x1.b5bc442f46c4dp-1
2106=0x1.4e20a2aec3a7dp-3
2107=-0x1.41a7cc9e66ac8p-3
2109=-0x1.45f12b66b75f8p-15
2111=0x1.9b549fd3bddc4p-2
2116=-0x1.782c2fd7b6265p-5
2117=0x1.e2482e198061p-4
2122=0x1.b8446f9d63b7ep-18
2132=0x1.f61daf0edda44p-4
2133=-0x1.9002475131d13p-6
2134=0x1.53ebbf3663f04p-2
2135=-0x1.7d7088cc0151dp-3
2158=0x1.608c9270bc29cp-3
2160=0x1.5806b69cbbb98p-3
2184=-0x1.92c43e11a9f63p-4
2187=0x1.6954677e03f93p-1
2188=-0x1.fb2053e1e2d76p-1
2189=0x1.13292731dc6b7p-3
2190=-0x1.be15f9bfdadb9p-1
2195=0x1.e1cb6679e7d3cp-4
2207=0x1.740536c49b097p-3
2210=0x1.fe743ca42f4f1p-3
2212=-0x1.181ff8536b5e8p-3
2213=0x1.9448fa2d351b4p-6
2214=0x1.ed460bbcfc4fbp-3
2215=-0x1.332d5cadea853p-2
2216=0x1.845c51eb12e37p-2
2219=-0x1.ecfc108aab58fp-5
2220=-0x1.4c53c3c4b2fa6p-2
2221=-0x1.595a8c39755aap-5
2223=-0x1.e0a899c125089p-3
2224=0x1.7ed510a9bf7bap-2
2225=0x1.73903fa3876bfp-3
2233=-0x1.61eaf7bef8735p-4
2236=0x1.558c08ee0d002p-4
2237=0x1.42af6e757c9f3p-3
2238=0x1.260f8b83beac1p-3
2239=-0x1.29b524bbfb818p-4
2240=-0x1.4120231f8af33p-8
2241=0x1.c3fc3f89e55bp-3
2242=0x1.4afd1c00c1909p-6
2243=-0x1.4f454374138aap-5
2244=0x1.26daf3a6ffe9ap-3
2245=-0x1.b328681ed3c6cp-13
2246=-0x1.0fdfb25b7e27fp-2
2247=-0x1.43bbda6d77efdp-4
2249=-0x1.6e36e803db14ep-6
2250=0x1.31a4ad2c04aecp-5
2251=-0x1.6c32e31fbd6f5p-3
2252=-0x1.2acff87448598p-3
2256=0x1.aeabb38f17793p-12
2262=-0x1.92e61c3e1e1ffp+0
2263=0x1.da758ce55fb39p-4
2264=-0x1.08f5152618b8cp-1
2265=0x1.27f9bf4e4a979p-4
2266=-0x1.bf3a007263819p-2
2267=0x1.dd11eab1259c5p-2
2268=0x1.dcaf0def7fbb6p-13
2269=-0x1.023ed5ac71e66p-3
2270=0x1.718254bd30cedp-7
2271=-0x1.550a83ffdff4cp-12
2272=0x1.23f1d5a10018ep-2
2273=0x1.417f4af3503f2p-11
2275=-0x1.c113f8200110fp-7
2277=-0x1.870d6416970d3p-4
2282=0x1.425748c196a9ep-8
2288=-0x1.6b7898d954269p-1
2289=0x1.5d9a6dde5982ep-4
2290=-0x1.88f995590e91dp-8
2291=0x1.50be03824bd29p-4
2292=-0x1.05fea27b948f8p-7
2293=0x1.63e7e620253f1p-3
2294=0x1.e188c0bf52cc6p-7
2295=-0x1.5c59d42136a28p-4
2298=-0x1.1faec1c62db9ap-3
2299=0x1.48d09d33367a8p-9
2301=0x1.6a82dfc433b9ap-12
2303=0x1.0332f1f97b643p-3
2314=0x1.3d6faa293a749p-2
2315=-0x1.4a086925e62c4p-3
2316=0x1.d38d234e1a8abp-2
2317=-0x1.a0b7816869562p-4
2319=-0x1.bc3752cd88e02p-5
2322=0x1.a4b45ebee6d74p-7
2324=-0x1.568396d1d1cb4p-2
2325=0x1.4d7a273b5c1bdp-3
2327=-0x1.5193eccb177ddp-5
2328=0x1.08c9336342454p-2
2336=0x1.3adf08f08de65p-4
2338=0x1.fbe7a13154d69p-5
2340=0x1.8735e056d4b1p-3
2341=-0x1.1cfb89dcb42e7p-5
2342=0x1.a810a828f39a6p-2
2343=-0x1.01cab1998f305p+0
2344=-0x1.fe748f0d19b04p-19
2345=-0x1.9b73c922331a4p-1
2350=-0x1.7a1c2b465e9d2p-3
2366=-0x1.66b72c1115324p-5
2367=-0x1.40b1ce9e057eap-2
2368=0x1.5852a4c6b4b0fp-5
2369=0x1.46bafd55b06fap-6
2371=-0x1.f872a16dfba36p-5
2374=0x1.f488a99dc8142p-3
2376=0x1.01283e063cf5dp+1
2377=0x1.8660dd0b934bfp-5
2379=0x1.1e0d81d75621dp-13
2392=-0x1.558506681974bp-4
2393=-0x1.2d48a2004629p-1
2394=0x1.d43f1b12bd37fp-5
2395=0x1.6141afa83a835p-7
2396=0x1.638570a405613p-3
2397=0x1.0ddca6950719dp-1
2399=0x1.42f9c69c40cb9p-3
2402=0x1.24d9d14d45018p-8
2403=0x1.dfdd8ebfa657p-1
2419=-0x1.3cfdd9c5882acp-9
2421=0x1.8d4309f8bb8aap-6
2445=0x1.3748543c2527ap-15
2449=-0x1.aa594f44f4526p-3
2470=0x1.751fcfbc00b1fp-2
2496=0x1.dcef2f524fc4ep-3
2497=0x1.fd2deb6051c04p-9
2498=0x1.39d2ef00ea5c4p-3
2499=-0x1.8864c826b29f1p-4
2500=0x1.b700ec3be76f2p+0
2501=-0x1.bd7f83d94b23dp-1
2502=0x1.00d1b574ca4c6p-4
2503=-0x1.451ae41a47fbp-8
2504=0x1.0e47085872a7dp-2
2505=0x1.927efc9e7772cp-1
2506=-0x1.1c2cba97e9171p-2
2507=-0x1.0a72873987b9cp-5
2509=-0x1.6239aec9f0997p-8
2512=0x1.243bee8aac7f4p-6
2516=-0x1.1cc1a6cea86ebp-4
2519=0x1.0de562aade3cp-5
2523=0x1.e8c8067069e5dp-6
2524=-0x1.710b42fefc813p-12
2525=0x1.4f14f136d0f14p-10
2548=-0x1.825795ae17b5p-15
2549=0x1.13fb0189283ecp-3
2550=0x1.e3178c88b7a13p-4
2551=-0x1.a67a9e7a0d2ap-8
2553=-0x1.06d8f71dff6b9p-4
2558=0x1.6020ac9c3a543p-3
2575=0x1.00fab39c587c5p-3
2576=-0x1.d2d90ec71963ep-13
2577=0x1.1b0cdc5e9505dp-9
2584=-0x1.e5967785b785dp-6
2600=-0x1.3725115338fdfp+0
2601=0x1.8bcd1fa723312p-3
2602=-0x1.18abfcda53861p-20
2603=0x1.32cb3aa71162ep-8
2626=0x1.983bf7f2062fcp-4
2627=0x1.9ffccfbf719eap-3
2628=-0x1.83a41acac1f97p-3
2629=-0x1.0ec136dec17ep-5
2630=-0x1.cfd1f6bfaaacdp-5
2631=-0x1.b43d8ac470bf9p-6
2632=0x1.2c4b1d1f4c85ap-2
2635=-0x1.8c9ce1dff079dp-5
2636=0x1.ae2853b2f9835p-4
2639=-0x1.80b9f71a40e1p-9
2640=0x1.825fce4ffdd42p-2
2646=-0x1.8607f07abc844p-8
2648=-0x1.0be1461962df2p-8
2652=-0x1.24453de2e8648p-6
2653=-0x1.7f7f659ae60dp-9
2655=0x1.5d036cf842f87p-6
2656=-0x1.ea29ac515aafp-7
2657=-0x1.3cd1ef625ec78p-4
2665=0x1.3826afa1a70e4p-6
2668=0x1.1230a3e92d7dp-7
2681=0x1.36434a958e577p-6
2694=0x1.9e3af14497494p-6
2704=-0x1.58073e07da04fp-3
2705=0x1.a1aec706f0c6cp-4
2707=0x1.18b2df84cc874p-6
2708=-0x1.17a7adc9490c4p-6
2709=-0x1.794ab52a6c582p-2
2715=-0x1.e13dcb5cdb703p-20
2730=0x1.966aadac75c9ep-10
2731=0x1.7a3c4c15fa464p-5
2733=-0x1.69edc7dbda306p-7
2734=-0x1.02352abe56f5p-3
2735=0x1.861e6b26f55b8p-8
2737=0x1.0c10cd96b741p-5
2738=0x1.ac252c8de0feep-7
2750=0x1.27de46dcaa649p-12
2757=0x1.4e4bafce2bce7p-7
2759=-0x1.c26c38cd5ca4cp-8
2764=0x1.0bcd1f1c93242p-7
2783=0x1.13bdf5324721p-7
2785=-0x1.b014a274cfc06p-19
2790=0x1.0cfff711e67b2p-7
2811=-0x1.f4220147b1bfap-15
2816=0x1.b7c69cde4b397p-6
2834=-0x1.986322e4258c6p-2
2835=0x1.4754191a9ab3fp-4
2836=-0x1.81984c56b2133p-2
2837=0x1.40cb316b529d3p-4
2839=0x1.2f113307408dcp-2
2840=-0x1.8172158d37886p-2
2842=-0x1.253f86aa2afb2p-13
2843=-0x1.16128520e48d8p-7
2844=-0x1.2f227f2768658p+0
2845=-0x1.67c50e75d3868p-4
2847=-0x1.033a365e707bbp-5
2861=0x1.3be8c37c57f9p-4
2863=-0x1.87e2346c9d9afp-2
2864=0x1.cc5afc740564dp-6
2865=0x1.fe1d5b4ab3136p-8
2868=-0x1.2fdfab364c6b4p-5
2871=0x1.bce532fe53729p-4
2873=-0x1.72ec15962a7e3p-18
2887=0x1.7ad5b8e2cd605p-5
2889=-0x1.e0affc8d0b8c8p-12
2912=-0x1.82308c2e4f7afp-1
2913=0x1.b5dcfbb4a806fp-6
2914=0x1.d5fb7fbbbd26p-2
2915=0x1.3f106ce905cedp-2
2916=-0x1.c139d75fe1e79p-2
2917=-0x1.5286dcb005d48p-4
2922=-0x1.a8a04b8ac41c6p-1
2925=0x1.ab36ed11e4f59p-5
2928=0x1.5ff9a14eaf812p-2
2939=-0x1.8b3ddcee0fbf2p-12
2940=0x1.324323d09bb3ep-4
2941=-0x1.71ca91d935adp-7
2948=0x1.2edfa0f6200b8p+0
2949=-0x1.faa441dfd3d85p-3
2965=0x1.6159710b6fabfp-2
2990=0x1.626233e7170ffp-4
2991=-0x1.20c048d0b1ba5p-3
2992=0x1.da07387aad17p-4
2993=0x1.ea00213d4990dp-5
2995=-0x1.0d43957340fe5p-10
3000=0x1.e0167da6b5551p-5
3001=0x1.0509749a58356p-2
3003=-0x1.2e31b4d42eddep-10
3006=0x1.7e7487e5a59e5p-2
3013=0x1.4c5eb4605a2b8p-4
3016=-0x1.72b33a6715e81p-8
3017=0x1.119f425287fc3p-2
3018=0x1.0baeb95443086p-3
3019=0x1.5aadd1ebe3225p-2
3020=-0x1.4fa3fd948b98fp-1
3021=0x1.a9ce007b1169ap-6
3022=-0x1.c808639784a7dp-2
3024=-0x1.1c8c2f7d47f9fp-4
3025=-0x1.d0ab019f5f3b1p-7
3026=-0x1.b1259309f4b22p-2
3027=-0x1.15c6a6e89dbf4p-4
3029=0x1.972001045db0bp-2
3030=-0x1.2eae62444cff9p-3
3031=-0x1.b5f6e3a00558bp-4
3032=0x1.14fb179f1d653p-15
3036=-0x1.0d98b16dc5f58p-2
3042=0x1.7df5cd68d5b9p-4
3043=-0x1.330b394ab4ba4p-2
3044=0x1.162ed470da842p-2
3045=-0x1.4efb6b17cceccp-1
3047=0x1.485540c6b9d2fp-2
3052=0x1.d5b61d0c9a6e5p-4
3053=-0x1.0000896d62aa6p-1
3068=0x1.215a45afb7e5ap-5
3069=0x1.1e8facf9ec5d8p-9
3070=-0x1.4004015462f92p-6
3071=0x1.d9e10f336e5b8p-6
3072=0x1.98834194321dcp-7
3073=-0x1.51abe4adbdd52p-8
3075=-0x1.285b4d45ef84ap-16
3076=-0x1.02c686bda2266p-16
3077=-0x1.f0a290d61356ap-4
3078=0x1.87c7928134ad1p-3
3079=-0x1.169bf04cfefacp-6
3088=-0x1.c2511b25cba47p-3
3094=0x1.6e0ce3bb12e6bp-7
3096=-0x1.941205829d9cp-4
3097=-0x1.241abe8edbd46p-4
3104=0x1.c8853661c36c8p-1
3131=-0x1.9923f4ae2099dp-5
3146=0x1.572f14b38c649p-4
3147=0x1.953f1a1773f35p-7
3148=0x1.11fb95799fd75p-2
3149=-0x1.4b243b17ec145p-3
3151=-0x1.c0c232a451595p-5
3172=-0x1.d6c02a75eed05p-8
3173=0x1.12032f5f3d0e1p-6
3175=-0x1.eb1da2b6a6d28p-8
3177=0x1.5762a9380a35cp-10
3182=0x1.6af88a1ad6773p-5
3183=0x1.0cfb383a45824p-3
3196=0x1.966dc81c9adadp-4
3198=-0x1.1ffe79be372bp-4
3199=0x1.c1d3fc75c5026p-3
3200=-0x1.76054827a70d7p-2
3201=-0x1.0f6ed78632a5ap-4
3202=0x1.94c069f7a4d3ep-8
3203=-0x1.07ef3366f7e38p-5
3205=0x1.67fc4e72d81e4p-3
3206=0x1.8265f41bd8b7fp-2
3208=0x1.75dd6fd6ceaadp-4
3209=0x1.02f2b5e48a538p-3
3211=0x1.4b93018c7cec1p-3
3227=-0x1.54a16cca359a5p-11
3236=-0x1.d45d02c4b45f4p-6
3251=0x1.5c65bc9aa0d5cp-10
3277=0x1.5c65bc9aa0d5cp-10
3302=-0x1.1aee4141addc9p-2
3303=0x1.599e3599429ep-4
3304=0x1.163ff645163c1p-4
3305=0x1.3422addf0f4dcp-8
3307=-0x1.108702fe2315fp-2
3326=0x1.a8e6938a00facp-9
3329=-0x1.16c59e2cba9fap-1
3330=0x1.5b0ae6ec5419p-3
3355=-0x1.99391c65d8989p-4
3356=-0x1.09de19886dc4ep-5
3357=0x1.2ad3a6912904bp-1
3359=0x1.02fa4f894eb42p-2
3365=0x1.fca72d03aee8ep-13
3367=0x1.0aa50625d3056p-8
3380=0x1.1db5d639b5291p-12
3381=0x1.e23477d8ee072p-6
3382=0x1.a646d7615af64p-4
3383=-0x1.2029a3fb47599p-4
3385=-0x1.0cd51d7854422p-1
3407=-0x1.33c01ac3897d1p+0
3408=0x1.6b4e3b62719fp-4
3409=0x1.a5eee4db65746p-4
3411=-0x1.6d2b65d2e8989p-9
3416=0x1.1c1dce74b4e71p+0
3417=-0x1.3236ba205d943p-2
3419=0x1.0a3c7472f9354p-8
3432=-0x1.68e256e105de8p-3
3433=0x1.5a945b39d4d6bp-4
3434=0x1.be74602a7b513p-2
3435=0x1.a32a2f84230b5p-6
3436=-0x1.32491f529bd66p-3
3437=-0x1.3fad2619b5b53p-2
3438=0x1.0133a6c3d8498p-1
3439=0x1.30b85fb849efp-2
3440=0x1.4001b6ab140eep-4
3441=0x1.23f744f404997p-3
3442=-0x1.22ae85dfad5e3p-3
3443=-0x1.a5a6afa5ea8d8p-7
3445=-0x1.784289e6f4f34p-5
3447=0x1.1f92e01caacb6p-2
3454=-0x1.56218ad1e2f7ep-13
3458=0x1.c4f2b85ddbe6ap-3
3459=-0x1.035c17a4e4e6dp-2
3460=0x1.812f529945aabp-4
3462=-0x1.0dd481d14e57fp-8
3463=-0x1.dda96f48a3f5ap-2
3484=0x1.73851bca5581cp-4
3485=-0x1.281d7bd4343f1p-6
3486=0x1.b98cd2481ca3dp-2
3487=-0x1.cfcfba776337cp-7
3489=-0x1.dbcc456621dd7p-13
3510=0x1.6b937d8b1d54ap-4
3511=-0x1.a8ced16f6b6f7p-3
3512=0x1.e3f51cbcb2d01p-4
3513=0x1.8fc25dd7a5b26p-9
3515=0x1.2be4ed1a34735p-3
3518=-0x1.776c8dd8cd889p-2
3536=0x1.1f6b42760eee6p-5
3537=0x1.dc0de4d4cbfffp-2
3539=0x1.206e8db6c15ep-6
3546=-0x1.e9f98b69b44b2p-2
3547=-0x1.ae411de861827p-5
3549=-0x1.4b850d54885cap+0
3563=0x1.9c1848f281a85p-3
3565=0x1.5f0c2145aae8fp-4
3588=-0x1.13618cf3ebaa2p-18
3589=0x1.19931034d325ap-7
3591=-0x1.22f7bc84989b6p-6
3592=0x1.8cb10e13469a8p-2
3593=0x1.c1dafebed8cd3p-3
3594=0x1.8867ae7caa7b5p-2
3597=-0x1.4b136b4e403eap+0
3599=-0x1.d1869919e0354p-6
3608=0x1.2b9463b948407p-2
3614=-0x1.b356911ea9c54p-2
3615=-0x1.319962d9badd5p-5
3616=0x1.b7d88f64f4fe8p-4
3617=0x1.cb731566e4f5p-4
3618=0x1.3fd03f8cdc0bcp-7
3619=0x1.8bd0984921c6cp-6
3620=0x1.2179cecffd435p-1
3621=0x1.f7364c7c46493p-5
3622=-0x1.520ffc6235643p-1
3623=0x1.6810e5eee87e8p-6
3624=0x1.3ea39f2326a6dp-6
3625=0x1.8b6b38031d3fbp-5
3627=-0x1.bab0b8eb0535dp-5
3640=0x1.52405fe189c84p-8
3642=0x1.2da8bfbeda17ep-3
3643=-0x1.16ee2dea8ae1fp-5
3666=0x1.6effdcf8ef819p-2
3667=0x1.443f1779d89f1p-9
3670=-0x1.865c597d40a44p-1
3692=0x1.28e57716c8855p-1
3693=-0x1.07dea53cee47bp-3
3718=-0x1.65f67ec51e22fp-1
3721=0x1.09cb41c15e2bfp-7
3723=-0x1.0d8a2894a4126p-1
3724=0x1.a1cea0f01d047p-1
3728=-0x1.145cd8ed40113p+0
3729=0x1.8b23ab123fa18p-4
3740=0x1.f470ed60319f6p-4
3744=-0x1.63ea93c33b1fp-1
3745=-0x1.521ca8819531ap-2
3746=-0x1.dffed626bbd55p-13
3747=0x1.a70715af88b7ap-4
3748=0x1.6195280c32b3dp-12
3749=0x1.faa563dcdaec7p-3
3750=0x1.70a1123b9a9e6p-1
3751=0x1.5dfe1b419f075p-6
3752=-0x1.1a8171497522bp-6
3754=0x1.ac217e5f6eba9p-2
3757=0x1.367c7f5cfa492p-2
3764=-0x1.db9c737d2178ep-7
3771=-0x1.d27d0ea8bab02p-4
3773=0x1.4560921fa69f9p-4
3797=0x1.07dd9678855ecp-2
3799=0x1.2ea7980f14b69p-6
3800=-0x1.d89c241a2a877p-1
3822=-0x1.de74a478932f2p-12
3823=0x1.a622945266001p-8
3825=-0x1.acb5665a969a7p-7
3827=0x1.e9e0da8dc6bc3p-5
3829=0x1.0d54544ba0d98p-1
3830=0x1.20542466aa1f1p-11
3832=0x1.55dc12763609dp-9
3833=0x1.0dfe2fa018c6fp-3
3836=-0x1.c76b51a9d6cc9p-12
3848=-0x1.e8117667a5a31p-10
3849=-0x1.018b593f7268cp-1
3850=0x1.17e0d3c279bb2p-1
3851=0x1.a6ce448557659p-4
3874=0x1.babbb0cc7406bp-18
3875=0x1.6764f7883b9dp-5
3882=0x1.0eb8a4b99249ep-8
3887=0x1.ade6e8569079p-9
3901=0x1.486530a7a4b56p-4
3902=-0x1.c252bfe26efep-14
3903=0x1.3ef248e428c5ep-3
3926=-0x1.16c7cf03ecc48p-1
3927=-0x1.ed593b0ab4fep-1
3928=-0x1.540e33fd50ef9p-2
3929=0x1.104086df1eccp-2
3930=-0x1.ea73113683316p-7
3931=0x1.0dfa38311856cp-3
3932=0x1.355d8558a4e9p-2
3934=0x1.f11010af7ee65p-6
3936=0x1.17a1198029531p-2
3937=0x1.fc3fdb0bdca45p-3
3939=0x1.c4d0e18d1b31ep-6
3940=-0x1.94a3f3e80e7a3p-7
3952=-0x1.7fb14e27f86f9p-1
3953=-0x1.851e2a8ac6f53p-3
3954=0x1.9ff0ac2bb33b3p-1
3955=-0x1.3cd5ff5083891p-3
3957=-0x1.d5d5829bbae24p-5
3960=-0x1.baeb4899fa8e6p-4
3962=0x1.b5236e21b79fap-1
3965=0x1.2e7b5866b126ap-1
3967=0x1.96e19a66eff0cp-1
3972=0x1.adde845b70a1cp-2
3980=0x1.32d608177feedp+0
3981=-0x1.8839d6f1867d9p-20
4006=0x1.3125f88741ad8p+0
4007=-0x1.588ceb70448aep-5
4030=0x1.eb598b0aa891ep-3
4031=-0x1.2b3b350bb80fp-4
4032=-0x1.93116f103565bp-14
4033=0x1.ad8915a963f01p-5
4034=-0x1.b7f23ee67e2eap-3
4035=0x1.fa97d80e506cp-8
4037=0x1.ed2099a1bfb6ap-2
4039=-0x1.cdf5569affcap-15
4040=-0x1.e7469a58b7c31p-2
4041=0x1.b3d299892686ep-3
4043=0x1.adf53fd210f36p-4
4045=0x1.06a4b1bbd6e44p-5
4056=-0x1.542441944c85fp+0
4057=0x1.819ecb6a6ac96p-5
4059=0x1.a397046f18c16p-4
4061=-0x1.6c5aa0a15309bp-7
4067=0x1.888c0e03bc8dfp-3
4071=0x1.19ebf05338296p-2
4083=0x1.49c19a4bc71c8p-4
4085=0x1.2a6aad084affbp-2
4087=-0x1.104238776096ap-2
4109=-0x1.486f2489458e2p-3
4111=0x1.3050ffeb3824cp+1
4137=0x1.55018f44dbfe8p-2
4163=0x1.5fc7957089fcfp-1
4189=0x1.6190e4eb5f298p-1
4213=0x1.10c4ff7d79349p-5
4214=-0x1.9765b2d9226f7p-4
4215=0x1.26cb964b8d748p-8
4217=-0x1.181149cfbe941p-1
4225=-0x1.12049a226b736p-7
4226=0x1.93988ed309a1ap-4
4227=0x1.8b7299865f89dp-3
4239=0x1.30f24f85e7b67p-2
4241=0x1.678367ab1f907p-5
4243=-0x1.30d912ff79b5fp-3
4264=-0x1.d8a94764348f9p-1
4265=0x1.8479dab58847ap-10
4266=-0x1.0cde7eea3e9c2p-12
4267=0x1.985f78c102ca8p-8
4269=-0x1.c7b822c6356d6p-4
4270=0x1.1987d94d9d1fdp-2
4273=-0x1.73617aa2687e7p-4
4274=-0x1.a18223b0fe46dp-3
4275=0x1.aa5f67e42d92dp-11
4277=0x1.805439a8a48aep-3
4291=-0x1.9cbf6d0aa7649p-3
4305=0x1.1999ea40e47f8p+0
4317=-0x1.607889602f852p-1
4319=0x1.1d8dc64c16921p+0
4326=0x1.5bc2b592b0c16p-1
4346=0x1.163af6e21b9fap-1
4350=0x1.28cc70e9678d9p-4
4353=-0x1.958d53756ec09p-5
4368=-0x1.a5acc235978fp-1
4369=-0x1.69007b540b04p-4
4370=-0x1.336395980e1e4p-3
4371=0x1.bf1f7b7d1be2bp-5
4373=0x1.467a33a928c2ap-3
4375=0x1.42ae93ba165f9p-2
4377=-0x1.aed14d743d265p-2
4379=0x1.10b7cb18a9ae6p-5
4386=0x1.c5d98b203b473p-1
4395=0x1.58a40bf7f4974p-4
4423=0x1.e2a7b4e311956p-1
4446=-0x1.31f93e027870ep-1
4447=-0x1.e42a214dcea74p-1
4448=-0x1.987f6234d870ap-1
4449=-0x1.1c5ff7b8dd135p-3
4450=0x1.c844fbf0f1606p-5
4451=0x1.83203348db862p-5
4452=0x1.b40bd5ac9307bp-3
4453=-0x1.1c80d1271e574p-2
4454=-0x1.a9561465bd31fp-5
4455=0x1.9a9a7a256a975p-3
4456=0x1.2d248f32be6abp-2
4457=0x1.b8f34b1fd5f24p-4
4459=0x1.79b12b1c72ebcp-3
4460=0x1.172af7eabafc3p-1
4466=0x1.7845d03922fd8p-3
4473=0x1.0e41bc2591db9p-5
4475=-0x1.6383a6cae2155p-10
4476=0x1.005e216b090fep-1
4481=-0x1.6dbe396352d94p-1
4498=-0x1.f4c6ba5935a78p+0
4499=-0x1.916dbcc452e42p-2
4500=-0x1.15351deca4851p+0
4501=-0x1.51c44acbc903ep-2
4502=0x1.f9cf8aa35eb64p-3
4503=-0x1.748752d65f56ap-3
4504=0x1.23355fc7d14fap-6
4505=-0x1.24d2e463d41bep-3
4506=-0x1.b0f83a558821ep-11
4507=0x1.2734b08b18376p-2
4508=0x1.65a5e830e09c6p-2
4509=0x1.49cd21289accep-2
4510=0x1.2c55f5174da2ep-4
4511=0x1.25a4ff5b0a34bp-3
4512=0x1.ac887ea8e9169p-3
4513=-0x1.31e1799b59be2p-3
4515=-0x1.8cdee147c759cp-6
4516=0x1.5bc48cfc6a8eap-3
4517=0x1.8aeee65812f8ap-5
4518=0x1.1bc705a2d3c64p-4
4519=-0x1.216daaab02b5p-3
4520=-0x1.33f95991e60d5p-2
4521=-0x1.44b7ee14c8953p-1
4522=-0x1.7337aa7e3e748p-2
4523=-0x1.f0c1f15ba1077p-11
4524=-0x1.435eaf3c9efcfp-3
4525=0x1.91c6c125b9213p-8
4526=-0x1.9258712cf1ea5p-4
4527=0x1.4f507f72e4fd4p-13
4529=-0x1.015bb407a2f75p-4
4531=0x1.b7132f614f2c2p-14
4532=-0x1.2c705458f6eeep-11
4535=-0x1.d9ecf9d3473bcp-8
4537=0x1.b6bbf5929b47p-3
4539=0x1.069163e906a79p-3
4544=0x1.b96e72cc6804ap-4
4551=0x1.33d13f18ae2b1p-4
4579=0x1.0b283dec3880fp-3
4584=0x1.4aec7e09dc345p-2
4587=-0x1.508ce21869152p-2
4590=0x1.42558ef0d84dp-1
4603=0x1.9e9c5bc3c0f4bp-4
4605=-0x1.c2973b0233f51p-6
4611=-0x1.2e18bf3d45178p-3
4616=0x1.b125be345d634p-9
4628=0x1.45ab8789a847ap-6
4629=0x1.c8464f9f1f61cp-6
4631=-0x1.19529551ea869p-4
4632=0x1.9bc7195d5b54ep-9
4633=0x1.cd06199034f7ep-11
4655=-0x1.f5571820d8c19p-4
4657=-0x1.0bdd40c4a555dp-3
4658=0x1.f40e5b3fb8bb4p-10
4659=-0x1.4785e2d331eaep-5
4660=-0x1.d78f3070abf81p-3
4661=-0x1.9862b9d9e18a2p-5
4663=0x1.82c09b3f35878p-3
4664=0x1.3c0592eb73c2ap-5
4665=0x1.85c5f1940e73dp-4
4666=0x1.9fb3b64c72a6cp-16
4667=0x1.a2d0ba516c15dp-5
4668=0x1.397d55094f5fdp-3
4669=-0x1.25c671b75969bp-5
4672=0x1.e5e597ff313d2p-4
4674=0x1.84f871b59d1c5p-5
4676=-0x1.bace95de0ca2ap-5
4683=0x1.631b0331ae0fdp-4
4685=0x1.cff91e0e55f6cp-3
4711=0x1.dd91ae657fb4ep-2
4737=0x1.9ba4ac8992754p-5
4745=-0x1.a2c24ea264c2ep-6
4758=0x1.3e176cae919ccp-4
4759=0x1.eb5f7c17850d2p-4
4760=0x1.a6477c9d2d39ap-4
4761=0x1.ff20c5447c37p-9
4762=0x1.7dc0189a05154p-1
4763=-0x1.0cdbe57376497p-2
4764=-0x1.b382b4a09d83cp-1
4765=-0x1.7bcddb42b6c23p-3
4767=0x1.e29994e4709a8p-6
4768=0x1.e801778e8a268p-3
4769=-0x1.dfeaa879faabp-3
4771=-0x1.a89abf89880f3p-4
4773=-0x1.86c278229d42dp-6
4778=-0x1.9109d6831095bp-7
4784=0x1.1e730c3fd534fp-1
4785=0x1.d4c8de1d8f5d2p-4
4786=0x1.683af76b370c5p-3
4787=0x1.89c1cf554d639p-6
4788=0x1.e1e33d24493f2p-2
4789=-0x1.fee96f7128739p-3
4791=-0x1.98b98fdcb1ae8p-3
4792=-0x1.2a5d83b3c2435p-6
4793=-0x1.e8eb4ff3aa91cp-5
4794=-0x1.1d1cfd72848d3p-11
4795=-0x1.7207ab5a7d8dfp-5
4797=-0x1.06d76ae6a7d02p-2
4798=-0x1.211c1aabd1a56p-2
4804=-0x1.772e00c940426p-3
4807=-0x1.188dbaf4f5e71p-3
4811=-0x1.ec1da0ba3e585p-7
4814=-0x1.aa9a33afe4b2ep-9
4815=-0x1.42b2b0d7f0ab7p-13
4816=-0x1.0dbf746b70086p-4
4820=0x1.84570097da322p-4
4821=0x1.c6cb9ccd218dp-8
4823=0x1.6fe49cfcc1726p-7
4824=0x1.7ee6348194436p-4
4825=-0x1.28fdbb6678ef8p-8
4836=-0x1.34aaf4b351521p-4
4839=0x1.7ca01dedbfa63p-6
4840=0x1.9f953934a8ae1p+1
4865=0x1.64782336b0157p-3
4866=0x1.ea0ec30e23a71p+0
4890=-0x1.48d24f49eed0ap-13
4891=0x1.4ff1f54cfbaf8p-2
4892=-0x1.525a235b56b9dp-7
4894=0x1.6951fd3bd5e4ap-3
4902=0x1.ed09d22a4b315p-3
4915=0x1.c02953aa39bd5p-2
4918=0x1.be22f87de3f5ap+0
4923=-0x1.71af029a0defdp+1
4928=0x1.bdab60a7571fep-5
4941=-0x1.4bbdf581d9194p-1
4943=0x1.6ccbcde18122bp-4
4946=-0x1.1bed5f82ca2d5p-5
4949=0x1.3657ddb843f3ap-3
4950=0x1.23b201385dfefp-14
4951=-0x1.67ceece5ec8d2p-13
4953=0x1.aa22771a761ap-1
4960=0x1.68fe707bdbd22p-7
4967=-0x1.6a5c6445656d6p-4
4970=-0x1.e3a100cd8611ep-1
4971=-0x1.f1a0f5f712eecp-9
4972=-0x1.e065f92170969p-4
4974=0x1.77a261490ff02p-13
4975=-0x1.93961898db998p-12
4976=0x1.4b7318d5f3a63p-2
4977=0x1.79a34c95baad9p-3
4978=-0x1.d281343df699bp-5
4979=0x1.e3774bfbd059cp-6
4980=0x1.b67ca548ee948p-4
4986=0x1.455b19dac2e91p-7
4992=0x1.874c0e9b41e25p-5
4993=-0x1.3d0c2d39b408dp-3
4994=0x1.1a776eacfdb4fp-2
4995=0x1.1a8560f5697dcp-3
4997=0x1.131bd0cbb2e4dp-3
4999=-0x1.8b15afddb5f6p-10
5002=0x1.6d6d3fde1d406p-2
5003=-0x1.03c9eef9bcaccp-4
5014=0x1.bfda34623fd6p-2
5018=0x1.b31c7480a4da7p-3
5019=-0x1.871ba3cf9d032p-13
5020=0x1.7a670d5c8b90fp-3
5021=-0x1.441baf04059efp-2
5044=0x1.85e3141bcfp-4
5045=-0x1.230f0f5518906p-4
5046=-0x1.b8f072cbcaf2cp-5
5047=0x1.4d9e635a4e29fp-12
5049=0x1.cb7f7e67af047p-8
5054=0x1.bd970782577bcp-2
5055=0x1.4beffcd132ca2p-5
5057=-0x1.6ae8f76e2a14dp-10
5058=0x1.64556565c4c2dp-7
5070=0x1.5fdc8bee26de2p-6
5071=0x1.4deb9d48977d5p-6
5072=0x1.ee083c5cd318p-4
5073=0x1.3a66eca2a537ap-7
5075=-0x1.d166a851c62fbp-7
5092=0x1.f7ba232582affp-5
5096=-0x1.a4876b477140ap-6
5097=0x1.d1e824b95dd37p-10
5098=0x1.cdbd9abc81957p-4
5099=0x1.2aadcd30e57dfp-7
5108=0x1.5238041720da8p-1
5116=-0x1.cd782c65abf46p-10
5124=0x1.75392fb72b712p-8
5147=0x1.39f291ec497cap-5
5148=0x1.134bc96a106bep-1
5149=0x1.ca2f885a6ac7dp-5
5151=-0x1.f8ca7b8be5e45p-8
5153=-0x1.0cab6a6e243eap-6
5159=0x1.a720f0f322f5p-4
5174=0x1.195916caf5356p-5
5179=-0x1.305074bcaa92dp-6
5200=-0x1.bcd99559a315ap-5
5201=0x1.791eaad383a66p-3
5202=-0x1.709a064298673p-2
5203=0x1.8bc1427a0b787p-3
5204=-0x1.5c0ac2b4413e9p-2
5205=0x1.32b5cc19b4c1fp-3
5206=-0x1.a6b20e96ba92fp-7
5207=0x1.7d2ebfa00979ap-6
5208=0x1.066744a244eb7p-2
5209=-0x1.cbca164873a1p-17
5210=-0x1.0ae14f2146dd3p-4
5211=0x1.ef8bb6c91b961p-3
5213=-0x1.03f1a3e86da4cp-2
5214=-0x1.9cb13ffc43f9ap-4
5216=-0x1.c443ab418f9bcp-6
5220=0x1.30c9f15771ebp-3
5223=-0x1.bc894e237808cp-4
5225=0x1.08ebde4fd9afap-2
5226=-0x1.7938580842b39p-2
5227=0x1.f8c0d06dec49ap-6
5228=-0x1.611f331fd3bb7p-4
5236=-0x1.24ad7894c5f07p-4
5237=0x1.da2f23423a59cp-1
5253=-0x1.e9fd53669c8a8p-3
5254=0x1.d6e4f48a3449fp-2
5255=-0x1.848ff593aa0e4p-7
5262=0x1.a8ea2d7f36842p-1
5263=-0x1.2972caabf3de2p-7
5268=0x1.c9fcd289bd777p-18
5278=0x1.495e334dcb613p-3
5279=0x1.1d82fccea8cbbp-3
5280=0x1.3d5e5082f515bp-9
5281=0x1.c9e6997bc6cep-5
